{"type":"LSTM","options":{"inputSize":47,"inputRange":47,"hiddenLayers":[20,20],"outputSize":47,"decayRate":0.999,"smoothEps":1e-8,"regc":0.000001,"clipval":5,"maxPredictionLength":100,"dataFormatter":{"values":[".mp4","01234564789","Lorem ipsum dolor sit amet, consetetur sadipscing aliquyam erat, sed diam voluptua.","Muh sagt die Kuh","abcdefghijklimopqrstuvwxyz","http://www.","https://www.","text","url","www.","www.google.de"],"indexTable":{"0":4,"1":5,"2":6,"3":7,"4":3,"5":8,"6":9,"7":10,"8":11,"9":12,".":0,"m":1,"p":2,"L":13,"o":14,"r":15,"e":16," ":17,"i":18,"s":19,"u":20,"d":21,"l":22,"t":23,"a":24,",":25,"c":26,"n":27,"g":28,"q":29,"y":30,"v":31,"M":32,"h":33,"K":34,"b":35,"f":36,"j":37,"k":38,"w":39,"x":40,"z":41,":":42,"/":43,"stop-input":44,"start-output":45,"unrecognized":46},"characterTable":{"0":".","1":"m","2":"p","3":"4","4":"0","5":"1","6":"2","7":"3","8":"5","9":"6","10":"7","11":"8","12":"9","13":"L","14":"o","15":"r","16":"e","17":" ","18":"i","19":"s","20":"u","21":"d","22":"l","23":"t","24":"a","25":",","26":"c","27":"n","28":"g","29":"q","30":"y","31":"v","32":"M","33":"h","34":"K","35":"b","36":"f","37":"j","38":"k","39":"w","40":"x","41":"z","42":":","43":"/","44":null,"45":null,"46":null},"characters":[".","m","p","4","0","1","2","3","5","6","7","8","9","L","o","r","e"," ","i","s","u","d","l","t","a",",","c","n","g","q","y","v","M","h","K","b","f","j","k","w","x","z",":","/","stop-input","start-output","unrecognized"],"specialIndexes":[44,45,46]}},"input":{"rows":48,"columns":47,"weights":{"0":-0.4829714596271515,"1":0.3972715139389038,"2":-0.5663785934448242,"3":0.8342655301094055,"4":0.4929952919483185,"5":0.07905343919992447,"6":-0.5799187421798706,"7":-0.15409693121910095,"8":-0.5098381042480469,"9":-0.42650479078292847,"10":-0.36495906114578247,"11":0.45329201221466064,"12":0.2850469946861267,"13":0.632202684879303,"14":-0.007838135585188866,"15":0.40934067964553833,"16":-0.31648218631744385,"17":0.33466434478759766,"18":-0.4367828667163849,"19":-0.645369827747345,"20":-0.5980690717697144,"21":-0.5316532254219055,"22":-0.4524870216846466,"23":0.3064614534378052,"24":0.4881843030452728,"25":-0.2739020884037018,"26":0.7318546175956726,"27":0.8042791485786438,"28":0.33914217352867126,"29":0.46172812581062317,"30":-0.7125802040100098,"31":-0.3257986605167389,"32":-0.4821586608886719,"33":0.7051438689231873,"34":-0.5784239172935486,"35":-0.44614219665527344,"36":0.592573881149292,"37":-0.39064985513687134,"38":0.48863354325294495,"39":-0.3906562030315399,"40":0.7061250805854797,"41":0.15494610369205475,"42":0.08499617874622345,"43":-0.4523502588272095,"44":-0.6716171503067017,"45":0.13861508667469025,"46":0.42641669511795044,"47":-0.9648255109786987,"48":-0.45917215943336487,"49":-2.204005241394043,"50":0.9219816327095032,"51":1.901904582977295,"52":0.5821334719657898,"53":-0.29276442527770996,"54":-0.2800597846508026,"55":-0.5282019376754761,"56":-1.5836619138717651,"57":-1.1095161437988281,"58":0.7267372608184814,"59":2.681443214416504,"60":3.0687859058380127,"61":-0.10154213011264801,"62":2.7183597087860107,"63":-0.6049185395240784,"64":-0.09434760361909866,"65":0.6126382350921631,"66":0.7886205911636353,"67":0.17350800335407257,"68":-0.8387546539306641,"69":-2.3828680515289307,"70":-0.00499992910772562,"71":2.8969194889068604,"72":-1.037345290184021,"73":1.4807692766189575,"74":1.759158968925476,"75":-0.411778062582016,"76":-1.1114466190338135,"77":-0.9842897057533264,"78":0.37570369243621826,"79":-1.5457439422607422,"80":2.4183201789855957,"81":-0.1495271921157837,"82":-0.3772515058517456,"83":0.7531439661979675,"84":1.5408275127410889,"85":0.09183232486248016,"86":0.5980736017227173,"87":0.05014370381832123,"88":-0.02192986011505127,"89":-0.0790952667593956,"90":-1.006722331047058,"91":1.1377131938934326,"92":-0.8315936923027039,"93":-0.7300093173980713,"94":0.07927428930997849,"95":-0.12124406546354294,"96":0.7581348419189453,"97":-1.2334433794021606,"98":-1.8875640630722046,"99":-0.8620885014533997,"100":0.5217750668525696,"101":0.766209065914154,"102":0.4069128930568695,"103":0.4064316153526306,"104":-1.1038070917129517,"105":-0.6731120347976685,"106":-2.2067151069641113,"107":-0.4226132035255432,"108":0.8280100226402283,"109":-1.1560375690460205,"110":1.1864341497421265,"111":-0.025893285870552063,"112":0.3118502199649811,"113":0.4936664402484894,"114":0.36303040385246277,"115":0.028137845918536186,"116":0.6038550734519958,"117":-0.869366466999054,"118":-2.3707683086395264,"119":1.7115161418914795,"120":0.15067827701568604,"121":-1.1133698225021362,"122":-0.18248938024044037,"123":-0.15415427088737488,"124":0.27514880895614624,"125":0.31872665882110596,"126":1.316859245300293,"127":-0.9443420767784119,"128":-0.3924959897994995,"129":0.26392993330955505,"130":-1.6323623657226562,"131":-0.7181684374809265,"132":-0.633991539478302,"133":0.2553679347038269,"134":-2.5078108310699463,"135":-1.4945374727249146,"136":0.43703892827033997,"137":0.3463470935821533,"138":-0.18554697930812836,"139":-0.4418172538280487,"140":0.10201969742774963,"141":0.2478281855583191,"142":0.6248636245727539,"143":-0.1919516921043396,"144":-1.4117131233215332,"145":-0.26002058386802673,"146":0.05003157630562782,"147":-0.7054641246795654,"148":-0.25077301263809204,"149":0.47290727496147156,"150":-1.1559996604919434,"151":0.35015732049942017,"152":-0.3983215391635895,"153":-0.13627295196056366,"154":-0.24406595528125763,"155":-0.05779146030545235,"156":0.2076665312051773,"157":1.0734256505966187,"158":-0.3520140051841736,"159":-0.1668161302804947,"160":0.22931313514709473,"161":-0.02217242121696472,"162":-0.9194038510322571,"163":-0.3215245306491852,"164":-0.5502849817276001,"165":-1.6001681089401245,"166":0.5043063163757324,"167":-0.37505942583084106,"168":-1.1281917095184326,"169":0.003990852739661932,"170":0.39303290843963623,"171":-0.8015400171279907,"172":0.9717453122138977,"173":0.7015409469604492,"174":-0.3181600272655487,"175":0.6056808233261108,"176":0.4332069456577301,"177":-0.5324751138687134,"178":-0.057450659573078156,"179":0.43072688579559326,"180":-0.3969089984893799,"181":-0.9114285111427307,"182":-0.22170031070709229,"183":0.06874541193246841,"184":-0.15314969420433044,"185":-0.3655061721801758,"186":-0.9542209506034851,"187":0.4218847453594208,"188":0.9871992468833923,"189":0.4920194745063782,"190":0.7926238775253296,"191":-1.1249992847442627,"192":-0.6598628163337708,"193":0.4486321806907654,"194":0.9277651309967041,"195":-0.6177974343299866,"196":0.7383652925491333,"197":0.5864332318305969,"198":0.540648877620697,"199":-0.8476452827453613,"200":-0.690682590007782,"201":-0.4289345145225525,"202":-0.46298298239707947,"203":-0.8491876721382141,"204":0.7015268802642822,"205":0.4432657063007355,"206":-0.3214929699897766,"207":1.0267688035964966,"208":0.7631310820579529,"209":0.45589780807495117,"210":0.5638152360916138,"211":0.42285338044166565,"212":-0.5404235124588013,"213":0.737372100353241,"214":-0.6453956961631775,"215":-0.9102674126625061,"216":0.2135852575302124,"217":0.5163189172744751,"218":0.7392454147338867,"219":-0.24440863728523254,"220":0.7365566492080688,"221":-0.7948417663574219,"222":0.6666440963745117,"223":0.8920294046401978,"224":-0.9724701046943665,"225":-0.31559446454048157,"226":0.2800678610801697,"227":-0.32393577694892883,"228":-0.9801735281944275,"229":0.28642159700393677,"230":-0.3902374804019928,"231":0.8345116376876831,"232":-0.28617629408836365,"233":0.251751184463501,"234":0.2356877624988556,"235":1.1888837814331055,"236":0.6085185408592224,"237":1.9719847440719604,"238":-1.7231574058532715,"239":-1.7596056461334229,"240":0.41441676020622253,"241":0.9548314809799194,"242":-1.3190553188323975,"243":1.072889804840088,"244":0.7453331351280212,"245":1.964354395866394,"246":-0.5460453033447266,"247":-1.600763201713562,"248":-1.5752205848693848,"249":-1.4011881351470947,"250":-1.6800496578216553,"251":1.3004564046859741,"252":1.0023622512817383,"253":-0.9552346467971802,"254":1.1026614904403687,"255":0.9272871613502502,"256":0.684335470199585,"257":0.4262126386165619,"258":1.1698181629180908,"259":-1.6015883684158325,"260":1.477613091468811,"261":-0.8092958927154541,"262":-0.6125488877296448,"263":0.8704668879508972,"264":0.7085540294647217,"265":0.7412387728691101,"266":-1.0572328567504883,"267":1.6332365274429321,"268":-0.3545549809932709,"269":0.915621280670166,"270":0.7031338214874268,"271":-2.4956393241882324,"272":-1.0572052001953125,"273":0.9840058088302612,"274":-0.8231066465377808,"275":-1.5781804323196411,"276":1.2985867261886597,"277":-1.376297116279602,"278":2.033583402633667,"279":-0.8325059413909912,"280":0.9877152442932129,"281":0.7717249989509583,"282":-1.1771094799041748,"283":-0.32442834973335266,"284":-1.38862144947052,"285":1.1665589809417725,"286":1.2604931592941284,"287":-0.25343120098114014,"288":-0.6964119672775269,"289":0.3185766339302063,"290":-0.8414413332939148,"291":-0.5773137211799622,"292":-1.4293445348739624,"293":0.4568583071231842,"294":1.3898745775222778,"295":1.0076429843902588,"296":0.3908126652240753,"297":1.1515368223190308,"298":-1.4500961303710938,"299":-0.23501114547252655,"300":0.3792402148246765,"301":-0.7480848431587219,"302":-0.8566470742225647,"303":-0.6079782247543335,"304":-0.374865859746933,"305":-0.3175182342529297,"306":1.2635806798934937,"307":-1.8028712272644043,"308":0.6066242456436157,"309":0.7620998024940491,"310":-0.22014768421649933,"311":-0.31563103199005127,"312":-0.669059693813324,"313":0.28186655044555664,"314":-1.5496251583099365,"315":0.3202369213104248,"316":-0.8893841505050659,"317":-0.8798839449882507,"318":1.5585359334945679,"319":0.26575344800949097,"320":-0.33013373613357544,"321":0.24572202563285828,"322":0.8603508472442627,"323":-0.5105747580528259,"324":0.2882488965988159,"325":-1.2246131896972656,"326":0.2568364143371582,"327":-0.21825388073921204,"328":-0.3593202531337738,"329":0.8487049341201782,"330":0.2502625286579132,"331":0.631831705570221,"332":-0.8489441871643066,"333":-0.7108415961265564,"334":1.0397961139678955,"335":0.8465840220451355,"336":-1.4115618467330933,"337":0.6382395625114441,"338":0.8252954483032227,"339":0.5160554051399231,"340":-0.9386793375015259,"341":-0.7750765681266785,"342":-0.6178900003433228,"343":-1.3178093433380127,"344":-0.8151025176048279,"345":0.7389855980873108,"346":1.3812856674194336,"347":-1.1709513664245605,"348":0.7639576196670532,"349":0.7848883867263794,"350":0.6999289393424988,"351":0.8008507490158081,"352":1.4287831783294678,"353":-0.634721040725708,"354":0.7692623734474182,"355":-0.6949233412742615,"356":-0.8051737546920776,"357":1.3443220853805542,"358":1.0893186330795288,"359":0.7398205995559692,"360":-1.3715224266052246,"361":0.6891490817070007,"362":-1.053430438041687,"363":0.7367753982543945,"364":0.7977781891822815,"365":-0.6905349493026733,"366":-1.6315597295761108,"367":1.094044804573059,"368":-1.185234785079956,"369":-0.8831451535224915,"370":1.5558968782424927,"371":-1.4446431398391724,"372":0.6014546155929565,"373":-1.4780738353729248,"374":1.3924661874771118,"375":1.4363510608673096,"376":0.7333049178123474,"377":0.6243360042572021,"378":0.8863093852996826,"379":-1.0095480680465698,"380":-0.691155195236206,"381":0.5653972029685974,"382":0.6316866874694824,"383":-0.7907875180244446,"384":0.7135855555534363,"385":0.6156864762306213,"386":0.7066779136657715,"387":-0.46074366569519043,"388":-0.8575190305709839,"389":-0.7167360186576843,"390":-0.6680558323860168,"391":-0.7508790493011475,"392":0.8643513917922974,"393":0.538613498210907,"394":-0.6603003740310669,"395":0.7467646598815918,"396":0.5834460854530334,"397":0.42835941910743713,"398":0.4288049340248108,"399":0.6864380836486816,"400":-0.7061867117881775,"401":0.8804639577865601,"402":-0.4663153290748596,"403":-0.6453026533126831,"404":0.555402398109436,"405":0.5639065504074097,"406":0.6047539710998535,"407":-0.5813347101211548,"408":0.9866527915000916,"409":-0.5112939476966858,"410":0.5873153805732727,"411":0.761892557144165,"412":-0.9345313310623169,"413":-0.5515516400337219,"414":0.5672200322151184,"415":-0.4993205964565277,"416":-0.8840122818946838,"417":0.856479287147522,"418":-0.7049217224121094,"419":0.8128880858421326,"420":-0.5812456011772156,"421":0.608421802520752,"422":0.5747465491294861,"423":1.4531208276748657,"424":0.555959165096283,"425":1.2380300760269165,"426":-1.154395580291748,"427":-1.3781273365020752,"428":0.6480751633644104,"429":1.4791972637176514,"430":-0.8364354372024536,"431":1.5022101402282715,"432":1.0743893384933472,"433":1.6313369274139404,"434":-1.0767897367477417,"435":-1.2259080410003662,"436":-1.5139492750167847,"437":-0.6203829646110535,"438":-1.6534191370010376,"439":1.3448808193206787,"440":0.656461775302887,"441":-0.5469063520431519,"442":1.5264023542404175,"443":1.5415235757827759,"444":1.0571727752685547,"445":0.8363379836082458,"446":0.6965974569320679,"447":-1.3592664003372192,"448":1.1994894742965698,"449":-1.1783032417297363,"450":-1.440815806388855,"451":0.6824001669883728,"452":0.5938284993171692,"453":1.3607970476150513,"454":-0.6866434812545776,"455":1.1461646556854248,"456":-0.6624582409858704,"457":1.4349957704544067,"458":1.4096839427947998,"459":-1.2677558660507202,"460":-0.5499066114425659,"461":0.6082382202148438,"462":-0.6149946451187134,"463":-1.3872089385986328,"464":0.8013585209846497,"465":-0.7200815677642822,"466":1.4492411613464355,"467":-0.5094029307365417,"468":0.5854219794273376,"469":0.63531893491745,"470":1.0712494850158691,"471":1.4469691514968872,"472":1.0703881978988647,"473":-0.7031893134117126,"474":-1.4471714496612549,"475":1.3415722846984863,"476":1.4531935453414917,"477":-1.4184218645095825,"478":1.131449580192566,"479":2.1813721656799316,"480":1.0326745510101318,"481":-1.5626472234725952,"482":-1.9333791732788086,"483":-1.7123140096664429,"484":-1.327087640762329,"485":-1.718337059020996,"486":1.5611377954483032,"487":1.3817590475082397,"488":-1.5780882835388184,"489":1.1450337171554565,"490":1.4182770252227783,"491":1.755334496498108,"492":1.9799320697784424,"493":1.5194026231765747,"494":-1.5052618980407715,"495":0.9372668266296387,"496":-1.5744787454605103,"497":-1.3399345874786377,"498":1.5395492315292358,"499":1.5033936500549316,"500":1.8033955097198486,"501":-1.6306719779968262,"502":0.979863703250885,"503":-1.7553648948669434,"504":1.2312939167022705,"505":1.7238421440124512,"506":-0.5883792638778687,"507":-1.6915711164474487,"508":1.4303101301193237,"509":-1.4709913730621338,"510":-1.6525510549545288,"511":1.683005452156067,"512":-1.3653844594955444,"513":1.1554837226867676,"514":-1.7245242595672607,"515":1.4556503295898438,"516":1.6380032300949097,"517":2.033905506134033,"518":1.4730116128921509,"519":-1.3784159421920776,"520":0.9951826930046082,"521":-1.92819344997406,"522":1.4580646753311157,"523":1.729347825050354,"524":-1.4914144277572632,"525":1.551262617111206,"526":1.7054468393325806,"527":1.7610442638397217,"528":-1.5588665008544922,"529":-2.1135880947113037,"530":-1.782602310180664,"531":-1.3565531969070435,"532":-2.161454200744629,"533":1.4871443510055542,"534":1.446243405342102,"535":-1.42597496509552,"536":1.5202101469039917,"537":1.4062846899032593,"538":1.5484025478363037,"539":1.5088990926742554,"540":1.4739357233047485,"541":-1.625199317932129,"542":-1.4298075437545776,"543":-1.6310611963272095,"544":-1.73891019821167,"545":1.5348504781723022,"546":1.475771188735962,"547":1.6473968029022217,"548":-1.4191089868545532,"549":-1.283867597579956,"550":-1.5768916606903076,"551":1.5169035196304321,"552":1.7371662855148315,"553":1.4105877876281738,"554":-1.4148263931274414,"555":1.373641014099121,"556":-1.4809447526931763,"557":-1.7895702123641968,"558":1.536490797996521,"559":-1.4836468696594238,"560":1.6662077903747559,"561":-1.4993925094604492,"562":1.5253322124481201,"563":1.5002607107162476,"564":-1.333044171333313,"565":1.5589898824691772,"566":-1.1008851528167725,"567":1.3653305768966675,"568":-2.7069790363311768,"569":1.6150612831115723,"570":-1.698123812675476,"571":-1.63093101978302,"572":-0.5857807993888855,"573":1.9827160835266113,"574":2.613400459289551,"575":-1.7074207067489624,"576":0.5819850564002991,"577":-1.9619807004928589,"578":-1.5567221641540527,"579":-2.5141992568969727,"580":-1.0428775548934937,"581":1.5161511898040771,"582":-1.5973261594772339,"583":-1.4807032346725464,"584":-2.138742208480835,"585":2.0763070583343506,"586":2.1538326740264893,"587":1.7141281366348267,"588":-2.268327474594116,"589":-1.285895586013794,"590":1.4024019241333008,"591":1.0910322666168213,"592":1.5016496181488037,"593":1.5436766147613525,"594":-2.036773204803467,"595":-1.5724226236343384,"596":-1.0406571626663208,"597":-1.2042808532714844,"598":-1.0086297988891602,"599":-0.9519336223602295,"600":1.2840447425842285,"601":-1.4609850645065308,"602":1.6491477489471436,"603":-1.6343178749084473,"604":2.0498275756835938,"605":1.2530360221862793,"606":-1.6126115322113037,"607":-1.4978551864624023,"608":-1.5254912376403809,"609":1.5881009101867676,"610":1.5359927415847778,"611":2.2321202754974365,"612":1.0986459255218506,"613":2.8826606273651123,"614":-3.09250545501709,"615":-2.2885100841522217,"616":1.212955117225647,"617":1.9629062414169312,"618":-1.2154942750930786,"619":2.1559722423553467,"620":1.204943299293518,"621":2.9936318397521973,"622":-1.3409688472747803,"623":-2.60392689704895,"624":-2.2375917434692383,"625":-1.2211283445358276,"626":-2.340043783187866,"627":1.3884682655334473,"628":1.2442442178726196,"629":-1.1738344430923462,"630":2.1180455684661865,"631":1.6874935626983643,"632":1.4692823886871338,"633":1.274238109588623,"634":1.2502394914627075,"635":-2.1840527057647705,"636":1.9400070905685425,"637":-1.7911566495895386,"638":-1.9120913743972778,"639":1.1036334037780762,"640":1.228003978729248,"641":1.6950016021728516,"642":-1.0707237720489502,"643":2.4698660373687744,"644":-1.5005756616592407,"645":2.0981645584106445,"646":1.3849011659622192,"647":-3.089409351348877,"648":-1.2270739078521729,"649":1.036402702331543,"650":-1.1751676797866821,"651":-2.0326526165008545,"652":1.37369966506958,"653":-1.2028639316558838,"654":2.347285509109497,"655":-1.048905849456787,"656":1.3001680374145508,"657":1.130692958831787,"658":2.1452646255493164,"659":-0.9269213676452637,"660":1.754244089126587,"661":0.13130655884742737,"662":-1.8687329292297363,"663":-0.6055993437767029,"664":2.982306718826294,"665":0.9279962778091431,"666":2.947131395339966,"667":3.305814027786255,"668":1.8724855184555054,"669":-2.0673043727874756,"670":-1.8683598041534424,"671":-1.7538901567459106,"672":0.6956256628036499,"673":-1.2985860109329224,"674":2.108179807662964,"675":-1.5822924375534058,"676":0.49347159266471863,"677":2.7548208236694336,"678":2.908376455307007,"679":3.2884435653686523,"680":2.6653332710266113,"681":-1.0401151180267334,"682":0.671681821346283,"683":2.1825623512268066,"684":-2.909346103668213,"685":-2.193798065185547,"686":-0.3539087772369385,"687":-0.6624971032142639,"688":3.0342822074890137,"689":0.46147236227989197,"690":-0.24984794855117798,"691":-2.3887224197387695,"692":2.9908735752105713,"693":2.2258217334747314,"694":-1.098438024520874,"695":3.1169190406799316,"696":-0.46308064460754395,"697":0.7749505043029785,"698":-1.6613495349884033,"699":-0.4896566867828369,"700":0.964473307132721,"701":2.0552287101745605,"702":0.9679662585258484,"703":-0.8484523296356201,"704":-1.9821646213531494,"705":-2.5924417972564697,"706":-0.022810131311416626,"707":-1.9588769674301147,"708":-0.1955207735300064,"709":1.3367146253585815,"710":-0.5268890857696533,"711":-2.9021592140197754,"712":0.40976187586784363,"713":-0.6565731763839722,"714":-1.661581039428711,"715":-0.6748085021972656,"716":1.3916661739349365,"717":0.9018868207931519,"718":0.3937002718448639,"719":0.14567652344703674,"720":1.7551405429840088,"721":-0.39802995324134827,"722":-0.31689009070396423,"723":0.010422773659229279,"724":-2.607309579849243,"725":-1.4684453010559082,"726":-1.7450145483016968,"727":-0.9971137642860413,"728":-0.4392683506011963,"729":-0.0371597521007061,"730":1.2034541368484497,"731":0.3720284104347229,"732":1.0718690156936646,"733":-0.44735828042030334,"734":-0.03463670238852501,"735":-2.8872339725494385,"736":0.03123580478131771,"737":0.06119316443800926,"738":-0.13702093064785004,"739":-1.3203966617584229,"740":-2.3195528984069824,"741":-0.2371216118335724,"742":0.48246827721595764,"743":-0.15507085621356964,"744":0.11837775260210037,"745":2.1740570068359375,"746":-0.3262299597263336,"747":0.3763428330421448,"748":-1.326248288154602,"749":0.4781396687030792,"750":-0.13834314048290253,"751":-0.12070582807064056,"752":-0.5307755470275879,"753":-0.525198757648468,"754":-1.1886999607086182,"755":0.33011558651924133,"756":1.0773088932037354,"757":-0.15215234458446503,"758":-0.39540794491767883,"759":0.031176211312413216,"760":-0.04474211856722832,"761":-0.7949146628379822,"762":-0.8870890140533447,"763":0.7557336091995239,"764":1.2849329710006714,"765":1.274194359779358,"766":0.15657751262187958,"767":1.2184165716171265,"768":-0.5720428824424744,"769":-0.6634997129440308,"770":0.697778582572937,"771":0.0010573366889730096,"772":-0.15217827260494232,"773":-0.3659680187702179,"774":-1.3534883260726929,"775":-0.26025158166885376,"776":1.0526020526885986,"777":-0.5564819574356079,"778":0.39230334758758545,"779":0.7630743384361267,"780":-0.4208362102508545,"781":-0.8174764513969421,"782":-0.2704838812351227,"783":0.46823832392692566,"784":-0.649691104888916,"785":1.3064121007919312,"786":-0.05407407134771347,"787":-0.4463696777820587,"788":0.5240691304206848,"789":1.420747995376587,"790":-0.15032809972763062,"791":1.001659631729126,"792":0.04469272494316101,"793":0.770977795124054,"794":0.5739424824714661,"795":-0.8745984435081482,"796":0.5277059674263,"797":-0.9263749718666077,"798":-0.5926039814949036,"799":-0.005350036546587944,"800":-2.3491897583007812,"801":0.5793535709381104,"802":0.6998671293258667,"803":0.12137875705957413,"804":-1.5269204378128052,"805":0.6641870737075806,"806":1.3917570114135742,"807":-0.926375150680542,"808":-0.1844673603773117,"809":0.12634055316448212,"810":0.22131307423114777,"811":-0.266214519739151,"812":0.07026661932468414,"813":1.8660699129104614,"814":-0.41055014729499817,"815":-0.513648271560669,"816":-1.082577109336853,"817":2.1439802646636963,"818":0.12535549700260162,"819":-0.11053817719221115,"820":-0.0003301457909401506,"821":-0.044753335416316986,"822":-0.5318558812141418,"823":1.1623386144638062,"824":-0.14474286139011383,"825":0.666119396686554,"826":0.7694704532623291,"827":-1.320024847984314,"828":-2.3274054527282715,"829":0.5708752274513245,"830":1.209639310836792,"831":-0.43679746985435486,"832":0.9827797412872314,"833":-0.7368988990783691,"834":-0.3787640631198883,"835":0.03672443702816963,"836":1.870786428451538,"837":-2.952831745147705,"838":2.0312678813934326,"839":-0.19769276678562164,"840":-1.2010505199432373,"841":0.6273542046546936,"842":0.5439288020133972,"843":2.232874631881714,"844":-0.7306073307991028,"845":-2.3990559577941895,"846":0.6820611357688904,"847":2.850309133529663,"848":0.410714328289032,"849":-3.329200267791748,"850":0.13386088609695435,"851":0.6298528909683228,"852":0.3895745277404785,"853":-3.9714443683624268,"854":3.6313555240631104,"855":-1.6334571838378906,"856":1.7451213598251343,"857":-1.561808466911316,"858":0.1065744087100029,"859":-0.6632089614868164,"860":-2.27634596824646,"861":-0.9175461530685425,"862":0.9331302046775818,"863":2.513108015060425,"864":-0.8139700889587402,"865":3.0875980854034424,"866":0.26415178179740906,"867":-0.051772452890872955,"868":-0.17443108558654785,"869":1.4363597631454468,"870":0.3109900951385498,"871":2.14784836769104,"872":-1.933578372001648,"873":-2.145827531814575,"874":-1.2064743041992188,"875":1.4462124109268188,"876":-0.4981204867362976,"877":0.958253026008606,"878":0.4381680190563202,"879":0.7543625831604004,"880":1.8122550249099731,"881":1.7815649509429932,"882":-2.5409891605377197,"883":0.7731789946556091,"884":0.6459700465202332,"885":-2.4226608276367188,"886":-0.3992116153240204,"887":-1.2238194942474365,"888":-2.949273109436035,"889":1.0275298357009888,"890":1.5133689641952515,"891":2.1718456745147705,"892":-0.9572961926460266,"893":0.6542719602584839,"894":0.4305087625980377,"895":1.1131212711334229,"896":-0.9226891398429871,"897":-1.4075908660888672,"898":0.6950172781944275,"899":-0.031112466007471085,"900":-0.74896240234375,"901":2.5766711235046387,"902":0.7493740320205688,"903":-0.6117133498191833,"904":-1.7495310306549072,"905":-1.4754140377044678,"906":-0.09890267997980118,"907":-0.38919445872306824,"908":0.43944305181503296,"909":1.4737972021102905,"910":0.770196795463562,"911":0.05783192813396454,"912":1.1813637018203735,"913":-0.5186443328857422,"914":0.33713459968566895,"915":2.1307740211486816,"916":0.37023934721946716,"917":-0.9133743643760681,"918":-0.02319345436990261,"919":-1.4400486946105957,"920":-2.938033103942871,"921":-0.864631175994873,"922":0.4420181214809418,"923":0.0011136294342577457,"924":0.7553303241729736,"925":-0.11077900975942612,"926":-0.8430609107017517,"927":0.8191083073616028,"928":3.024587392807007,"929":-0.18819378316402435,"930":0.5019313097000122,"931":0.38709738850593567,"932":-0.3446487486362457,"933":-0.0894387811422348,"934":-1.9218854904174805,"935":-0.22804145514965057,"936":0.6531082987785339,"937":0.8294382095336914,"938":0.22813667356967926,"939":-0.9603949785232544,"940":-1.235288381576538,"941":-0.29640141129493713,"942":-0.44987449049949646,"943":0.3325105309486389,"944":0.18017859756946564,"945":-0.7780417203903198,"946":-1.133409857749939,"947":0.7027171850204468,"948":-1.2189879417419434,"949":-0.06766115874052048,"950":-0.817123293876648,"951":0.7182849645614624,"952":-0.005457391031086445,"953":0.13331620395183563,"954":0.8432900905609131,"955":0.24034200608730316,"956":-0.6410627365112305,"957":-0.36568257212638855,"958":0.2941737473011017,"959":-1.6029999256134033,"960":-1.0113096237182617,"961":-0.8652763962745667,"962":-0.012700829654932022,"963":-1.248881459236145,"964":-0.16802263259887695,"965":-0.46774932742118835,"966":0.7515722513198853,"967":0.8050711750984192,"968":-0.22232238948345184,"969":-0.24645185470581055,"970":-1.1573996543884277,"971":0.18328551948070526,"972":-0.062233999371528625,"973":-0.41719138622283936,"974":-1.2805675268173218,"975":-1.0224831104278564,"976":0.2536528706550598,"977":-0.7871138453483582,"978":-0.4915589690208435,"979":0.11134126037359238,"980":-0.15458296239376068,"981":-1.3822249174118042,"982":0.8786627650260925,"983":-0.517625629901886,"984":-0.3097396194934845,"985":-0.30477985739707947,"986":0.2557353973388672,"987":1.928519368171692,"988":0.527055025100708,"989":1.557106614112854,"990":-0.7425327897071838,"991":-1.582187533378601,"992":0.4482797682285309,"993":1.7529881000518799,"994":-0.5157382488250732,"995":0.9209486246109009,"996":0.7963943481445312,"997":1.4927386045455933,"998":-1.4123210906982422,"999":-1.8242056369781494,"1000":-1.253115177154541,"1001":-0.6995865106582642,"1002":-1.973366141319275,"1003":1.0180840492248535,"1004":0.6064990758895874,"1005":-0.7839608788490295,"1006":1.4982101917266846,"1007":1.4493887424468994,"1008":1.049316644668579,"1009":0.8235957622528076,"1010":0.5997867584228516,"1011":-1.569157600402832,"1012":1.522569179534912,"1013":-0.896929144859314,"1014":-1.175309181213379,"1015":1.0099393129348755,"1016":0.7504488229751587,"1017":1.1880302429199219,"1018":-0.9890214204788208,"1019":1.3865875005722046,"1020":-1.306550145149231,"1021":1.9611220359802246,"1022":0.7416121363639832,"1023":-1.4664050340652466,"1024":-1.4104485511779785,"1025":0.13311578333377838,"1026":-0.651684582233429,"1027":-1.4612375497817993,"1028":1.4221365451812744,"1029":-0.7365925908088684,"1030":1.776849389076233,"1031":-1.4258772134780884,"1032":0.6149104237556458,"1033":1.4458343982696533,"1034":1.5219395160675049,"1035":-0.8579655885696411,"1036":1.6437236070632935,"1037":0.5275164842605591,"1038":-0.5217240452766418,"1039":-0.003584710182622075,"1040":2.8109591007232666,"1041":1.2836694717407227,"1042":1.5865535736083984,"1043":2.503492593765259,"1044":-1.1105979681015015,"1045":-1.816463828086853,"1046":-0.0026288654189556837,"1047":-1.9915416240692139,"1048":0.9798651933670044,"1049":-1.1654123067855835,"1050":0.04763772711157799,"1051":-0.4793340563774109,"1052":0.1848927140235901,"1053":0.5990768074989319,"1054":1.1544398069381714,"1055":2.3665807247161865,"1056":2.4742889404296875,"1057":-0.48058921098709106,"1058":-0.20864610373973846,"1059":-0.45096591114997864,"1060":-1.3254672288894653,"1061":-0.8006393909454346,"1062":-0.172120600938797,"1063":-0.2961997985839844,"1064":2.376150608062744,"1065":0.41856878995895386,"1066":-0.022142408415675163,"1067":-2.200141191482544,"1068":0.8416919708251953,"1069":1.8775055408477783,"1070":0.6376652717590332,"1071":0.43460187315940857,"1072":-0.3694075047969818,"1073":0.33875370025634766,"1074":0.8037225008010864,"1075":-1.4351365566253662,"1076":0.5073301792144775,"1077":1.6211766004562378,"1078":0.7918517589569092,"1079":-0.12470541149377823,"1080":-0.42402583360671997,"1081":0.03466220572590828,"1082":2.4560930728912354,"1083":0.22026404738426208,"1084":-0.8248788118362427,"1085":-0.9421130418777466,"1086":0.510770320892334,"1087":0.5341367721557617,"1088":-2.020371198654175,"1089":0.31788337230682373,"1090":0.19347335398197174,"1091":0.045233167707920074,"1092":-1.4756344556808472,"1093":-0.37232404947280884,"1094":-0.17308303713798523,"1095":-2.1449503898620605,"1096":-0.17087259888648987,"1097":2.4944214820861816,"1098":1.5179036855697632,"1099":-1.2697052955627441,"1100":0.31012752652168274,"1101":0.809245765209198,"1102":1.003629207611084,"1103":1.2022703886032104,"1104":1.284642219543457,"1105":-0.36958789825439453,"1106":2.160658121109009,"1107":-0.6314271092414856,"1108":-0.4518435597419739,"1109":0.3546909987926483,"1110":0.6673807501792908,"1111":0.11995963007211685,"1112":-0.5998384356498718,"1113":1.2835636138916016,"1114":-0.10049974173307419,"1115":0.3547879755496979,"1116":1.6436721086502075,"1117":-0.5681583285331726,"1118":-0.7073481678962708,"1119":1.2666336297988892,"1120":-1.6391816139221191,"1121":-0.700746476650238,"1122":0.4936477839946747,"1123":-1.3252575397491455,"1124":-0.561196506023407,"1125":-0.554092526435852,"1126":1.9122843742370605,"1127":0.6327321529388428,"1128":-1.3587586879730225,"1129":-0.8082917928695679,"1130":-1.9167704582214355,"1131":1.5471153259277344,"1132":0.24332046508789062,"1133":-0.6840075850486755,"1134":-0.15898041427135468,"1135":0.8236497640609741,"1136":-0.22102683782577515,"1137":0.7254632115364075,"1138":-0.5187268257141113,"1139":1.1088119745254517,"1140":0.20589378476142883,"1141":0.16514772176742554,"1142":0.4184742867946625,"1143":0.21390730142593384,"1144":-0.018074454739689827,"1145":-0.8594664335250854,"1146":0.28766557574272156,"1147":-0.7155296802520752,"1148":0.6800658106803894,"1149":0.677312970161438,"1150":-0.1802956908941269,"1151":-0.4915061891078949,"1152":-0.6100559234619141,"1153":-0.7797766327857971,"1154":-0.1624802052974701,"1155":-0.1379617154598236,"1156":0.06079160049557686,"1157":-0.7460135817527771,"1158":0.8291015625,"1159":-0.25016096234321594,"1160":-1.4441560506820679,"1161":0.2457161396741867,"1162":-0.06152769923210144,"1163":-0.4942895472049713,"1164":1.1024950742721558,"1165":-0.21455834805965424,"1166":-0.2375056892633438,"1167":1.0579073429107666,"1168":-0.04810240492224693,"1169":0.9001014828681946,"1170":1.0768040418624878,"1171":-1.5502891540527344,"1172":-0.24161683022975922,"1173":-0.6538775563240051,"1174":0.3396901488304138,"1175":0.1046605259180069,"1176":-1.736009120941162,"1177":-1.0043447017669678,"1178":0.2670767307281494,"1179":0.25790131092071533,"1180":-2.207211494445801,"1181":0.002379755023866892,"1182":0.5963624119758606,"1183":-0.27453145384788513,"1184":-0.888796329498291,"1185":0.37729865312576294,"1186":-0.40582358837127686,"1187":0.5656276345252991,"1188":-0.9555927515029907,"1189":1.3425612449645996,"1190":-0.6922330260276794,"1191":0.11138167977333069,"1192":-1.2750977277755737,"1193":2.6216201782226562,"1194":-0.29280415177345276,"1195":-0.441243439912796,"1196":-0.5369962453842163,"1197":-0.1717667132616043,"1198":-1.4169012308120728,"1199":-0.6203325986862183,"1200":-0.7136704325675964,"1201":-0.4273260235786438,"1202":-1.3400154113769531,"1203":-3.1182138919830322,"1204":-1.9992215633392334,"1205":-0.4730324447154999,"1206":2.8814196586608887,"1207":-0.8164027333259583,"1208":-1.967366337776184,"1209":-0.02226574905216694,"1210":0.2690020799636841,"1211":0.7010438442230225,"1212":2.176971435546875,"1213":-2.9533185958862305,"1214":1.6492648124694824,"1215":0.2878713607788086,"1216":-0.7330456376075745,"1217":0.751232922077179,"1218":-0.7548258304595947,"1219":2.177042007446289,"1220":-1.9484775066375732,"1221":-1.9264869689941406,"1222":0.8308828473091125,"1223":2.1402738094329834,"1224":3.8334946632385254,"1225":-3.161520004272461,"1226":-2.9870827198028564,"1227":1.4884175062179565,"1228":0.7085293531417847,"1229":-0.6849039196968079,"1230":2.983603000640869,"1231":1.678336262702942,"1232":3.2485151290893555,"1233":-2.384413719177246,"1234":-1.8068653345108032,"1235":-0.5025666952133179,"1236":-2.7285594940185547,"1237":0.9520310163497925,"1238":4.473461151123047,"1239":1.2904993295669556,"1240":-2.1284608840942383,"1241":1.4059334993362427,"1242":1.3253402709960938,"1243":2.5692832469940186,"1244":2.482233762741089,"1245":1.4511845111846924,"1246":-1.3933353424072266,"1247":4.451796531677246,"1248":-2.2970845699310303,"1249":0.09765025973320007,"1250":1.8250148296356201,"1251":1.2310103178024292,"1252":0.20021487772464752,"1253":-2.3241724967956543,"1254":2.8112916946411133,"1255":2.750929355621338,"1256":2.66974139213562,"1257":1.9246602058410645,"1258":-2.414263963699341,"1259":0.6204785704612732,"1260":3.1461892127990723,"1261":-2.810274124145508,"1262":1.2286059856414795,"1263":0.45969659090042114,"1264":-1.2234456539154053,"1265":1.9067996740341187,"1266":-0.9584494829177856,"1267":2.333433151245117,"1268":1.8050744533538818,"1269":-0.21674010157585144,"1270":2.816317319869995,"1271":-0.8139837384223938,"1272":1.1847440004348755,"1273":0.85540771484375,"1274":2.8985211849212646,"1275":0.2247050404548645,"1276":-1.1142958402633667,"1277":0.5304219126701355,"1278":0.27957701683044434,"1279":-1.15718412399292,"1280":-1.8965781927108765,"1281":1.8452866077423096,"1282":0.9753215909004211,"1283":-1.6644493341445923,"1284":1.4247500896453857,"1285":0.4623907804489136,"1286":1.6270421743392944,"1287":-2.2531657218933105,"1288":0.5719557404518127,"1289":0.9089438915252686,"1290":0.4005451202392578,"1291":0.465393602848053,"1292":1.0405676364898682,"1293":0.5979439616203308,"1294":-0.03708657622337341,"1295":-0.9259856939315796,"1296":-0.392400860786438,"1297":2.4717891216278076,"1298":2.2286171913146973,"1299":-0.20072127878665924,"1300":-2.5040030479431152,"1301":-0.6499385833740234,"1302":-1.071294903755188,"1303":0.9747645258903503,"1304":0.2855028808116913,"1305":0.5805189609527588,"1306":-0.10457679629325867,"1307":2.454831600189209,"1308":-2.860259532928467,"1309":0.32061007618904114,"1310":-0.7972601056098938,"1311":-0.24597828090190887,"1312":0.27629104256629944,"1313":-1.6403356790542603,"1314":1.5029730796813965,"1315":1.12503182888031,"1316":-0.015784727409482002,"1317":2.040224313735962,"1318":0.2755894064903259,"1319":2.7858285903930664,"1320":0.12935695052146912,"1321":1.8952263593673706,"1322":-1.32761549949646,"1323":-1.9406074285507202,"1324":1.5190057754516602,"1325":-2.6172142028808594,"1326":-1.5948938131332397,"1327":1.8544594049453735,"1328":-0.35626426339149475,"1329":0.6037046909332275,"1330":-3.805086135864258,"1331":0.23361828923225403,"1332":-3.1412107944488525,"1333":2.291069269180298,"1334":-1.854156255722046,"1335":-0.7757850885391235,"1336":-1.0170230865478516,"1337":0.7207574248313904,"1338":-2.388371229171753,"1339":3.0114619731903076,"1340":0.7276847958564758,"1341":-3.218245506286621,"1342":1.5671650171279907,"1343":0.23797079920768738,"1344":0.9466258883476257,"1345":2.3360984325408936,"1346":0.3646981120109558,"1347":-1.7831555604934692,"1348":-3.977910280227661,"1349":2.346755027770996,"1350":0.8100687861442566,"1351":-0.4354552924633026,"1352":3.8530240058898926,"1353":-3.338477611541748,"1354":2.628535747528076,"1355":-3.3227388858795166,"1356":1.3993539810180664,"1357":5.374508380889893,"1358":-4.2696452140808105,"1359":-3.040363073348999,"1360":-0.9586116671562195,"1361":5.024101734161377,"1362":1.4105792045593262,"1363":-1.2536256313323975,"1364":1.1945730447769165,"1365":-0.5391307473182678,"1366":0.008819585666060448,"1367":0.21826940774917603,"1368":1.4924020767211914,"1369":-0.9522770643234253,"1370":-1.5820047855377197,"1371":0.3112986385822296,"1372":-1.6090149879455566,"1373":-1.2380284070968628,"1374":0.6398325562477112,"1375":1.5002385377883911,"1376":1.171895980834961,"1377":-2.3103275299072266,"1378":1.9758752584457397,"1379":-0.1117277517914772,"1380":0.9722751379013062,"1381":-2.314595937728882,"1382":-0.052084781229496,"1383":-0.4860004484653473,"1384":-0.5745531916618347,"1385":-1.689443588256836,"1386":2.921344518661499,"1387":0.6972505450248718,"1388":0.47839459776878357,"1389":-0.029425298795104027,"1390":0.6465106010437012,"1391":1.326973795890808,"1392":1.9730526208877563,"1393":-1.0888701677322388,"1394":-1.8547457456588745,"1395":-0.4542558491230011,"1396":0.9393951296806335,"1397":0.16167718172073364,"1398":-0.6910527348518372,"1399":0.16275262832641602,"1400":0.11287358403205872,"1401":2.3043971061706543,"1402":-1.6429424285888672,"1403":-0.0008096678066067398,"1404":0.6451908349990845,"1405":-0.44477275013923645,"1406":-0.6474336981773376,"1407":-0.8527809977531433,"1408":2.3963723182678223,"1409":0.6715879440307617,"1410":-0.24999046325683594,"1411":1.1459555625915527,"1412":-0.13976573944091797,"1413":1.0258147716522217,"1414":-1.9724394083023071,"1415":1.2950056791305542,"1416":-0.4491661787033081,"1417":-0.8091148734092712,"1418":-0.6254350543022156,"1419":3.320901393890381,"1420":1.1632412672042847,"1421":-0.8729142546653748,"1422":-2.7503249645233154,"1423":-0.7843057513237,"1424":-1.1187925338745117,"1425":-0.39821532368659973,"1426":1.5918750762939453,"1427":1.0888645648956299,"1428":-1.0247892141342163,"1429":-1.1025869846343994,"1430":0.24863852560520172,"1431":2.377598524093628,"1432":3.13151216506958,"1433":1.4538129568099976,"1434":-2.5207908153533936,"1435":2.198209524154663,"1436":-1.2910927534103394,"1437":0.3485817015171051,"1438":1.7273554801940918,"1439":1.1786799430847168,"1440":-0.3700809180736542,"1441":-1.6201587915420532,"1442":1.4044976234436035,"1443":-0.4641711711883545,"1444":0.8051226139068604,"1445":-0.2226571887731552,"1446":-0.1699579358100891,"1447":-1.6052106618881226,"1448":1.527809739112854,"1449":-1.1551828384399414,"1450":-0.7378703951835632,"1451":2.308957815170288,"1452":1.1777082681655884,"1453":-0.9071753621101379,"1454":-1.9492533206939697,"1455":1.3463810682296753,"1456":1.7715692520141602,"1457":0.2975761890411377,"1458":0.3320885896682739,"1459":0.23120564222335815,"1460":-0.28608694672584534,"1461":-0.5313912034034729,"1462":0.8822581171989441,"1463":0.4143036901950836,"1464":0.5575885772705078,"1465":0.17497260868549347,"1466":1.5608237981796265,"1467":0.14175769686698914,"1468":-0.7381781339645386,"1469":-0.5631365776062012,"1470":-0.7060549259185791,"1471":0.22082450985908508,"1472":-0.6171107888221741,"1473":0.72362220287323,"1474":-0.10081174969673157,"1475":-1.4459036588668823,"1476":0.16568662226200104,"1477":0.5894008278846741,"1478":0.929752767086029,"1479":1.5514132976531982,"1480":0.3468666672706604,"1481":-0.5993112921714783,"1482":0.2961658537387848,"1483":-0.7720332741737366,"1484":-0.7773590683937073,"1485":2.7830092906951904,"1486":2.3820667266845703,"1487":0.9323288798332214,"1488":-1.333098292350769,"1489":0.1292717158794403,"1490":-0.8615434765815735,"1491":0.15972915291786194,"1492":0.6670278906822205,"1493":-0.09809716790914536,"1494":-5.446594715118408,"1495":0.7895483374595642,"1496":-0.45177748799324036,"1497":-0.6986846327781677,"1498":2.0575926303863525,"1499":0.16089265048503876,"1500":0.20300422608852386,"1501":-4.180779457092285,"1502":0.5301152467727661,"1503":2.5287983417510986,"1504":-0.5945628881454468,"1505":1.436898112297058,"1506":-0.9485732316970825,"1507":0.6315034627914429,"1508":0.724580705165863,"1509":1.4312710762023926,"1510":-0.5976216197013855,"1511":-0.9284656047821045,"1512":0.13920257985591888,"1513":-0.13738735020160675,"1514":-1.2768263816833496,"1515":0.0581580325961113,"1516":1.2040191888809204,"1517":0.6015215516090393,"1518":-1.176966905593872,"1519":1.385454535484314,"1520":-0.13458159565925598,"1521":0.7335318922996521,"1522":-1.2959779500961304,"1523":-0.15382947027683258,"1524":0.30829745531082153,"1525":-0.4951621890068054,"1526":0.012449304573237896,"1527":0.6253324747085571,"1528":0.49794283509254456,"1529":-0.38106852769851685,"1530":-0.16965551674365997,"1531":0.4950273633003235,"1532":1.5406914949417114,"1533":1.2122567892074585,"1534":-0.5060169100761414,"1535":-1.207052230834961,"1536":-0.6865262389183044,"1537":0.19626449048519135,"1538":0.14425262808799744,"1539":-0.2843644320964813,"1540":0.621795654296875,"1541":-1.1325914859771729,"1542":1.5011075735092163,"1543":-1.4418354034423828,"1544":0.28912684321403503,"1545":1.0862176418304443,"1546":-0.7960497140884399,"1547":-0.5169604420661926,"1548":-1.4151967763900757,"1549":1.2229589223861694,"1550":0.9845436215400696,"1551":1.9318089485168457,"1552":-1.576325535774231,"1553":1.5869816541671753,"1554":-1.0097885131835938,"1555":-2.1131653785705566,"1556":-1.3931392431259155,"1557":2.636570453643799,"1558":1.3217533826828003,"1559":2.1105151176452637,"1560":-0.3763882517814636,"1561":1.514056921005249,"1562":0.8829319477081299,"1563":-1.674924612045288,"1564":-1.9499136209487915,"1565":1.2187469005584717,"1566":-2.1977574825286865,"1567":-2.739743947982788,"1568":-1.0081030130386353,"1569":1.471441626548767,"1570":2.037235975265503,"1571":-1.0743515491485596,"1572":3.1022140979766846,"1573":3.0552823543548584,"1574":-1.1256440877914429,"1575":-1.4466699361801147,"1576":1.68121337890625,"1577":0.7248390316963196,"1578":-0.711730420589447,"1579":-1.6601057052612305,"1580":-1.5033351182937622,"1581":2.565883159637451,"1582":1.469167947769165,"1583":1.27155339717865,"1584":-2.164724826812744,"1585":-1.5904070138931274,"1586":2.5073652267456055,"1587":-1.5096863508224487,"1588":0.9886008501052856,"1589":-1.7841365337371826,"1590":1.6190651655197144,"1591":-1.2633936405181885,"1592":-1.7544844150543213,"1593":0.7092799544334412,"1594":1.9375627040863037,"1595":1.7205148935317993,"1596":-0.8806003928184509,"1597":-1.5623023509979248,"1598":-0.6889532208442688,"1599":-0.17087100446224213,"1600":-0.539707601070404,"1601":0.8133794069290161,"1602":0.5814058780670166,"1603":-0.1855132132768631,"1604":-0.7030535936355591,"1605":0.2869342267513275,"1606":-0.6441289186477661,"1607":-0.5452854633331299,"1608":-0.8343501091003418,"1609":0.7412058711051941,"1610":0.5102038383483887,"1611":0.5484378337860107,"1612":0.3428539037704468,"1613":0.49689486622810364,"1614":-0.9064661264419556,"1615":-0.0034947928506881,"1616":0.08217331022024155,"1617":-0.7967582941055298,"1618":-0.7636873722076416,"1619":-0.7933635711669922,"1620":-0.5573709607124329,"1621":-0.4087876081466675,"1622":0.6387715339660645,"1623":-1.0392299890518188,"1624":0.7025642991065979,"1625":0.27919501066207886,"1626":-0.20848515629768372,"1627":-0.21781359612941742,"1628":-0.6696916222572327,"1629":0.25277575850486755,"1630":-0.9448857307434082,"1631":0.2616938054561615,"1632":-0.832272469997406,"1633":-0.5019621849060059,"1634":0.9708996415138245,"1635":-0.05932241305708885,"1636":-0.26409804821014404,"1637":0.22285425662994385,"1638":0.6870211958885193,"1639":-0.6482287645339966,"1640":0.33747148513793945,"1641":-0.7579857110977173,"1642":0.3026471734046936,"1643":-0.345851331949234,"1644":-0.23308883607387543,"1645":-0.5545644164085388,"1646":-0.9013312458992004,"1647":-1.9194899797439575,"1648":4.615563869476318,"1649":4.155125617980957,"1650":-0.3645716905593872,"1651":-0.07179627567529678,"1652":0.5493354797363281,"1653":-2.1548550128936768,"1654":-1.5357496738433838,"1655":-4.817080974578857,"1656":0.7567359805107117,"1657":1.0489957332611084,"1658":3.035346508026123,"1659":0.8527482748031616,"1660":1.640505313873291,"1661":-3.072028636932373,"1662":0.7859592437744141,"1663":1.1390571594238281,"1664":-1.1812481880187988,"1665":-1.621588945388794,"1666":-1.5561884641647339,"1667":-1.392695665359497,"1668":0.6858633160591125,"1669":3.4606692790985107,"1670":-3.5991265773773193,"1671":2.507544755935669,"1672":2.694366216659546,"1673":0.14515870809555054,"1674":-0.9061146378517151,"1675":-4.7228803634643555,"1676":0.20560237765312195,"1677":-2.780066728591919,"1678":1.0816195011138916,"1679":-2.0590522289276123,"1680":-1.3520488739013672,"1681":3.4376935958862305,"1682":0.44634199142456055,"1683":-0.9167228937149048,"1684":0.6849945187568665,"1685":1.5817835330963135,"1686":-1.5621458292007446,"1687":0.6216232776641846,"1688":-1.1040071249008179,"1689":0.1489630788564682,"1690":-0.29864656925201416,"1691":-0.9349104166030884,"1692":-1.6269158124923706,"1693":3.472586154937744,"1694":-1.464652180671692,"1695":1.6682424545288086,"1696":1.6570943593978882,"1697":3.795621633529663,"1698":-1.6275601387023926,"1699":0.7327724099159241,"1700":-1.2448978424072266,"1701":0.5307998061180115,"1702":-1.6255581378936768,"1703":-2.4710378646850586,"1704":2.047628402709961,"1705":1.6783000230789185,"1706":0.17388807237148285,"1707":2.2060651779174805,"1708":-0.6502189636230469,"1709":-0.7723432183265686,"1710":-0.8332341909408569,"1711":-1.332722783088684,"1712":-1.1623101234436035,"1713":-1.5851972103118896,"1714":1.885912299156189,"1715":-1.209786295890808,"1716":1.4120131731033325,"1717":-1.2928541898727417,"1718":0.9783774018287659,"1719":0.7410789728164673,"1720":2.6761178970336914,"1721":3.09421706199646,"1722":-1.683061122894287,"1723":0.6854085326194763,"1724":-1.344784140586853,"1725":-1.9412999153137207,"1726":-1.2478935718536377,"1727":-0.8221818804740906,"1728":1.5590728521347046,"1729":-1.6799236536026,"1730":3.9689102172851562,"1731":-3.6281652450561523,"1732":1.4432531595230103,"1733":-1.7436785697937012,"1734":0.9364019632339478,"1735":-1.27573823928833,"1736":-2.6712472438812256,"1737":-1.1772366762161255,"1738":0.48811107873916626,"1739":2.6976137161254883,"1740":-1.395401120185852,"1741":2.1800248622894287,"1742":-2.2056233882904053,"1743":-1.6308952569961548,"1744":-0.9526804089546204,"1745":2.178987979888916,"1746":2.777060031890869,"1747":3.1761436462402344,"1748":2.8352761268615723,"1749":2.4764623641967773,"1750":0.13640932738780975,"1751":-1.2904486656188965,"1752":-2.620145082473755,"1753":0.9129877090454102,"1754":-1.446855902671814,"1755":2.7339236736297607,"1756":-1.998322606086731,"1757":0.6378262639045715,"1758":2.7320497035980225,"1759":2.449739933013916,"1760":3.5237653255462646,"1761":1.7556318044662476,"1762":-0.9544156193733215,"1763":-2.3074355125427246,"1764":2.1157238483428955,"1765":-3.061966896057129,"1766":-1.9832911491394043,"1767":-0.23158158361911774,"1768":-1.0897024869918823,"1769":3.14727783203125,"1770":0.3361445665359497,"1771":2.144683837890625,"1772":-0.7617074847221375,"1773":3.42651104927063,"1774":2.1925365924835205,"1775":-2.0738415718078613,"1776":1.683672308921814,"1777":-0.20588450133800507,"1778":1.3985215425491333,"1779":-1.0951381921768188,"1780":1.2981643676757812,"1781":1.463497281074524,"1782":1.8162177801132202,"1783":0.6361828446388245,"1784":-1.5528441667556763,"1785":-0.3457121253013611,"1786":1.2018324136734009,"1787":1.6341586112976074,"1788":1.0992047786712646,"1789":-1.0643951892852783,"1790":-1.38563871383667,"1791":1.4817652702331543,"1792":1.1329463720321655,"1793":-1.028139591217041,"1794":1.0106980800628662,"1795":2.2207443714141846,"1796":1.0642532110214233,"1797":-1.8219020366668701,"1798":-1.6358128786087036,"1799":-1.4226771593093872,"1800":-1.604982852935791,"1801":-1.324410319328308,"1802":1.6699903011322021,"1803":1.5199016332626343,"1804":-2.056309938430786,"1805":0.9793094992637634,"1806":1.5255364179611206,"1807":1.8180391788482666,"1808":2.167524814605713,"1809":1.6381670236587524,"1810":-1.509766697883606,"1811":1.5531589984893799,"1812":-1.4567068815231323,"1813":-1.1567530632019043,"1814":2.793752431869507,"1815":1.493497371673584,"1816":1.5289627313613892,"1817":-2.6347973346710205,"1818":1.350771188735962,"1819":-1.6954556703567505,"1820":1.1410197019577026,"1821":1.4346333742141724,"1822":-1.149288535118103,"1823":-2.9067230224609375,"1824":1.6892048120498657,"1825":-1.8418118953704834,"1826":-1.4251372814178467,"1827":2.687159299850464,"1828":-0.7801991701126099,"1829":1.017496943473816,"1830":-3.1050708293914795,"1831":1.7313469648361206,"1832":3.0965800285339355,"1833":-1.0118253231048584,"1834":2.1760849952697754,"1835":-1.3218079805374146,"1836":0.40110042691230774,"1837":2.6105153560638428,"1838":1.735426425933838,"1839":-2.498859167098999,"1840":-2.624370813369751,"1841":-1.6727521419525146,"1842":-3.2177462577819824,"1843":-1.7668741941452026,"1844":-0.751105785369873,"1845":0.885635495185852,"1846":1.9383902549743652,"1847":-1.5569723844528198,"1848":2.154857873916626,"1849":-2.4699034690856934,"1850":2.344693183898926,"1851":-1.2760369777679443,"1852":-1.6450176239013672,"1853":-2.041675567626953,"1854":-2.8974077701568604,"1855":0.858116626739502,"1856":1.3174612522125244,"1857":1.8297830820083618,"1858":-2.4021544456481934,"1859":1.2666491270065308,"1860":0.671872615814209,"1861":1.4386690855026245,"1862":1.6153759956359863,"1863":-1.9651100635528564,"1864":-1.2820929288864136,"1865":-1.394291877746582,"1866":-2.0275988578796387,"1867":-1.13441801071167,"1868":-1.228872537612915,"1869":1.2243914604187012,"1870":-2.425579309463501,"1871":1.414852499961853,"1872":-1.6578353643417358,"1873":1.8322652578353882,"1874":2.0047049522399902,"1875":-2.8627610206604004,"1876":-1.496354579925537,"1877":-1.3683412075042725,"1878":1.7018606662750244,"1879":2.1271800994873047,"1880":-0.031277846544981,"1881":-1.262209177017212,"1882":1.2391589879989624,"1883":-0.9909533262252808,"1884":-0.11165616661310196,"1885":-1.194183588027954,"1886":-0.6462238430976868,"1887":1.2561715841293335,"1888":-1.330894112586975,"1889":-0.46384310722351074,"1890":0.2889363169670105,"1891":0.8988533020019531,"1892":-0.5966701507568359,"1893":0.07905391603708267,"1894":1.4610133171081543,"1895":-0.0783928632736206,"1896":-0.4647980034351349,"1897":-1.2267119884490967,"1898":1.2386150360107422,"1899":-1.3609055280685425,"1900":-1.67080819606781,"1901":-0.7387222647666931,"1902":-0.5252721309661865,"1903":-1.2475696802139282,"1904":0.3624272346496582,"1905":0.675686240196228,"1906":1.26033616065979,"1907":0.7414820790290833,"1908":-1.2142966985702515,"1909":-1.3060094118118286,"1910":-0.6410748958587646,"1911":1.2356302738189697,"1912":1.1679242849349976,"1913":0.9304131269454956,"1914":-1.2930623292922974,"1915":-0.6695508360862732,"1916":-0.7346158027648926,"1917":1.017768383026123,"1918":-1.299344778060913,"1919":1.2190500497817993,"1920":1.1187336444854736,"1921":-1.1156184673309326,"1922":1.1645737886428833,"1923":-0.11537352204322815,"1924":1.3098115921020508,"1925":-1.1910419464111328,"1926":-1.1537425518035889,"1927":0.7547962069511414,"1928":-0.0015880005666986108,"1929":0.010909606702625751,"1930":-0.355868935585022,"1931":-0.7507582306861877,"1932":0.08157835155725479,"1933":0.42609137296676636,"1934":0.10054723918437958,"1935":0.5894792079925537,"1936":1.8257378339767456,"1937":0.44187724590301514,"1938":-0.42483896017074585,"1939":-0.8264800906181335,"1940":-0.468881219625473,"1941":0.36019912362098694,"1942":-0.7297824025154114,"1943":0.5628588199615479,"1944":-0.28286081552505493,"1945":-0.10052929818630219,"1946":0.29683050513267517,"1947":1.2568910121917725,"1948":0.741064727306366,"1949":1.6839717626571655,"1950":-0.43279245495796204,"1951":-0.8683463931083679,"1952":0.18337753415107727,"1953":-0.5124462842941284,"1954":-0.9017660617828369,"1955":0.0050826240330934525,"1956":-0.17678114771842957,"1957":0.889959990978241,"1958":-0.0437360554933548,"1959":0.8756528496742249,"1960":-3.27409029006958,"1961":0.8534386157989502,"1962":1.4024860858917236,"1963":-0.46212801337242126,"1964":-0.22059734165668488,"1965":0.10787688195705414,"1966":0.22124621272087097,"1967":-0.8017708659172058,"1968":0.09648777544498444,"1969":0.6811513900756836,"1970":0.3064366281032562,"1971":-0.07240374386310577,"1972":-0.3239729106426239,"1973":0.07724196463823318,"1974":5.970791339874268,"1975":1.5173132419586182,"1976":0.7583176493644714,"1977":0.21140779554843903,"1978":-3.189136028289795,"1979":1.5834521055221558,"1980":1.3596965074539185,"1981":-2.0408475399017334,"1982":2.8414101600646973,"1983":1.0442107915878296,"1984":2.676039695739746,"1985":-1.7018742561340332,"1986":-4.335210800170898,"1987":-0.9657754302024841,"1988":-1.708204746246338,"1989":-2.28330397605896,"1990":0.7037884593009949,"1991":1.8877897262573242,"1992":-1.1113346815109253,"1993":4.149963855743408,"1994":1.9128252267837524,"1995":0.7005205750465393,"1996":0.7977190613746643,"1997":2.047569990158081,"1998":-3.7932956218719482,"1999":-0.02655498869717121,"2000":-0.5110954642295837,"2001":-3.4699275493621826,"2002":1.168572187423706,"2003":1.8454591035842896,"2004":1.0478756427764893,"2005":-1.615035891532898,"2006":0.4075877070426941,"2007":-1.5114682912826538,"2008":3.148066520690918,"2009":3.2852671146392822,"2010":-0.2610001564025879,"2011":-1.6128121614456177,"2012":0.8669796586036682,"2013":-1.2023123502731323,"2014":-1.422920823097229,"2015":2.1487457752227783,"2016":-2.2491185665130615,"2017":2.7337381839752197,"2018":-1.9224506616592407,"2019":1.519223928451538,"2020":1.5819488763809204,"2021":0.049367669969797134,"2022":-0.7543516159057617,"2023":0.6575509309768677,"2024":-0.7948974967002869,"2025":0.18976496160030365,"2026":-1.3609519004821777,"2027":-0.1367892026901245,"2028":0.5670422911643982,"2029":-3.3490231037139893,"2030":-4.734490871429443,"2031":0.37497347593307495,"2032":3.22305965423584,"2033":0.2957380414009094,"2034":0.08103211224079132,"2035":0.910677433013916,"2036":-0.06557498872280121,"2037":0.46949300169944763,"2038":-0.4142700731754303,"2039":0.9395818710327148,"2040":-0.5973891019821167,"2041":-0.4733748733997345,"2042":-4.210213661193848,"2043":-3.2390530109405518,"2044":-0.4409872889518738,"2045":0.33503931760787964,"2046":1.477200984954834,"2047":4.406125068664551,"2048":0.6974089741706848,"2049":-0.9530723094940186,"2050":-0.8264888525009155,"2051":-0.4982445538043976,"2052":0.852902889251709,"2053":0.7712193131446838,"2054":3.5397427082061768,"2055":-3.3440494537353516,"2056":-0.9657876491546631,"2057":-1.1215076446533203,"2058":0.8968095779418945,"2059":-1.1116169691085815,"2060":0.5934555530548096,"2061":0.44027069211006165,"2062":-1.5806227922439575,"2063":-0.03269234672188759,"2064":0.689675509929657,"2065":1.480467438697815,"2066":-0.2501372992992401,"2067":-0.9964079260826111,"2068":-1.0412968397140503,"2069":-1.7214035987854004,"2070":-0.32172635197639465,"2071":-4.4264092445373535,"2072":-0.2025683969259262,"2073":-1.797097086906433,"2074":-0.6991421580314636,"2075":2.0252034664154053,"2076":-1.6056004762649536,"2077":-1.3272101879119873,"2078":-0.6897940635681152,"2079":1.2769904136657715,"2080":1.024348497390747,"2081":0.684121310710907,"2082":1.871039867401123,"2083":0.5107821822166443,"2084":-0.7746232151985168,"2085":-1.7382770776748657,"2086":1.5455913543701172,"2087":-1.2353003025054932,"2088":-1.610292673110962,"2089":-1.283808708190918,"2090":-1.5108882188796997,"2091":-1.605789303779602,"2092":1.00846266746521,"2093":-0.3542879819869995,"2094":1.305367112159729,"2095":1.0195705890655518,"2096":-1.4085955619812012,"2097":-1.5037462711334229,"2098":-0.923171877861023,"2099":1.6022197008132935,"2100":-0.03164566680788994,"2101":1.7540199756622314,"2102":-1.320835828781128,"2103":-1.5496493577957153,"2104":0.06183823570609093,"2105":1.6207959651947021,"2106":-1.6472558975219727,"2107":1.5387585163116455,"2108":-0.2572197914123535,"2109":-1.8032034635543823,"2110":1.6557888984680176,"2111":-0.3547677993774414,"2112":1.6566040515899658,"2113":-1.5297603607177734,"2114":-1.622815728187561,"2115":-1.3976095914840698,"2116":0.4204542636871338,"2117":-0.9117491841316223,"2118":0.861894428730011,"2119":0.32449761033058167,"2120":0.1556483805179596,"2121":-0.4890695810317993,"2122":-1.1671321392059326,"2123":-1.644294023513794,"2124":-0.8970168828964233,"2125":-2.1131386756896973,"2126":1.039949655532837,"2127":0.4114457666873932,"2128":0.9013400077819824,"2129":-0.3580155670642853,"2130":0.29197782278060913,"2131":-1.4821785688400269,"2132":1.0721070766448975,"2133":-0.12915877997875214,"2134":-1.1889418363571167,"2135":-0.5523059368133545,"2136":-1.3465733528137207,"2137":-0.8137859106063843,"2138":0.12893570959568024,"2139":0.9383755326271057,"2140":-0.9299604296684265,"2141":1.4716240167617798,"2142":1.4966211318969727,"2143":0.2583237290382385,"2144":-0.14299970865249634,"2145":-1.172818899154663,"2146":-0.5446674227714539,"2147":-0.22927215695381165,"2148":0.792892336845398,"2149":-1.5546343326568604,"2150":-1.359228491783142,"2151":0.41694173216819763,"2152":-1.5094289779663086,"2153":0.039653778076171875,"2154":-0.2060258537530899,"2155":-0.6451146602630615,"2156":-0.5450876951217651,"2157":-0.29928645491600037,"2158":-0.46005502343177795,"2159":-0.23430998623371124,"2160":0.5576673746109009,"2161":0.4800451099872589,"2162":-0.5350553393363953,"2163":0.19172771275043488,"2164":-0.32660406827926636,"2165":0.34111863374710083,"2166":0.19922883808612823,"2167":0.06119803711771965,"2168":-0.20935074985027313,"2169":0.16641272604465485,"2170":-0.4963284432888031,"2171":1.9672414064407349,"2172":-0.18357746303081512,"2173":0.024215437471866608,"2174":-0.8756300806999207,"2175":0.27593281865119934,"2176":0.2633255124092102,"2177":-0.20092283189296722,"2178":0.12214341014623642,"2179":0.09016075730323792,"2180":-0.4817259907722473,"2181":-0.5999336838722229,"2182":-0.1472858488559723,"2183":0.4701263904571533,"2184":1.8381826877593994,"2185":-0.15704016387462616,"2186":-0.07039935886859894,"2187":-0.2723313570022583,"2188":0.3961333930492401,"2189":0.41277816891670227,"2190":0.392482727766037,"2191":0.08347383886575699,"2192":0.04931759461760521,"2193":-0.3939981162548065,"2194":0.00763299036771059,"2195":-0.455465167760849,"2196":-0.5366709232330322,"2197":0.02797422558069229,"2198":0.5348647832870483,"2199":-0.32739922404289246,"2200":1.0685874223709106,"2201":-0.10058378428220749,"2202":0.2755511701107025,"2203":-0.006768710445612669,"2204":0.8040823340415955,"2205":-0.5743462443351746,"2206":-0.5974400043487549,"2207":-0.3301641047000885,"2208":0.35893648862838745,"2209":0.028387775644659996,"2210":0.004000951535999775,"2211":0.07660046219825745,"2212":0.05976366251707077,"2213":0.06352764368057251,"2214":-0.019397273659706116,"2215":-0.04184607043862343,"2216":-0.03566792607307434,"2217":0.06108546629548073,"2218":0.040262650698423386,"2219":-0.013451563194394112,"2220":0.07599253952503204,"2221":0.00674603134393692,"2222":0.07013686001300812,"2223":-0.027928899973630905,"2224":0.008281511254608631,"2225":-0.061924997717142105,"2226":-0.004602894652634859,"2227":-0.01490936242043972,"2228":-0.022272808477282524,"2229":0.048060525208711624,"2230":-0.07252386212348938,"2231":-0.07232145220041275,"2232":-0.07804301381111145,"2233":0.049005698412656784,"2234":-0.07462578266859055,"2235":-0.020615311339497566,"2236":-0.06499344110488892,"2237":0.03154681622982025,"2238":0.022762859240174294,"2239":0.06598880887031555,"2240":-0.007023863028734922,"2241":-0.045567769557237625,"2242":-0.0013687581522390246,"2243":-0.012169892899692059,"2244":-0.04707496985793114,"2245":-0.07594162225723267,"2246":0.055867716670036316,"2247":0.04358820989727974,"2248":0.008052488788962364,"2249":-0.014110321179032326,"2250":-0.04790033772587776,"2251":-0.022405462339520454,"2252":0.021613284945487976,"2253":0.052256029099226,"2254":-0.04425334185361862,"2255":0.03198917582631111}},"hiddenLayers":[{"inputMatrix":{"rows":20,"columns":47,"weights":{"0":-0.5297010540962219,"1":-0.44726163148880005,"2":-0.6606627702713013,"3":0.42914247512817383,"4":0.9860060811042786,"5":-0.5045525431632996,"6":-0.9426743388175964,"7":0.7914595007896423,"8":-1.0597771406173706,"9":-0.6833928227424622,"10":-0.7776184678077698,"11":0.10067666321992874,"12":0.2517751157283783,"13":1.0131008625030518,"14":1.2684988975524902,"15":1.0363099575042725,"16":-0.2618032991886139,"17":-0.6755620837211609,"18":0.6833374500274658,"19":-0.95057612657547,"20":-0.9128580689430237,"21":-1.2234764099121094,"22":-0.2396768182516098,"23":-1.0676089525222778,"24":0.5503039360046387,"25":-0.550710916519165,"26":0.7321200966835022,"27":0.19303114712238312,"28":-0.3998285233974457,"29":-0.4872463047504425,"30":-1.0776411294937134,"31":0.7794359922409058,"32":-0.280768483877182,"33":-0.026901552453637123,"34":-0.6632832288742065,"35":-0.43439555168151855,"36":0.3527635335922241,"37":0.48946523666381836,"38":-0.5433249473571777,"39":0.7472401857376099,"40":0.8110713958740234,"41":-1.1903235912322998,"42":0.7323146462440491,"43":-0.35937565565109253,"44":0.4962537884712219,"45":-1.249910831451416,"46":-0.29769575595855713,"47":-0.18095625936985016,"48":0.9319319725036621,"49":0.1452237218618393,"50":-0.4570745825767517,"51":0.29635491967201233,"52":0.4079660475254059,"53":-0.31816068291664124,"54":-0.9973055124282837,"55":0.04933929443359375,"56":-1.7424932718276978,"57":-0.0020589607302099466,"58":-0.2094033807516098,"59":0.49028515815734863,"60":0.4671984016895294,"61":-0.7119593024253845,"62":0.5621026754379272,"63":0.05123613402247429,"64":0.8123080730438232,"65":0.008972924202680588,"66":0.10747814178466797,"67":-0.49658316373825073,"68":-0.6148301362991333,"69":-0.37185898423194885,"70":0.3962232768535614,"71":0.8019208908081055,"72":0.35231855511665344,"73":0.24916447699069977,"74":0.1720939427614212,"75":-0.6159036159515381,"76":0.29513177275657654,"77":-1.283997893333435,"78":0.4121984541416168,"79":0.14836320281028748,"80":0.9579278230667114,"81":0.03172158822417259,"82":0.06030984967947006,"83":-0.42424246668815613,"84":0.786950409412384,"85":0.25766265392303467,"86":-0.9774319529533386,"87":0.5967385768890381,"88":-1.3061074018478394,"89":-0.6789879202842712,"90":0.09779135882854462,"91":0.8574603796005249,"92":0.5786389708518982,"93":-0.7106934785842896,"94":-0.07492481172084808,"95":-0.6231659054756165,"96":-0.22485756874084473,"97":0.08789066970348358,"98":-0.039023201912641525,"99":-1.315663456916809,"100":-0.42216405272483826,"101":0.5599387288093567,"102":0.24595724046230316,"103":-0.20233102142810822,"104":-0.08640279620885849,"105":-0.09061107784509659,"106":0.10932663828134537,"107":0.15360064804553986,"108":1.1444178819656372,"109":0.3757666051387787,"110":0.2866734564304352,"111":-0.9395318031311035,"112":1.410345196723938,"113":0.19113509356975555,"114":-0.07728467881679535,"115":-0.24455003440380096,"116":0.01414297055453062,"117":-1.6466217041015625,"118":-0.25210243463516235,"119":-0.2447827160358429,"120":0.06668165326118469,"121":-0.3097896873950958,"122":-1.5761722326278687,"123":-1.4609841108322144,"124":-0.16856560111045837,"125":2.2882602214813232,"126":-0.469102144241333,"127":-0.44986966252326965,"128":0.18369854986667633,"129":0.39484545588493347,"130":0.2548690736293793,"131":1.6955540180206299,"132":-1.7348415851593018,"133":0.9315716028213501,"134":0.25687792897224426,"135":-1.6808518171310425,"136":0.681817889213562,"137":-0.3337906002998352,"138":1.8186397552490234,"139":-1.4767791032791138,"140":-1.472756266593933,"141":0.9394627213478088,"142":-0.002221574541181326,"143":0.634274959564209,"144":-1.0609793663024902,"145":-0.7665266394615173,"146":-0.35413333773612976,"147":0.4733600318431854,"148":-0.036842405796051025,"149":0.8347497582435608,"150":0.14817650616168976,"151":0.6138243675231934,"152":-0.7929157018661499,"153":-0.6294164061546326,"154":-0.8134378790855408,"155":-0.0016874332213774323,"156":-0.6433848738670349,"157":0.9005537033081055,"158":-0.12732216715812683,"159":0.1379426121711731,"160":0.872153103351593,"161":0.5418411493301392,"162":0.2844180464744568,"163":0.3694731295108795,"164":-0.1741926223039627,"165":-1.154369831085205,"166":0.8994649648666382,"167":-0.7019386291503906,"168":-0.9224023818969727,"169":-0.2868918180465698,"170":-0.1379348188638687,"171":0.3507210910320282,"172":0.2684974670410156,"173":0.7548585534095764,"174":-0.9453911781311035,"175":1.0424727201461792,"176":0.7339979410171509,"177":-0.8378918766975403,"178":0.1804754137992859,"179":-0.24467988312244415,"180":0.016378339380025864,"181":-0.8137277960777283,"182":-0.01780518889427185,"183":0.12121615558862686,"184":0.5300315022468567,"185":0.3071092665195465,"186":-0.16423656046390533,"187":-0.10328608751296997,"188":0.41408705711364746,"189":-0.3585115969181061,"190":0.029829634353518486,"191":-0.31992772221565247,"192":0.626835286617279,"193":-0.04296413064002991,"194":-0.6375916600227356,"195":1.6125749349594116,"196":0.6794373393058777,"197":0.20666563510894775,"198":0.46302980184555054,"199":-0.23625364899635315,"200":0.09522277116775513,"201":0.169383242726326,"202":1.1919598579406738,"203":0.46790677309036255,"204":0.36982715129852295,"205":-0.9626273512840271,"206":0.43661966919898987,"207":0.14821095764636993,"208":-0.5904903411865234,"209":-0.07275477796792984,"210":0.33125177025794983,"211":-1.0138261318206787,"212":0.09652608633041382,"213":-0.17920413613319397,"214":-0.08814302086830139,"215":-0.9734739661216736,"216":-0.508211612701416,"217":-0.28191468119621277,"218":-0.652116060256958,"219":1.2770254611968994,"220":-0.1206752210855484,"221":-0.7140282988548279,"222":0.29938188195228577,"223":0.6977114677429199,"224":0.20705783367156982,"225":1.4471008777618408,"226":0.029587984085083008,"227":0.6450172662734985,"228":1.1384533643722534,"229":-1.2149596214294434,"230":1.1627496480941772,"231":0.06452282518148422,"232":0.5755495429039001,"233":-1.6118416786193848,"234":-1.0353126525878906,"235":-0.4898628294467926,"236":1.0131045579910278,"237":-1.293967843055725,"238":1.002426028251648,"239":1.1830283403396606,"240":0.7691078186035156,"241":-0.5989542603492737,"242":-0.777114748954773,"243":-0.1756310611963272,"244":-0.35744962096214294,"245":-1.3842037916183472,"246":-0.15473832190036774,"247":1.120662808418274,"248":1.114350438117981,"249":-0.7773352265357971,"250":1.1778998374938965,"251":-0.8454150557518005,"252":0.47373026609420776,"253":-0.6751282811164856,"254":-0.1872033327817917,"255":-0.06684036552906036,"256":-0.376872181892395,"257":-0.42569610476493835,"258":0.11704491823911667,"259":0.8246577382087708,"260":-0.8687587380409241,"261":0.2802969515323639,"262":0.7112354636192322,"263":0.6579340696334839,"264":0.9095435738563538,"265":-0.8398997783660889,"266":-0.6003442406654358,"267":-0.606842041015625,"268":-0.5199764966964722,"269":-0.18848244845867157,"270":-0.3901127874851227,"271":0.6502853035926819,"272":-0.5539885759353638,"273":1.0034877061843872,"274":-0.8619213104248047,"275":0.3254258334636688,"276":0.10847146809101105,"277":-0.4375154674053192,"278":-0.5554322004318237,"279":-0.78729248046875,"280":0.5459861755371094,"281":0.6899226307868958,"282":0.13465960323810577,"283":-0.12949515879154205,"284":0.06405486166477203,"285":2.3666515350341797,"286":0.23664577305316925,"287":0.4219517707824707,"288":0.7610183954238892,"289":-0.021630393341183662,"290":-0.7233315110206604,"291":0.16639825701713562,"292":-0.3281588554382324,"293":-0.7025378346443176,"294":0.28593581914901733,"295":0.31945616006851196,"296":0.022563213482499123,"297":-0.22968941926956177,"298":-0.5093994736671448,"299":0.19936628639698029,"300":-0.011020696721971035,"301":0.6652691960334778,"302":0.39664292335510254,"303":0.41643664240837097,"304":0.3289017081260681,"305":0.27348068356513977,"306":1.8412249088287354,"307":-1.8128504753112793,"308":0.7773496508598328,"309":0.5498936772346497,"310":0.4479605257511139,"311":0.07340564578771591,"312":0.6108493208885193,"313":-0.27055495977401733,"314":-1.7753233909606934,"315":0.8061339855194092,"316":-0.3816590905189514,"317":0.16300860047340393,"318":1.8646353483200073,"319":-0.22472091019153595,"320":-0.09223970025777817,"321":-0.23929764330387115,"322":-0.07751451432704926,"323":-0.19720859825611115,"324":-0.41686388850212097,"325":0.20847778022289276,"326":-0.1446724385023117,"327":0.31271347403526306,"328":-0.12424660474061966,"329":0.43783465027809143,"330":0.35863247513771057,"331":-0.10201384872198105,"332":0.176707923412323,"333":-0.4575488567352295,"334":0.17157010734081268,"335":1.2240896224975586,"336":-0.27782365679740906,"337":1.016726016998291,"338":1.678054690361023,"339":0.27240419387817383,"340":-1.2774666547775269,"341":-0.4710196554660797,"342":-0.8438374996185303,"343":-0.19902560114860535,"344":-0.9358742237091064,"345":0.3283793032169342,"346":0.3977740406990051,"347":-0.23308107256889343,"348":0.8400715589523315,"349":1.1308510303497314,"350":1.2079291343688965,"351":1.72651207447052,"352":0.0732431411743164,"353":-0.9965035319328308,"354":-0.12269783765077591,"355":-0.9236329197883606,"356":-0.9852395057678223,"357":0.1677231341600418,"358":0.15018445253372192,"359":1.0740718841552734,"360":-0.2082061469554901,"361":-0.04843471199274063,"362":-1.5303527116775513,"363":0.9892826676368713,"364":1.076061487197876,"365":0.17687615752220154,"366":-0.49035221338272095,"367":0.1699676662683487,"368":-0.1825912743806839,"369":0.19802893698215485,"370":0.1977054625749588,"371":-0.371932715177536,"372":0.23971398174762726,"373":-0.3219349682331085,"374":0.09830427169799805,"375":0.26015704870224,"376":-0.14151906967163086,"377":0.7695944309234619,"378":-0.7022988200187683,"379":-0.09840597957372665,"380":0.5365850925445557,"381":0.4918266236782074,"382":-0.5708785653114319,"383":-0.7675816416740417,"384":-0.008093196898698807,"385":-1.2354216575622559,"386":-0.29712510108947754,"387":-0.20923295617103577,"388":0.45496657490730286,"389":0.8061224222183228,"390":-0.677246630191803,"391":0.7049075365066528,"392":-0.20666037499904633,"393":0.5342699885368347,"394":-0.13503038883209229,"395":0.0009341829572804272,"396":-0.4825085997581482,"397":-0.8804170489311218,"398":-0.8881139755249023,"399":0.3623824715614319,"400":0.39603105187416077,"401":0.048838187009096146,"402":0.510989785194397,"403":0.4108985662460327,"404":-0.2732855975627899,"405":0.15562739968299866,"406":-1.389046549797058,"407":-0.2080322653055191,"408":0.0330437570810318,"409":-0.05520274117588997,"410":0.030926313251256943,"411":-0.045877646654844284,"412":-0.15940436720848083,"413":0.4969401955604553,"414":0.3281079828739166,"415":-0.680348813533783,"416":0.12927860021591187,"417":-0.4351719915866852,"418":-0.6004506349563599,"419":-0.07105819135904312,"420":0.301576167345047,"421":0.3216308057308197,"422":-0.0570780485868454,"423":-0.7031914591789246,"424":-0.27113470435142517,"425":-0.20015309751033783,"426":1.5054582357406616,"427":0.6874800324440002,"428":0.2598617970943451,"429":-0.16952194273471832,"430":0.446618914604187,"431":-1.393310785293579,"432":0.014934824779629707,"433":-0.2378610521554947,"434":0.3141598105430603,"435":0.2732261121273041,"436":1.2532624006271362,"437":0.2947896122932434,"438":0.3191618323326111,"439":-1.4458705186843872,"440":-0.0899101048707962,"441":-0.15832506120204926,"442":-1.230997920036316,"443":-1.3555893898010254,"444":-0.22203242778778076,"445":-0.11108531802892685,"446":0.11544907838106155,"447":1.884537696838379,"448":-0.4469066262245178,"449":1.7470402717590332,"450":1.0950626134872437,"451":0.17415237426757812,"452":0.2865206301212311,"453":-0.5104163289070129,"454":-0.4219108819961548,"455":-0.8916314840316772,"456":1.2354505062103271,"457":-1.225919246673584,"458":-1.4183452129364014,"459":0.9253346920013428,"460":-0.23858140408992767,"461":0.09289640933275223,"462":0.1637556552886963,"463":1.9441360235214233,"464":-0.4543725252151489,"465":0.0894533023238182,"466":-0.12470533698797226,"467":-0.005899496376514435,"468":0.12191096693277359,"469":0.11107999831438065,"470":-0.1683068722486496,"471":-0.5555413961410522,"472":-0.35723307728767395,"473":0.6536558270454407,"474":0.2700658142566681,"475":-0.6268247365951538,"476":-0.3550988733768463,"477":0.4150836169719696,"478":-0.5200621485710144,"479":-0.6086016297340393,"480":-0.21533247828483582,"481":0.8592628240585327,"482":0.15848124027252197,"483":0.28168004751205444,"484":0.3131893575191498,"485":-0.09591171890497208,"486":-1.0851744413375854,"487":-0.22270360589027405,"488":0.6636183857917786,"489":-0.3570304811000824,"490":-0.9615686535835266,"491":-0.15070092678070068,"492":-0.3548801839351654,"493":-0.3616732358932495,"494":0.6482585668563843,"495":-0.42105746269226074,"496":0.9017826914787292,"497":0.5539814233779907,"498":-0.57470703125,"499":-0.5622141361236572,"500":-0.22154462337493896,"501":0.5856375694274902,"502":-0.5700509548187256,"503":0.596222460269928,"504":-0.9292131662368774,"505":-0.3659997284412384,"506":0.42431044578552246,"507":0.36580774188041687,"508":-0.7685568928718567,"509":0.7130566239356995,"510":0.4657788574695587,"511":-0.4720708429813385,"512":0.17755822837352753,"513":-0.2999391257762909,"514":0.6191308498382568,"515":-0.3699822723865509,"516":-0.5533146262168884,"517":-1.2950681447982788,"518":0.7274492979049683,"519":-1.8833701610565186,"520":0.4373943507671356,"521":1.200915813446045,"522":0.29242372512817383,"523":-0.8434268236160278,"524":-0.9811210036277771,"525":0.43820932507514954,"526":-0.868294358253479,"527":-0.3699968755245209,"528":0.36940979957580566,"529":1.122792363166809,"530":0.6326155662536621,"531":-0.7049820423126221,"532":0.360696017742157,"533":-0.63754802942276,"534":0.6588515639305115,"535":-0.10580005496740341,"536":-0.06650197505950928,"537":-0.15184351801872253,"538":-0.42501574754714966,"539":-0.9464765191078186,"540":0.3034825026988983,"541":0.42482495307922363,"542":-0.7113751173019409,"543":0.025721855461597443,"544":0.0394848957657814,"545":-0.32067421078681946,"546":0.2828204035758972,"547":-1.0357508659362793,"548":-0.00866063591092825,"549":-1.2642642259597778,"550":1.0052839517593384,"551":0.1490762084722519,"552":-0.35884612798690796,"553":0.3861279785633087,"554":0.4101265072822571,"555":0.15014950931072235,"556":-0.6036088466644287,"557":0.21901243925094604,"558":-0.5820134878158569,"559":-0.7721028327941895,"560":-0.951281726360321,"561":0.6795342564582825,"562":0.43575966358184814,"563":-0.4277706444263458,"564":0.07075893133878708,"565":0.5606864094734192,"566":0.04693048819899559,"567":-0.5076549053192139,"568":-0.6168266534805298,"569":0.1474379450082779,"570":0.02739391289651394,"571":-0.17890731990337372,"572":0.6366289854049683,"573":0.3504795432090759,"574":0.13878731429576874,"575":-0.6485217809677124,"576":-0.647282063961029,"577":-0.2811707556247711,"578":-0.07975145429372787,"579":-0.19879786670207977,"580":0.7329346537590027,"581":0.2815377116203308,"582":-0.3885989487171173,"583":0.3849061131477356,"584":0.40975019335746765,"585":0.17380884289741516,"586":0.9384453296661377,"587":0.07935108989477158,"588":-1.3899215459823608,"589":0.6301590204238892,"590":-0.5698192715644836,"591":-0.5657731294631958,"592":0.4231722354888916,"593":0.395108699798584,"594":0.04019513353705406,"595":-0.34086883068084717,"596":0.662214994430542,"597":-0.9466472864151001,"598":0.3464983403682709,"599":0.4443112313747406,"600":-0.6435316801071167,"601":-0.5619944930076599,"602":0.5209971070289612,"603":-0.4118988811969757,"604":-0.7396714687347412,"605":-0.2189103215932846,"606":-0.03204834833741188,"607":0.28817859292030334,"608":-0.6666780114173889,"609":0.0339810848236084,"610":0.5651889443397522,"611":0.5861353874206543,"612":0.29277217388153076,"613":-0.23886442184448242,"614":-0.5051127076148987,"615":-0.46223825216293335,"616":-0.17489461600780487,"617":0.4048324227333069,"618":-0.33263930678367615,"619":1.3679075241088867,"620":0.31887102127075195,"621":0.18402402102947235,"622":-1.3108917474746704,"623":-0.09533984214067459,"624":-0.8762229681015015,"625":-0.2516212463378906,"626":-0.5707928538322449,"627":1.0133209228515625,"628":0.13158825039863586,"629":-0.11864514648914337,"630":0.8419752717018127,"631":0.9070193767547607,"632":0.5246162414550781,"633":0.7556840181350708,"634":-0.03284802287817001,"635":-1.710296392440796,"636":0.24285633862018585,"637":-1.266534447669983,"638":-1.6398472785949707,"639":-0.20551007986068726,"640":0.32133549451828003,"641":0.18667452037334442,"642":0.09386244416236877,"643":0.09412053227424622,"644":-1.7801998853683472,"645":1.3612679243087769,"646":1.019261121749878,"647":-0.15966041386127472,"648":-0.12210849672555923,"649":0.0770469382405281,"650":-0.18028348684310913,"651":-0.3664855659008026,"652":0.20624643564224243,"653":-0.09370534121990204,"654":-0.15953803062438965,"655":-0.15690483152866364,"656":-0.04217325150966644,"657":0.29559725522994995,"658":0.15268343687057495,"659":-0.8341971039772034,"660":-0.08118002116680145,"661":-0.7872101068496704,"662":0.01499897800385952,"663":-0.5195527672767639,"664":-0.18973079323768616,"665":0.8597954511642456,"666":1.0682281255722046,"667":-0.4386492073535919,"668":0.30959218740463257,"669":0.07066159695386887,"670":0.11101885139942169,"671":-0.061681006103754044,"672":0.4092217981815338,"673":0.5216342806816101,"674":0.871482253074646,"675":-0.9449936151504517,"676":0.5387217402458191,"677":0.43944695591926575,"678":0.07374118268489838,"679":0.17019879817962646,"680":-0.62796950340271,"681":-0.3048824369907379,"682":-0.3468655049800873,"683":1.1229915618896484,"684":-0.5192582607269287,"685":-0.2519756853580475,"686":-0.8715641498565674,"687":-0.4977148175239563,"688":-0.009236261248588562,"689":0.7438656687736511,"690":0.5049311518669128,"691":0.6840954422950745,"692":0.8004975318908691,"693":0.08825039863586426,"694":-0.7356824278831482,"695":2.3035242557525635,"696":-0.3131486475467682,"697":0.920978844165802,"698":0.45042911171913147,"699":0.10000839829444885,"700":0.4194166660308838,"701":0.008627491071820259,"702":1.1804537773132324,"703":-0.7931255102157593,"704":-0.9971048831939697,"705":-0.3015507757663727,"706":-1.048155426979065,"707":-0.12294068187475204,"708":-0.3845070004463196,"709":0.018290642648935318,"710":-0.6025176048278809,"711":0.13777419924736023,"712":0.5217243432998657,"713":-0.26445889472961426,"714":0.0014738361351191998,"715":-0.2365252822637558,"716":0.8433103561401367,"717":0.2998921871185303,"718":0.04425576701760292,"719":0.6883339881896973,"720":0.07433798164129257,"721":0.1926279067993164,"722":-1.1323407888412476,"723":0.9976052641868591,"724":0.17121300101280212,"725":0.43136587738990784,"726":-0.19858820736408234,"727":-0.7254810929298401,"728":-0.9844829440116882,"729":-0.03664874657988548,"730":0.11025736480951309,"731":0.14824256300926208,"732":0.06600186228752136,"733":-0.8680164217948914,"734":-1.213564157485962,"735":0.1545896679162979,"736":0.964079737663269,"737":0.2413582056760788,"738":0.7120177149772644,"739":-0.2611488103866577,"740":-0.13127592206001282,"741":-0.34675538539886475,"742":1.2257527112960815,"743":-0.9801769852638245,"744":1.1671452522277832,"745":-0.6848469376564026,"746":-0.609325647354126,"747":0.7166988253593445,"748":-0.11625201255083084,"749":1.1935243606567383,"750":-1.0633853673934937,"751":-1.095134973526001,"752":0.5877039432525635,"753":-0.21163196861743927,"754":0.2277166098356247,"755":-0.3083357512950897,"756":-0.35820308327674866,"757":-0.5839661359786987,"758":0.5813112854957581,"759":0.04121952876448631,"760":0.7816999554634094,"761":0.42096516489982605,"762":0.4213641583919525,"763":-1.114465355873108,"764":-0.5664586424827576,"765":-0.828660249710083,"766":0.258586585521698,"767":-0.7456441521644592,"768":0.7778552770614624,"769":-0.2094714194536209,"770":0.27665477991104126,"771":0.5340780019760132,"772":0.631466805934906,"773":0.5648303031921387,"774":1.0592890977859497,"775":-0.49270108342170715,"776":-1.1544737815856934,"777":0.31960976123809814,"778":-0.9090273380279541,"779":-1.2959678173065186,"780":-0.6641644239425659,"781":-0.38196805119514465,"782":0.33791571855545044,"783":0.4821910560131073,"784":0.25407129526138306,"785":-1.9390156269073486,"786":0.8935425877571106,"787":0.9396262764930725,"788":-0.19643975794315338,"789":0.09258105605840683,"790":-0.31345999240875244,"791":0.24644075334072113,"792":-0.30252838134765625,"793":-0.2432875633239746,"794":0.4661027789115906,"795":0.1169884130358696,"796":0.19457602500915527,"797":-0.5776091814041138,"798":-0.23518839478492737,"799":0.1752150058746338,"800":0.3805856704711914,"801":0.7205659747123718,"802":0.384907603263855,"803":-0.8426056504249573,"804":0.33782243728637695,"805":0.8164316415786743,"806":-0.4420068860054016,"807":1.0538665056228638,"808":0.46651729941368103,"809":-0.015772152692079544,"810":-0.18451915681362152,"811":-0.4395250082015991,"812":-0.17954736948013306,"813":-0.4671359360218048,"814":-0.08579455316066742,"815":-0.05124058946967125,"816":0.6052660346031189,"817":-0.5046485066413879,"818":0.7444894313812256,"819":0.5273607969284058,"820":1.232736587524414,"821":0.3991733491420746,"822":0.7157071828842163,"823":-0.038188397884368896,"824":0.913411021232605,"825":-0.4091614782810211,"826":0.3444898724555969,"827":0.07449324429035187,"828":0.3895939886569977,"829":0.5980072021484375,"830":-0.6292402744293213,"831":0.15682083368301392,"832":0.37326210737228394,"833":0.3812728822231293,"834":0.5709265470504761,"835":-0.43671759963035583,"836":-0.2570406496524811,"837":0.26914510130882263,"838":-0.5526584982872009,"839":-0.2799012362957001,"840":0.23816165328025818,"841":-0.34196195006370544,"842":0.4961937367916107,"843":0.03266273811459541,"844":0.9743167161941528,"845":-0.09916859865188599,"846":-1.254795789718628,"847":0.8334735035896301,"848":0.279849112033844,"849":-0.09189839661121368,"850":0.40255206823349,"851":0.35302677750587463,"852":-1.1284332275390625,"853":-0.4533103108406067,"854":-0.13143669068813324,"855":-0.8609708547592163,"856":-0.06025470420718193,"857":0.001426893169991672,"858":0.8445637822151184,"859":0.5171708464622498,"860":-0.5018739104270935,"861":1.2904741764068604,"862":-0.019945835694670677,"863":0.40801382064819336,"864":-0.0662427693605423,"865":-0.5371761918067932,"866":-1.096673607826233,"867":-0.3500351905822754,"868":-0.1333949863910675,"869":0.025364447385072708,"870":1.054947018623352,"871":0.17092213034629822,"872":0.3073858618736267,"873":1.0187634229660034,"874":-0.32114073634147644,"875":-0.03443509712815285,"876":-1.4023969173431396,"877":0.45388656854629517,"878":-0.21637269854545593,"879":1.158103108406067,"880":-0.5182814598083496,"881":-0.5632425546646118,"882":0.14577823877334595,"883":1.0587068796157837,"884":0.5986180901527405,"885":-1.0535717010498047,"886":1.314574122428894,"887":-1.3429309129714966,"888":-0.169675812125206,"889":-0.22696080803871155,"890":0.8781030178070068,"891":0.3770645558834076,"892":-0.770749032497406,"893":-0.8989832401275635,"894":-0.5649443864822388,"895":-0.8310460448265076,"896":-0.14787712693214417,"897":0.06973627209663391,"898":-1.135450839996338,"899":-1.1297792196273804,"900":0.9842873215675354,"901":-0.46686312556266785,"902":-0.7755869626998901,"903":-1.1988190412521362,"904":0.4517139196395874,"905":-0.00644064461812377,"906":1.3904967308044434,"907":1.0966947078704834,"908":1.2668191194534302,"909":0.9488664865493774,"910":-0.7257753014564514,"911":0.5422778725624084,"912":-0.7224953770637512,"913":-0.1035284623503685,"914":-1.2904176712036133,"915":-1.1238549947738647,"916":-0.7681662440299988,"917":-0.3132344186306,"918":0.23792093992233276,"919":0.39236703515052795,"920":-0.08143699169158936,"921":-0.5799700021743774,"922":-0.6255390644073486,"923":-1.447900414466858,"924":0.7170260548591614,"925":0.08935970067977905,"926":1.0813050270080566,"927":-0.27164822816848755,"928":-0.6144290566444397,"929":0.1635357141494751,"930":0.9798195362091064,"931":-0.3350120186805725,"932":0.8354379534721375,"933":-0.39113882184028625,"934":-0.6076734662055969,"935":1.5928174257278442,"936":-0.9491807222366333,"937":0.21009577810764313,"938":-1.2530471086502075,"939":-0.2706461548805237}},"inputHidden":{"rows":20,"columns":20,"weights":{"0":0.1440151333808899,"1":-0.18212150037288666,"2":-0.41198858618736267,"3":0.1676708310842514,"4":0.08630023151636124,"5":-0.45873743295669556,"6":0.12029014527797699,"7":0.3782176673412323,"8":-1.8231216669082642,"9":0.6521213054656982,"10":-0.07691698521375656,"11":-0.1110607460141182,"12":-0.5202248096466064,"13":0.018971513956785202,"14":0.27699193358421326,"15":-1.5041115283966064,"16":-0.2487868070602417,"17":0.41780006885528564,"18":0.2230907678604126,"19":-0.7922957539558411,"20":-0.0714721754193306,"21":-1.3405747413635254,"22":-0.42740654945373535,"23":-0.15127500891685486,"24":-0.4284094274044037,"25":-0.8280444741249084,"26":2.3050365447998047,"27":-0.6090872287750244,"28":-1.124504566192627,"29":-2.98095440864563,"30":-0.20116868615150452,"31":-1.1107701063156128,"32":0.8722412586212158,"33":-0.08749829977750778,"34":0.47763219475746155,"35":-1.3375351428985596,"36":0.06562331318855286,"37":0.03639926761388779,"38":0.9558698534965515,"39":-0.3617003560066223,"40":0.017153728753328323,"41":-0.30607736110687256,"42":-0.13926926255226135,"43":-0.24993155896663666,"44":-1.3877800703048706,"45":-0.8093935251235962,"46":-0.38742056488990784,"47":-0.9027515053749084,"48":-0.5079463720321655,"49":-0.6111420392990112,"50":-0.0912638008594513,"51":0.04023543745279312,"52":0.8637701272964478,"53":-0.5097392797470093,"54":0.7662770748138428,"55":-0.38928788900375366,"56":0.04840255528688431,"57":-0.2871336340904236,"58":-0.44408032298088074,"59":0.17003881931304932,"60":0.10767409205436707,"61":0.6488941311836243,"62":0.750176191329956,"63":0.1649933159351349,"64":-0.6912097930908203,"65":0.6668173670768738,"66":-0.3100394606590271,"67":-0.5691246390342712,"68":0.6379112601280212,"69":0.2652724087238312,"70":0.42324355244636536,"71":0.15145130455493927,"72":0.6062498092651367,"73":-0.28551310300827026,"74":0.6568796634674072,"75":1.4092499017715454,"76":-0.31170666217803955,"77":-0.33441540598869324,"78":-0.278554767370224,"79":0.08288808166980743,"80":0.15618948638439178,"81":-0.018373306840658188,"82":0.18799875676631927,"83":0.0838315561413765,"84":-2.1531593799591064,"85":0.010717727243900299,"86":-1.6252946853637695,"87":-1.1441426277160645,"88":-0.6469173431396484,"89":0.3628537058830261,"90":0.4300718605518341,"91":1.2483632564544678,"92":1.2191568613052368,"93":-0.451829195022583,"94":0.35333412885665894,"95":0.17707118391990662,"96":-0.7024763822555542,"97":0.8972106575965881,"98":-0.4852496385574341,"99":0.4221591353416443,"100":-0.07212596386671066,"101":-1.7558646202087402,"102":-0.5702428817749023,"103":0.008484547957777977,"104":1.1906620264053345,"105":-0.6887032389640808,"106":0.9332718253135681,"107":-0.2634652256965637,"108":-1.6705082654953003,"109":-0.5833807587623596,"110":-1.1660442352294922,"111":-1.0987226963043213,"112":0.24574875831604004,"113":0.1807800829410553,"114":0.6648917198181152,"115":-1.1253347396850586,"116":0.25225380063056946,"117":1.0529942512512207,"118":1.3967925310134888,"119":-1.5301162004470825,"120":-0.2329951673746109,"121":-1.532610297203064,"122":0.4422532320022583,"123":0.8366926908493042,"124":-0.5285471677780151,"125":-0.45442816615104675,"126":1.0794600248336792,"127":-0.8811315298080444,"128":-1.1680177450180054,"129":-0.19638922810554504,"130":-0.8030599355697632,"131":-1.495070457458496,"132":0.1432090550661087,"133":-0.1592521369457245,"134":0.5655823349952698,"135":-0.7398109436035156,"136":-0.2179955244064331,"137":0.6220357418060303,"138":0.6742278337478638,"139":-0.7666571140289307,"140":-0.4473476707935333,"141":0.8989171981811523,"142":0.560028076171875,"143":0.4931964874267578,"144":-0.4700268805027008,"145":0.21090415120124817,"146":-0.865629255771637,"147":-0.44756168127059937,"148":0.5649599432945251,"149":0.7879716753959656,"150":0.055523838847875595,"151":0.880086362361908,"152":0.3959660828113556,"153":-0.26044023036956787,"154":0.36746299266815186,"155":0.11116290837526321,"156":-0.5778244137763977,"157":0.053805574774742126,"158":-0.15557479858398438,"159":0.2769405245780945,"160":0.3255518972873688,"161":-2.1650545597076416,"162":-1.1806919574737549,"163":0.9610694646835327,"164":0.38457727432250977,"165":-0.8354940414428711,"166":0.28330206871032715,"167":-0.8193320035934448,"168":-2.091745376586914,"169":0.5965060591697693,"170":-1.0535659790039062,"171":-0.6171938180923462,"172":0.8756529688835144,"173":-0.9613162279129028,"174":0.37594982981681824,"175":-1.443915605545044,"176":-0.9695591330528259,"177":1.6001955270767212,"178":1.32549250125885,"179":-1.0987375974655151,"180":0.8666889667510986,"181":-0.05374983698129654,"182":1.5140345096588135,"183":-1.3297030925750732,"184":-1.3733017444610596,"185":0.8610725402832031,"186":-0.11205650120973587,"187":1.1507115364074707,"188":-0.9815813302993774,"189":1.146477222442627,"190":0.7852903008460999,"191":0.2415304183959961,"192":-1.1632057428359985,"193":1.2283979654312134,"194":1.2627036571502686,"195":-1.124149203300476,"196":1.4323053359985352,"197":-0.7754687666893005,"198":-0.3281603753566742,"199":0.6486780643463135,"200":-0.7448124289512634,"201":-0.521172821521759,"202":-1.1960172653198242,"203":0.042493946850299835,"204":0.9814751148223877,"205":-0.5877318382263184,"206":0.350035697221756,"207":-0.15712828934192657,"208":-0.9020788669586182,"209":0.7271829843521118,"210":-0.6091490983963013,"211":-0.281424880027771,"212":0.22191449999809265,"213":-0.15713892877101898,"214":-0.8936747908592224,"215":-0.8335431814193726,"216":-0.046929433941841125,"217":0.4443826675415039,"218":0.389578253030777,"219":-0.7435843348503113,"220":0.24590329825878143,"221":-1.742582082748413,"222":-0.33708301186561584,"223":0.2592526972293854,"224":-0.3060460090637207,"225":-1.2943531274795532,"226":0.7434445023536682,"227":-0.7600470781326294,"228":-1.5193430185317993,"229":0.37500548362731934,"230":-0.7652641534805298,"231":-0.944604754447937,"232":0.7381659746170044,"233":-0.8440654873847961,"234":0.029467180371284485,"235":-1.1731213331222534,"236":-0.6016488075256348,"237":0.6579152345657349,"238":0.8227322101593018,"239":-0.5743467807769775,"240":0.15266378223896027,"241":2.013488531112671,"242":1.071311593055725,"243":0.30889892578125,"244":-1.6266491413116455,"245":0.34396547079086304,"246":-1.2032731771469116,"247":-0.30121758580207825,"248":-0.1799098253250122,"249":-0.42923659086227417,"250":0.889513373374939,"251":1.6128722429275513,"252":0.2619447708129883,"253":-0.14655514061450958,"254":0.7758052349090576,"255":-0.5940893888473511,"256":-0.32424551248550415,"257":-0.10211680829524994,"258":-0.2589205801486969,"259":1.8090065717697144,"260":0.009388909675180912,"261":1.3449193239212036,"262":0.7665338516235352,"263":0.4248511791229248,"264":-0.7814518809318542,"265":0.684619665145874,"266":-0.6049655675888062,"267":-0.3318357765674591,"268":0.2989446520805359,"269":0.1750982701778412,"270":0.3041974902153015,"271":1.7403022050857544,"272":0.18073000013828278,"273":-0.30919286608695984,"274":0.6949589848518372,"275":-0.09124267101287842,"276":-0.42044201493263245,"277":-0.34779083728790283,"278":-0.11434926092624664,"279":0.31521010398864746,"280":0.0038599390536546707,"281":-1.006430745124817,"282":-1.8680481910705566,"283":-0.9101272821426392,"284":1.8370532989501953,"285":-1.3616349697113037,"286":2.0339090824127197,"287":0.016975833103060722,"288":-0.7033260464668274,"289":-0.9997496008872986,"290":-0.639718234539032,"291":-1.0120010375976562,"292":-0.502174437046051,"293":-0.29476219415664673,"294":-0.04325775429606438,"295":-0.5340710878372192,"296":1.259143590927124,"297":-0.6825355291366577,"298":1.495373249053955,"299":-1.1987190246582031,"300":0.2526579797267914,"301":-1.0767133235931396,"302":-1.1120597124099731,"303":0.07032454758882523,"304":0.615688145160675,"305":-0.8129746913909912,"306":0.63385409116745,"307":0.14358189702033997,"308":-1.1242690086364746,"309":0.12967589497566223,"310":-0.7551849484443665,"311":-1.1464869976043701,"312":0.04996534809470177,"313":-0.027374856173992157,"314":0.619392454624176,"315":-1.1534912586212158,"316":0.15336893498897552,"317":0.3002367317676544,"318":0.3175960183143616,"319":-0.8895473480224609,"320":0.17249193787574768,"321":1.0086811780929565,"322":1.1847411394119263,"323":0.5383378863334656,"324":-1.261445164680481,"325":0.7606194019317627,"326":-0.6595287322998047,"327":-0.043173592537641525,"328":0.20198772847652435,"329":0.02791243977844715,"330":0.5840689539909363,"331":0.5230595469474792,"332":0.13807891309261322,"333":-0.2760589122772217,"334":0.692742645740509,"335":0.6763207912445068,"336":-0.701113760471344,"337":0.18744021654129028,"338":-0.16030080616474152,"339":1.199763536453247,"340":0.27550408244132996,"341":-0.023145386949181557,"342":0.6992334127426147,"343":-0.12515397369861603,"344":-0.21088463068008423,"345":0.432354599237442,"346":0.2903323471546173,"347":-0.19109036028385162,"348":-0.19697152078151703,"349":0.6072252988815308,"350":0.07781235128641129,"351":0.07928350567817688,"352":0.0964326336979866,"353":-0.2272229790687561,"354":0.4340859055519104,"355":-0.293846994638443,"356":0.01886904239654541,"357":0.618615448474884,"358":0.2944824993610382,"359":0.18373052775859833,"360":1.1921110153198242,"361":0.6066386103630066,"362":0.8574764132499695,"363":-0.487304151058197,"364":-1.2402231693267822,"365":1.7208664417266846,"366":0.2420388013124466,"367":0.14315876364707947,"368":0.13089674711227417,"369":-0.1184794157743454,"370":1.7710078954696655,"371":0.4888409376144409,"372":-0.1893710345029831,"373":-0.07751984894275665,"374":0.42023909091949463,"375":-0.22553078830242157,"376":0.742716908454895,"377":0.39841774106025696,"378":-0.29344412684440613,"379":1.0864225625991821,"380":0.6742048263549805,"381":-0.6700626611709595,"382":-0.7738614082336426,"383":0.09006359428167343,"384":-0.23878483474254608,"385":0.3182656466960907,"386":0.23776951432228088,"387":-0.22369074821472168,"388":-1.1323984861373901,"389":0.7464780211448669,"390":-0.46652355790138245,"391":-0.6108222603797913,"392":0.6020617485046387,"393":-0.27992498874664307,"394":0.5021587610244751,"395":-1.2410695552825928,"396":0.009522978216409683,"397":0.5216680765151978,"398":-0.07459140568971634,"399":0.4671974778175354}},"inputBias":{"rows":20,"columns":1,"weights":{"0":-0.22782939672470093,"1":-0.042463287711143494,"2":-0.2190910130739212,"3":0.10134999454021454,"4":-0.5250297784805298,"5":-0.09064647555351257,"6":-0.24882449209690094,"7":0.041642360389232635,"8":-0.205438032746315,"9":-0.019972102716565132,"10":0.19224877655506134,"11":-0.1735164374113083,"12":0.120115727186203,"13":0.20785635709762573,"14":0.5201473832130432,"15":-0.7626680731773376,"16":0.06293550878763199,"17":0.04717838391661644,"18":0.458899587392807,"19":0.3772617280483246}},"forgetMatrix":{"rows":20,"columns":47,"weights":{"0":-0.053617965430021286,"1":-0.9873558282852173,"2":-0.07632391899824142,"3":0.12457232177257538,"4":-0.08686588704586029,"5":-0.8452987670898438,"6":0.0924999862909317,"7":1.5538134574890137,"8":0.42648735642433167,"9":-0.44120028614997864,"10":0.28490689396858215,"11":0.20223182439804077,"12":0.1994890719652176,"13":-0.013748029246926308,"14":0.8232141733169556,"15":0.4060073792934418,"16":0.15703542530536652,"17":-1.9981563091278076,"18":0.8343991041183472,"19":0.39319339394569397,"20":0.040488217025995255,"21":0.05750110745429993,"22":-0.46262654662132263,"23":-1.0054194927215576,"24":0.09581886976957321,"25":0.021999293938279152,"26":-0.2793769836425781,"27":-0.12313779443502426,"28":-0.9899086356163025,"29":-0.9550567865371704,"30":0.10920395702123642,"31":0.8340787291526794,"32":-0.3956435024738312,"33":0.8650437593460083,"34":0.38026249408721924,"35":-0.10797552764415741,"36":0.09642299264669418,"37":1.2674098014831543,"38":-0.7015562653541565,"39":0.7075853943824768,"40":0.2913479804992676,"41":-0.29584065079689026,"42":0.7705400586128235,"43":-0.23988762497901917,"44":1.0228216648101807,"45":-0.9561560750007629,"46":-0.8612864017486572,"47":0.04864887893199921,"48":1.8336703777313232,"49":-0.42297789454460144,"50":-0.3258534371852875,"51":0.12033037841320038,"52":-0.21490643918514252,"53":-0.6220411658287048,"54":-0.5210607051849365,"55":1.1144022941589355,"56":-1.250639796257019,"57":-0.4354397654533386,"58":0.5147181153297424,"59":0.5142892003059387,"60":-1.0893776416778564,"61":-1.231171727180481,"62":-0.087419793009758,"63":-0.19241303205490112,"64":0.6193972826004028,"65":-1.7600915431976318,"66":-0.5811430811882019,"67":-0.2872241735458374,"68":-0.49792492389678955,"69":-0.6742737889289856,"70":0.26806309819221497,"71":-0.4877646267414093,"72":0.3660148084163666,"73":-1.2980467081069946,"74":-0.7847198247909546,"75":0.30050191283226013,"76":1.784686803817749,"77":-0.5125031471252441,"78":-0.48013657331466675,"79":0.07888037711381912,"80":-0.12432736158370972,"81":0.041899438947439194,"82":-0.0641258955001831,"83":0.2508913278579712,"84":-1.8214713335037231,"85":0.5381546020507812,"86":-1.0595693588256836,"87":0.13278323411941528,"88":0.9428703784942627,"89":-0.783089816570282,"90":-0.5760213136672974,"91":-0.7872427105903625,"92":1.0163769721984863,"93":1.0222057104110718,"94":0.5580533146858215,"95":-1.0346767902374268,"96":0.7430104613304138,"97":-0.11877811700105667,"98":-0.2870927155017853,"99":-0.1784927099943161,"100":1.6583901643753052,"101":0.10324785113334656,"102":-0.19828777015209198,"103":0.3043418824672699,"104":1.4898062944412231,"105":-0.7288395762443542,"106":-0.26583972573280334,"107":-1.3646156787872314,"108":0.5223617553710938,"109":-1.9088244438171387,"110":0.12371291220188141,"111":-0.21432016789913177,"112":0.9191396236419678,"113":0.7411761283874512,"114":0.5117456316947937,"115":0.7131919264793396,"116":0.6959167122840881,"117":-0.06200830265879631,"118":0.003966049291193485,"119":0.389686644077301,"120":-0.09462583065032959,"121":-0.44121721386909485,"122":-0.6914287805557251,"123":-0.8648970723152161,"124":1.4477834701538086,"125":0.5293863415718079,"126":-0.02041659690439701,"127":-0.26358237862586975,"128":-0.257161021232605,"129":0.21783912181854248,"130":-0.4777839481830597,"131":0.7999445199966431,"132":-1.0186935663223267,"133":0.4406307637691498,"134":0.08521772921085358,"135":-0.7971173524856567,"136":-0.25219258666038513,"137":0.7453266382217407,"138":1.2848234176635742,"139":0.2623879313468933,"140":-1.3862738609313965,"141":-0.13414089381694794,"142":0.5249985456466675,"143":-0.40102526545524597,"144":0.22591295838356018,"145":0.06625930964946747,"146":0.42954739928245544,"147":-0.4480021297931671,"148":-0.23235204815864563,"149":-0.38572290539741516,"150":-0.013623497448861599,"151":-0.28035759925842285,"152":0.36871737241744995,"153":-0.021553510800004005,"154":0.3594403862953186,"155":-0.38681426644325256,"156":0.5325204730033875,"157":-0.0858038142323494,"158":0.2734728753566742,"159":-0.5531403422355652,"160":-0.4676092565059662,"161":-0.18904179334640503,"162":-0.4078638553619385,"163":-0.1921692192554474,"164":0.4481460750102997,"165":-0.38408854603767395,"166":-0.3214065730571747,"167":0.3021513521671295,"168":0.10016550123691559,"169":0.6475337743759155,"170":0.4666995406150818,"171":-0.3320569694042206,"172":-0.5531883835792542,"173":-0.16320978105068207,"174":0.20533175766468048,"175":-0.33295726776123047,"176":-0.11354545503854752,"177":0.5240806341171265,"178":-0.6696011424064636,"179":0.7052964568138123,"180":-0.21930544078350067,"181":-0.05098329856991768,"182":0.776979923248291,"183":0.21476295590400696,"184":-0.6092755198478699,"185":-0.8272800445556641,