{"type":"LSTM","options":{"inputSize":47,"inputRange":47,"hiddenLayers":[20,20],"outputSize":47,"decayRate":0.999,"smoothEps":1e-8,"regc":0.000001,"clipval":5,"maxPredictionLength":100,"dataFormatter":{"values":[".mp4","01234564789","Lorem ipsum dolor sit amet, consetetur sadipscing aliquyam erat, sed diam voluptua.","Muh sagt die Kuh","abcdefghijklimopqrstuvwxyz","http://www.","https://www.","text","url","www.","www.google.de"],"indexTable":{"0":4,"1":5,"2":6,"3":7,"4":3,"5":8,"6":9,"7":10,"8":11,"9":12,".":0,"m":1,"p":2,"L":13,"o":14,"r":15,"e":16," ":17,"i":18,"s":19,"u":20,"d":21,"l":22,"t":23,"a":24,",":25,"c":26,"n":27,"g":28,"q":29,"y":30,"v":31,"M":32,"h":33,"K":34,"b":35,"f":36,"j":37,"k":38,"w":39,"x":40,"z":41,":":42,"/":43,"stop-input":44,"start-output":45,"unrecognized":46},"characterTable":{"0":".","1":"m","2":"p","3":"4","4":"0","5":"1","6":"2","7":"3","8":"5","9":"6","10":"7","11":"8","12":"9","13":"L","14":"o","15":"r","16":"e","17":" ","18":"i","19":"s","20":"u","21":"d","22":"l","23":"t","24":"a","25":",","26":"c","27":"n","28":"g","29":"q","30":"y","31":"v","32":"M","33":"h","34":"K","35":"b","36":"f","37":"j","38":"k","39":"w","40":"x","41":"z","42":":","43":"/","44":null,"45":null,"46":null},"characters":[".","m","p","4","0","1","2","3","5","6","7","8","9","L","o","r","e"," ","i","s","u","d","l","t","a",",","c","n","g","q","y","v","M","h","K","b","f","j","k","w","x","z",":","/","stop-input","start-output","unrecognized"],"specialIndexes":[44,45,46]}},"input":{"rows":48,"columns":47,"weights":{"0":-0.04152891784906387,"1":0.13500560820102692,"2":-0.05979010835289955,"3":-0.6687124967575073,"4":0.0673784539103508,"5":-1.109047293663025,"6":0.5458959937095642,"7":-0.7668868899345398,"8":0.974012553691864,"9":-0.25377359986305237,"10":-0.026188598945736885,"11":-1.6927404403686523,"12":-0.3660265803337097,"13":0.8228248357772827,"14":0.6078951358795166,"15":-0.3435635268688202,"16":-0.7775880098342896,"17":0.1116090938448906,"18":0.28659573197364807,"19":0.030793482437729836,"20":0.12567687034606934,"21":0.1713024228811264,"22":-0.7888937592506409,"23":-0.35855168104171753,"24":-0.2877257764339447,"25":0.8503462672233582,"26":0.6224362850189209,"27":-0.555976390838623,"28":0.18754222989082336,"29":0.4504683017730713,"30":0.2844175100326538,"31":0.36065638065338135,"32":-0.7860324382781982,"33":-0.4790620505809784,"34":-0.22474539279937744,"35":0.4216145873069763,"36":-0.48610353469848633,"37":-0.04117466136813164,"38":0.7796663641929626,"39":-0.7649090886116028,"40":-0.771697998046875,"41":-0.1385727971792221,"42":-0.6502954959869385,"43":-0.3535712957382202,"44":-0.16725444793701172,"45":0.456582248210907,"46":0.26961377263069153,"47":1.4061208963394165,"48":0.3668779134750366,"49":-2.1646132469177246,"50":0.3090614080429077,"51":0.09841247648000717,"52":0.18964354693889618,"53":-2.0388596057891846,"54":-1.1824840307235718,"55":1.0679634809494019,"56":0.584490180015564,"57":0.7706055641174316,"58":-0.10908301919698715,"59":-1.9519497156143188,"60":0.06345023959875107,"61":-1.1181198358535767,"62":0.5477472543716431,"63":-0.8767796754837036,"64":1.0617585182189941,"65":0.5850632786750793,"66":-0.059753112494945526,"67":-1.8081843852996826,"68":-1.814699411392212,"69":0.24881045520305634,"70":0.36329981684684753,"71":1.7358908653259277,"72":0.5224181413650513,"73":-1.1559637784957886,"74":-0.022557564079761505,"75":-0.07206400483846664,"76":-1.3632214069366455,"77":-1.0564398765563965,"78":-0.19784975051879883,"79":0.5309087634086609,"80":-1.6372957229614258,"81":-0.4657163918018341,"82":-0.020338833332061768,"83":2.0182454586029053,"84":0.4869728982448578,"85":-0.4614901840686798,"86":-1.4042166471481323,"87":-0.13818246126174927,"88":1.8197213411331177,"89":0.03938571736216545,"90":-0.04471468925476074,"91":2.106654405593872,"92":-1.3782778978347778,"93":-0.33889535069465637,"94":0.7006320953369141,"95":0.7449268102645874,"96":-0.6182032823562622,"97":-0.4883992075920105,"98":0.24200454354286194,"99":-0.6352974772453308,"100":0.08243758976459503,"101":-1.4422502517700195,"102":2.155913829803467,"103":-0.6862390637397766,"104":-0.9751476049423218,"105":-2.881726026535034,"106":-1.5472739934921265,"107":1.5954853296279907,"108":1.1530252695083618,"109":-0.06486725062131882,"110":-0.43566569685935974,"111":-0.08409478515386581,"112":1.7096750736236572,"113":1.1136313676834106,"114":-0.7751036286354065,"115":-0.5319871306419373,"116":-2.200655698776245,"117":-0.8359615206718445,"118":-0.7859281897544861,"119":1.5211988687515259,"120":0.5440118908882141,"121":-0.962662398815155,"122":0.6437719464302063,"123":0.5360696911811829,"124":-0.6873208284378052,"125":0.39731839299201965,"126":-1.095241665840149,"127":-0.21629807353019714,"128":-1.0905381441116333,"129":0.6965777277946472,"130":0.28583386540412903,"131":-0.18937325477600098,"132":0.5391775369644165,"133":0.018535783514380455,"134":-0.8668146729469299,"135":-0.17362816631793976,"136":-1.062354326248169,"137":0.2598172724246979,"138":-0.3831162452697754,"139":0.49027296900749207,"140":0.5396291613578796,"141":0.7704470157623291,"142":-1.793157935142517,"143":-0.1606733649969101,"144":-0.21612975001335144,"145":-0.8758686184883118,"146":-1.8831864595413208,"147":0.04387552663683891,"148":-1.9830262660980225,"149":1.759333610534668,"150":-1.079770565032959,"151":-0.8486130237579346,"152":-1.0333863496780396,"153":-0.9485911130905151,"154":0.5500215888023376,"155":1.5673131942749023,"156":-0.5437216758728027,"157":0.343123197555542,"158":-1.213854193687439,"159":0.34361010789871216,"160":0.8568340539932251,"161":-1.4024914503097534,"162":-0.45376017689704895,"163":-1.0778168439865112,"164":-1.2706315517425537,"165":0.15217553079128265,"166":1.5950433015823364,"167":1.4205189943313599,"168":0.20630474388599396,"169":-0.687701404094696,"170":-0.04290052503347397,"171":-1.716418743133545,"172":1.30128812789917,"173":-0.7960849404335022,"174":-0.2365926057100296,"175":-2.809500217437744,"176":-0.602730393409729,"177":-0.3279869854450226,"178":-0.013972650282084942,"179":0.4170733392238617,"180":-0.25142332911491394,"181":0.7189781665802002,"182":0.06269847601652145,"183":-1.8091810941696167,"184":1.0712807178497314,"185":-0.21028870344161987,"186":-0.1375415325164795,"187":0.33700308203697205,"188":-0.7241098284721375,"189":-0.05598227679729462,"190":-0.5898927450180054,"191":0.600323498249054,"192":0.43077343702316284,"193":0.05634484067559242,"194":3.068554639816284,"195":1.0057098865509033,"196":-1.6557859182357788,"197":-0.5001389980316162,"198":-5.09781551361084,"199":0.562195897102356,"200":0.07194990664720535,"201":2.6122028827667236,"202":2.680239677429199,"203":-1.7323616743087769,"204":1.0814749002456665,"205":-1.7692848443984985,"206":-1.1172034740447998,"207":0.3411427438259125,"208":2.4002320766448975,"209":2.5354065895080566,"210":-2.691612958908081,"211":-1.4135973453521729,"212":-0.8375101685523987,"213":1.0183913707733154,"214":1.0852938890457153,"215":1.0836181640625,"216":1.4024250507354736,"217":0.2815350294113159,"218":-0.8809677958488464,"219":0.830001950263977,"220":0.53657066822052,"221":1.4104104042053223,"222":-1.7687158584594727,"223":-0.36816728115081787,"224":-1.1913846731185913,"225":1.1165109872817993,"226":0.42685559391975403,"227":2.7804641723632812,"228":-0.25697869062423706,"229":-2.0425145626068115,"230":0.18384382128715515,"231":2.679579973220825,"232":-4.347814559936523,"233":2.1525704860687256,"234":1.415844440460205,"235":-2.5971696376800537,"236":3.1313276290893555,"237":2.283989667892456,"238":-3.0282046794891357,"239":1.396397590637207,"240":-0.35292720794677734,"241":2.7683093547821045,"242":2.2902960777282715,"243":2.5633022785186768,"244":1.4213207960128784,"245":-2.434056282043457,"246":-1.2636455297470093,"247":-4.565201282501221,"248":2.8501362800598145,"249":-2.6242122650146484,"250":-1.5477315187454224,"251":1.3221896886825562,"252":2.9422905445098877,"253":1.9495553970336914,"254":5.007657051086426,"255":1.6380031108856201,"256":2.9061038494110107,"257":-1.512892246246338,"258":2.34908127784729,"259":-2.7178878784179688,"260":-2.290351152420044,"261":-2.708021640777588,"262":-2.386530637741089,"263":2.1559760570526123,"264":3.210428476333618,"265":1.251400351524353,"266":2.610921859741211,"267":-1.77992582321167,"268":-4.1363654136657715,"269":2.5528018474578857,"270":5.174859523773193,"271":-1.4495209455490112,"272":-2.4003138542175293,"273":-2.7194406986236572,"274":-1.808675765991211,"275":-1.970881700515747,"276":-2.029564619064331,"277":1.913641095161438,"278":2.4839775562286377,"279":0.6801650524139404,"280":2.734999418258667,"281":3.101351022720337,"282":1.3329194784164429,"283":-4.463749885559082,"284":3.077432870864868,"285":4.242068767547607,"286":1.8468475341796875,"287":-0.4146019220352173,"288":-1.3056302070617676,"289":1.1886082887649536,"290":-5.720226287841797,"291":3.6641530990600586,"292":4.239288330078125,"293":1.5301744937896729,"294":7.388609409332275,"295":-4.563621520996094,"296":-1.081446647644043,"297":2.326052665710449,"298":-0.12568165361881256,"299":4.664599418640137,"300":-1.8186075687408447,"301":-3.250826358795166,"302":2.4964334964752197,"303":-1.4607369899749756,"304":-0.04335469380021095,"305":1.4944807291030884,"306":2.288455009460449,"307":-4.48495626449585,"308":-1.806314468383789,"309":3.161963939666748,"310":2.9530725479125977,"311":-1.8519980907440186,"312":1.3177618980407715,"313":-2.013120412826538,"314":4.016207695007324,"315":4.380200386047363,"316":1.5607125759124756,"317":-2.3759047985076904,"318":1.0031994581222534,"319":-0.5649175643920898,"320":0.8252902030944824,"321":2.5760252475738525,"322":3.9030418395996094,"323":0.6902920603752136,"324":1.4402459859848022,"325":-2.911773204803467,"326":-0.6749439835548401,"327":-3.0482676029205322,"328":-3.099581003189087,"329":-2.2265522480010986,"330":2.941877603530884,"331":2.4032816886901855,"332":2.8506298065185547,"333":1.2824448347091675,"334":1.9664279222488403,"335":2.2314813137054443,"336":0.38970330357551575,"337":-0.45560216903686523,"338":1.2354912757873535,"339":-2.597932815551758,"340":-2.3453657627105713,"341":1.9838612079620361,"342":2.767717123031616,"343":-1.6037540435791016,"344":2.504020929336548,"345":1.1983346939086914,"346":0.7076491713523865,"347":1.8481428623199463,"348":2.7773754596710205,"349":2.392477035522461,"350":1.94440758228302,"351":-3.420990467071533,"352":1.2392560243606567,"353":-2.8279881477355957,"354":-0.7988907098770142,"355":-0.7282441258430481,"356":-2.6864023208618164,"357":2.3924219608306885,"358":2.7383928298950195,"359":1.3618690967559814,"360":-2.496093273162842,"361":-2.6223602294921875,"362":0.7211686968803406,"363":0.2834095358848572,"364":1.2301416397094727,"365":-2.394418239593506,"366":1.7476825714111328,"367":-0.7209562063217163,"368":2.867945432662964,"369":-2.4434831142425537,"370":-2.007573366165161,"371":2.6403958797454834,"372":2.8694651126861572,"373":-2.5419437885284424,"374":2.7850725650787354,"375":2.5402209758758545,"376":3.5824594497680664,"377":-3.656259059906006,"378":-5.407584190368652,"379":-0.3956284523010254,"380":0.45331284403800964,"381":-4.551455497741699,"382":-1.524242877960205,"383":-1.1589163541793823,"384":0.05255716294050217,"385":1.3214563131332397,"386":2.962318181991577,"387":1.1247470378875732,"388":1.421647310256958,"389":-4.982198238372803,"390":-5.1767191886901855,"391":0.3188071548938751,"392":-3.623961925506592,"393":2.430267810821533,"394":-3.509742498397827,"395":-1.660233974456787,"396":-0.3435673415660858,"397":-3.601184844970703,"398":1.897149920463562,"399":4.436900615692139,"400":5.472926616668701,"401":-1.6379116773605347,"402":-0.8861897587776184,"403":3.051640510559082,"404":-0.5823770761489868,"405":-3.2842283248901367,"406":-0.06614950299263,"407":0.38496580719947815,"408":4.224330425262451,"409":0.13336701691150665,"410":0.5685276389122009,"411":0.7339034676551819,"412":2.3506999015808105,"413":-0.6669143438339233,"414":-2.3603923320770264,"415":-5.207005023956299,"416":4.120006561279297,"417":1.9012980461120605,"418":-1.5376631021499634,"419":-4.0877814292907715,"420":2.440666913986206,"421":-4.77274227142334,"422":-4.394343376159668,"423":-2.560295343399048,"424":2.3464553356170654,"425":2.5416576862335205,"426":0.8250051736831665,"427":1.007116436958313,"428":1.047614336013794,"429":2.298085927963257,"430":0.8799400925636292,"431":-0.5360094904899597,"432":0.9634957909584045,"433":-2.601775646209717,"434":-2.4978387355804443,"435":0.32174545526504517,"436":2.5789642333984375,"437":-1.0976184606552124,"438":0.998054027557373,"439":1.9289377927780151,"440":0.6966610550880432,"441":2.1666629314422607,"442":2.673426866531372,"443":1.517508625984192,"444":2.263495683670044,"445":-2.6297404766082764,"446":0.978190004825592,"447":-2.4140350818634033,"448":-0.617290198802948,"449":-1.0350860357284546,"450":-2.4639573097229004,"451":1.3171498775482178,"452":2.1850247383117676,"453":0.7173315286636353,"454":-1.077048659324646,"455":-2.537526845932007,"456":0.10019110888242722,"457":0.8934882879257202,"458":1.870917797088623,"459":-2.3451409339904785,"460":-2.1176669597625732,"461":-0.9294595122337341,"462":1.5007575750350952,"463":-2.464050531387329,"464":-2.330343008041382,"465":0.8067598938941956,"466":2.7519338130950928,"467":-2.024383544921875,"468":2.3815371990203857,"469":1.953779935836792,"470":-1.0940738916397095,"471":0.9168570637702942,"472":1.309765100479126,"473":4.702094554901123,"474":0.04633057862520218,"475":0.9477465748786926,"476":0.05811573192477226,"477":1.720455527305603,"478":-4.801971912384033,"479":2.7247533798217773,"480":-1.6540766954421997,"481":-3.4964730739593506,"482":5.060879707336426,"483":1.4149065017700195,"484":-2.335041046142578,"485":4.685334205627441,"486":1.8321508169174194,"487":0.9725264310836792,"488":-1.8333795070648193,"489":1.1529258489608765,"490":0.7567346096038818,"491":0.7974017262458801,"492":-4.14965295791626,"493":3.2256863117218018,"494":-0.5593773126602173,"495":-3.2767086029052734,"496":-2.210095167160034,"497":-0.2534240782260895,"498":0.3854886591434479,"499":0.03229068964719772,"500":0.7505933046340942,"501":-3.491363048553467,"502":-0.8271940350532532,"503":3.4425745010375977,"504":1.491819977760315,"505":0.5146719813346863,"506":0.25403347611427307,"507":-0.842471718788147,"508":-2.682090997695923,"509":1.814942717552185,"510":-1.3508504629135132,"511":-0.6241447329521179,"512":4.117003440856934,"513":2.154519557952881,"514":-0.745826005935669,"515":0.9366742372512817,"516":0.696989893913269,"517":-2.75370454788208,"518":0.056587379425764084,"519":3.969136953353882,"520":2.4483814239501953,"521":-0.08248461782932281,"522":1.35891854763031,"523":0.8005305528640747,"524":-0.8763046264648438,"525":-1.2273598909378052,"526":0.7741487622261047,"527":-2.24908709526062,"528":-5.614917755126953,"529":3.045436143875122,"530":0.3503773510456085,"531":-2.7409117221832275,"532":2.4302053451538086,"533":1.9059456586837769,"534":-1.067671298980713,"535":-0.8770182728767395,"536":-0.5747130513191223,"537":2.389810085296631,"538":2.6680877208709717,"539":-6.076906681060791,"540":2.591636896133423,"541":-2.432766914367676,"542":-0.18811242282390594,"543":-0.37835103273391724,"544":0.7242428064346313,"545":0.26658326387405396,"546":0.39210182428359985,"547":2.775395393371582,"548":-2.3243277072906494,"549":-1.604959487915039,"550":6.41896915435791,"551":-1.0704748630523682,"552":-0.5928019881248474,"553":1.46037757396698,"554":-0.6916775107383728,"555":-0.9997645020484924,"556":3.768653631210327,"557":-0.09388355165719986,"558":-0.241770401597023,"559":1.2560046911239624,"560":0.9872693419456482,"561":-0.6701496839523315,"562":1.2582939863204956,"563":1.2745860815048218,"564":-3.0009100437164307,"565":3.019228219985962,"566":2.236635684967041,"567":1.4566371440887451,"568":0.10333194583654404,"569":0.4068474769592285,"570":2.5575010776519775,"571":-0.7037726640701294,"572":-0.3135244846343994,"573":0.7996034026145935,"574":-2.968749761581421,"575":-4.684963226318359,"576":1.8816919326782227,"577":3.3594841957092285,"578":-0.8226127028465271,"579":1.5093951225280762,"580":0.9350456595420837,"581":0.34498652815818787,"582":2.7353761196136475,"583":3.329824447631836,"584":1.734643816947937,"585":2.6309165954589844,"586":-2.8647336959838867,"587":0.22954662144184113,"588":-2.547097682952881,"589":0.2979324758052826,"590":-0.6366824507713318,"591":-3.0698330402374268,"592":1.1575911045074463,"593":2.8660712242126465,"594":1.5765758752822876,"595":-2.2015268802642822,"596":-4.791245937347412,"597":-0.37244537472724915,"598":0.3307535648345947,"599":1.5038752555847168,"600":-2.118337631225586,"601":-0.4497343897819519,"602":-0.3331336975097656,"603":2.4701809883117676,"604":-3.7037274837493896,"605":-2.5598366260528564,"606":2.5462396144866943,"607":3.8668806552886963,"608":-2.228214740753174,"609":2.5299084186553955,"610":2.606764316558838,"611":4.569081783294678,"612":-0.2517874240875244,"613":-7.0014872550964355,"614":2.0098862648010254,"615":0.13338327407836914,"616":-0.01294707041233778,"617":-5.992598533630371,"618":-0.8957570791244507,"619":0.2629242241382599,"620":1.0668456554412842,"621":2.320586681365967,"622":2.212094306945801,"623":-3.841657876968384,"624":-3.7366137504577637,"625":-1.6208140850067139,"626":2.957444429397583,"627":0.8954529762268066,"628":0.34017911553382874,"629":-2.5367915630340576,"630":-0.1030055582523346,"631":-4.791809558868408,"632":-5.689752578735352,"633":6.132373332977295,"634":0.6388202905654907,"635":4.634185791015625,"636":0.4767642915248871,"637":-0.8934984803199768,"638":1.8596298694610596,"639":-1.0953274965286255,"640":-2.868839740753174,"641":-2.872620105743408,"642":2.081653594970703,"643":1.854071855545044,"644":-2.5567703247070312,"645":0.2813571095466614,"646":-0.16385117173194885,"647":4.464544773101807,"648":1.8437960147857666,"649":-0.23079775273799896,"650":-3.646043539047241,"651":0.2892000377178192,"652":5.144933223724365,"653":-1.5021800994873047,"654":0.3407430052757263,"655":3.8702540397644043,"656":-4.177330493927002,"657":-4.279822826385498,"658":0.04547278583049774,"659":-4.871334075927734,"660":-0.755084216594696,"661":0.9140649437904358,"662":-3.033634662628174,"663":-1.7057005167007446,"664":-2.0520060062408447,"665":0.6572449207305908,"666":-1.8986449241638184,"667":1.7909637689590454,"668":2.463545083999634,"669":5.348743915557861,"670":-0.026828721165657043,"671":-3.7094762325286865,"672":-0.9770383238792419,"673":1.7865352630615234,"674":2.9623665809631348,"675":1.1114505529403687,"676":-5.478638172149658,"677":-3.5633277893066406,"678":-5.992234706878662,"679":-1.5880604982376099,"680":3.5546834468841553,"681":1.2508723735809326,"682":2.013639450073242,"683":-1.6917448043823242,"684":-0.20735962688922882,"685":1.6616346836090088,"686":-4.732510089874268,"687":-1.2559195756912231,"688":1.0418230295181274,"689":0.16210825741291046,"690":2.9913604259490967,"691":1.7852736711502075,"692":1.8645868301391602,"693":-2.560551404953003,"694":2.7332305908203125,"695":0.20088152587413788,"696":-0.1998799741268158,"697":-4.4076409339904785,"698":1.8835558891296387,"699":1.6679317951202393,"700":-1.1618398427963257,"701":-1.0783506631851196,"702":3.5524680614471436,"703":-0.9988625645637512,"704":-2.353695869445801,"705":-0.06522241979837418,"706":0.310403436422348,"707":0.0397355780005455,"708":-0.5367814898490906,"709":-0.9143903255462646,"710":-0.8155758380889893,"711":-0.9012975096702576,"712":-1.1335022449493408,"713":0.591827929019928,"714":-0.48393234610557556,"715":0.14773912727832794,"716":-0.1999533772468567,"717":0.2794874608516693,"718":0.5171310901641846,"719":0.7037789225578308,"720":-0.32225316762924194,"721":-0.8627130389213562,"722":-1.0955469608306885,"723":0.05832962691783905,"724":-0.19761960208415985,"725":-0.8253833055496216,"726":-0.30169007182121277,"727":-0.3954216241836548,"728":-1.0902462005615234,"729":0.9254664182662964,"730":0.8541011810302734,"731":0.7786844968795776,"732":-0.29583391547203064,"733":-0.7036599516868591,"734":-0.2993369400501251,"735":-1.8844139575958252,"736":1.1475945711135864,"737":-0.19682253897190094,"738":-1.8331646919250488,"739":-1.0596001148223877,"740":-0.8713678121566772,"741":-0.19278456270694733,"742":0.24471868574619293,"743":1.0832085609436035,"744":-0.49770689010620117,"745":-0.1361382156610489,"746":0.36608603596687317,"747":-0.8350716829299927,"748":0.03737534582614899,"749":0.762486457824707,"750":0.3469235897064209,"751":-0.8899362087249756,"752":-1.2803349494934082,"753":1.052038311958313,"754":-0.011244337074458599,"755":-0.3493557274341583,"756":-0.31270116567611694,"757":0.9787530899047852,"758":0.34584593772888184,"759":-0.09021401405334473,"760":0.17173655331134796,"761":-0.039328400045633316,"762":0.7347666025161743,"763":-0.9263035655021667,"764":-0.12187531590461731,"765":0.4570161700248718,"766":0.13510547578334808,"767":-0.5054847002029419,"768":-0.22064250707626343,"769":-0.7800260782241821,"770":-0.20078828930854797,"771":-0.4496511220932007,"772":-0.20328323543071747,"773":0.8842973709106445,"774":0.919914186000824,"775":-0.5126283168792725,"776":-1.543052077293396,"777":0.3983705937862396,"778":0.6207016110420227,"779":-2.273303747177124,"780":0.16180984675884247,"781":2.0561790466308594,"782":0.20562945306301117,"783":-0.04201154410839081,"784":-0.24009712040424347,"785":-0.116944819688797,"786":0.0005925275618210435,"787":-0.5128723382949829,"788":-0.20506148040294647,"789":0.8126190304756165,"790":0.34993892908096313,"791":0.14405179023742676,"792":-0.97306227684021,"793":-0.6093177199363708,"794":-0.30312275886535645,"795":-0.2873245179653168,"796":0.8180676102638245,"797":1.1820443868637085,"798":-0.20572982728481293,"799":-1.0729466676712036,"800":0.5584380030632019,"801":-0.41876304149627686,"802":-0.6498546600341797,"803":-1.9522088766098022,"804":-0.12446102499961853,"805":1.0244876146316528,"806":-0.4062141478061676,"807":0.7494030594825745,"808":-0.6616595983505249,"809":1.0493208169937134,"810":-0.2614298462867737,"811":0.16631624102592468,"812":0.23354126513004303,"813":0.9132010340690613,"814":-0.16285724937915802,"815":-0.2879829704761505,"816":-0.501159131526947,"817":0.2448447346687317,"818":-1.140556812286377,"819":-0.5090817809104919,"820":1.1006993055343628,"821":0.8345984816551208,"822":-0.6531174778938293,"823":-1.8518481254577637,"824":0.7764527201652527,"825":1.3935034275054932,"826":-1.399829626083374,"827":-1.3159866333007812,"828":1.9458454847335815,"829":0.5760615468025208,"830":0.11766136437654495,"831":0.004569550976157188,"832":-1.2863531112670898,"833":0.20123766362667084,"834":-0.45407071709632874,"835":-0.6480836272239685,"836":0.829226553440094,"837":1.2945488691329956,"838":-0.4911315441131592,"839":-0.432552307844162,"840":0.7210987210273743,"841":-0.7825212478637695,"842":-0.8398647904396057,"843":0.7206616401672363,"844":2.0064992904663086,"845":-0.5310492515563965,"846":-3.3972654342651367,"847":2.1621997356414795,"848":1.3086848258972168,"849":-2.3244664669036865,"850":-1.143018126487732,"851":0.35737377405166626,"852":-0.45369797945022583,"853":2.082770824432373,"854":1.7750810384750366,"855":0.7340542078018188,"856":-2.8949434757232666,"857":0.11303643137216568,"858":-1.8285019397735596,"859":1.6517095565795898,"860":-1.2612444162368774,"861":-1.7677377462387085,"862":0.8344470262527466,"863":1.9442296028137207,"864":1.1074820756912231,"865":0.8185297250747681,"866":0.17697277665138245,"867":0.6739403605461121,"868":-1.0621404647827148,"869":1.1775590181350708,"870":-2.4592864513397217,"871":-2.246913194656372,"872":-2.177380084991455,"873":-0.953228235244751,"874":-1.03834867477417,"875":2.1336452960968018,"876":0.4821125268936157,"877":0.9211190938949585,"878":-0.9877862334251404,"879":-2.2389490604400635,"880":1.7190122604370117,"881":-0.02163432538509369,"882":-1.0293583869934082,"883":-0.4363163411617279,"884":-1.4120922088623047,"885":1.3760360479354858,"886":-1.5204275846481323,"887":-1.1544520854949951,"888":1.2553529739379883,"889":2.1025218963623047,"890":-2.241745948791504,"891":2.3264946937561035,"892":-0.1428307294845581,"893":-1.62997305393219,"894":2.07965087890625,"895":1.409471035003662,"896":1.5129175186157227,"897":2.1159486770629883,"898":2.4160587787628174,"899":0.6694530248641968,"900":0.5902321338653564,"901":-1.32883620262146,"902":-1.0501052141189575,"903":-2.4876909255981445,"904":-2.6203064918518066,"905":0.8841153383255005,"906":2.6629648208618164,"907":-1.0612797737121582,"908":1.4025447368621826,"909":1.5807735919952393,"910":0.8702912330627441,"911":2.183619499206543,"912":1.4525119066238403,"913":0.7805241942405701,"914":0.7157915830612183,"915":-1.6295236349105835,"916":0.86247718334198,"917":-2.568192720413208,"918":-0.016395393759012222,"919":-1.008910894393921,"920":-1.2436085939407349,"921":2.8156611919403076,"922":1.3112590312957764,"923":1.3735427856445312,"924":-3.1309261322021484,"925":-1.7808784246444702,"926":0.5537661910057068,"927":0.41016945242881775,"928":1.3086527585983276,"929":-2.0902764797210693,"930":-1.1985591650009155,"931":-0.8630167245864868,"932":3.1938772201538086,"933":-2.0362186431884766,"934":-0.8276352286338806,"935":1.9993081092834473,"936":3.853233814239502,"937":-1.0673699378967285,"938":1.9766395092010498,"939":1.537514090538025,"940":-0.9355019330978394,"941":1.223828911781311,"942":0.11586413532495499,"943":0.6812467575073242,"944":0.642792820930481,"945":1.0313040018081665,"946":0.48935672640800476,"947":0.3939765691757202,"948":-0.4463430643081665,"949":0.7260861396789551,"950":-0.6891414523124695,"951":-1.0024017095565796,"952":0.4656466841697693,"953":0.954748809337616,"954":-0.27764832973480225,"955":0.4914752244949341,"956":0.5672490000724792,"957":0.2249259650707245,"958":0.4238978624343872,"959":1.4470458030700684,"960":1.0298442840576172,"961":1.235828161239624,"962":-0.13246382772922516,"963":0.31712278723716736,"964":-0.48989149928092957,"965":-0.12462872266769409,"966":-0.19882482290267944,"967":-1.2949761152267456,"968":1.0411845445632935,"969":0.8622217178344727,"970":1.042373776435852,"971":-0.06720556318759918,"972":-1.080580234527588,"973":0.36131495237350464,"974":0.19038176536560059,"975":1.2535699605941772,"976":-0.4907987117767334,"977":-0.06639768183231354,"978":-0.4656185805797577,"979":0.8070943355560303,"980":-1.2547768354415894,"981":-1.2303205728530884,"982":0.37278836965560913,"983":0.6098519563674927,"984":-0.7904307842254639,"985":0.7917614579200745,"986":1.1072217226028442,"987":0.01961248740553856,"988":0.49445992708206177,"989":0.2491794377565384,"990":1.4093304872512817,"991":0.2717149257659912,"992":0.7215407490730286,"993":-0.2614043354988098,"994":0.335293173789978,"995":-0.6618326306343079,"996":1.2591357231140137,"997":-0.5530627965927124,"998":-0.4920305013656616,"999":0.5183026790618896,"1000":0.6492971181869507,"1001":-0.9586387276649475,"1002":1.2867103815078735,"1003":0.7022842168807983,"1004":0.02997681125998497,"1005":-0.4120546877384186,"1006":0.3087724447250366,"1007":-0.2524718642234802,"1008":0.012906347401440144,"1009":-0.5033517479896545,"1010":0.6863918304443359,"1011":0.11295381188392639,"1012":-0.11767836660146713,"1013":-0.2612472474575043,"1014":-0.19729752838611603,"1015":0.049290262162685394,"1016":-0.27065309882164,"1017":-0.12203481048345566,"1018":-1.1775611639022827,"1019":-0.36597463488578796,"1020":0.5062828063964844,"1021":-0.06628449261188507,"1022":-0.09852136671543121,"1023":0.23337209224700928,"1024":0.5910015106201172,"1025":-0.9615393877029419,"1026":0.9642794728279114,"1027":-0.39266344904899597,"1028":0.22192277014255524,"1029":0.9612227082252502,"1030":0.626545786857605,"1031":-0.29696106910705566,"1032":0.19973425567150116,"1033":0.5632641315460205,"1034":1.9730087518692017,"1035":-0.5055709481239319,"1036":0.007655789144337177,"1037":1.743404507637024,"1038":0.8789128065109253,"1039":-0.09034047275781631,"1040":-2.3442599773406982,"1041":0.754600465297699,"1042":-0.5478947162628174,"1043":0.9312772750854492,"1044":0.0957244336605072,"1045":0.48683592677116394,"1046":1.0894689559936523,"1047":-0.3150925934314728,"1048":-1.7198140621185303,"1049":1.1458768844604492,"1050":-0.9239181876182556,"1051":1.7355419397354126,"1052":0.1942761093378067,"1053":1.8189058303833008,"1054":1.5125402212142944,"1055":-1.722936749458313,"1056":-0.047652993351221085,"1057":1.3432854413986206,"1058":1.146477222442627,"1059":-0.43263235688209534,"1060":-1.512341856956482,"1061":3.0526785850524902,"1062":1.309076189994812,"1063":-2.6115713119506836,"1064":1.0662083625793457,"1065":-1.5237399339675903,"1066":0.6899807453155518,"1067":0.4511606693267822,"1068":-0.3381347358226776,"1069":-1.4216426610946655,"1070":1.9842309951782227,"1071":0.9937533140182495,"1072":-1.5857939720153809,"1073":1.761590600013733,"1074":1.4003504514694214,"1075":1.4605278968811035,"1076":1.5013322830200195,"1077":0.2558325231075287,"1078":-0.7617582678794861,"1079":-1.8953057527542114,"1080":-0.6914697289466858,"1081":-0.3115195035934448,"1082":-1.2568602561950684,"1083":0.6067222952842712,"1084":-1.1100491285324097,"1085":1.0913286209106445,"1086":-0.5509799718856812,"1087":-0.015520601533353329,"1088":-1.3122022151947021,"1089":0.8846253752708435,"1090":-0.20799243450164795,"1091":-0.8533403277397156,"1092":-1.0461015701293945,"1093":-1.565393328666687,"1094":-0.4650678336620331,"1095":-0.0805756002664566,"1096":-0.7332481741905212,"1097":0.18101508915424347,"1098":-1.2163609266281128,"1099":0.7550739049911499,"1100":0.4963705241680145,"1101":0.1790556013584137,"1102":-0.2818804979324341,"1103":-0.37371107935905457,"1104":-1.1690748929977417,"1105":0.45453256368637085,"1106":1.1942906379699707,"1107":2.0179638862609863,"1108":-0.07128450274467468,"1109":0.43376657366752625,"1110":0.016360364854335785,"1111":-1.4955366849899292,"1112":1.599709153175354,"1113":-0.537895143032074,"1114":1.1579010486602783,"1115":-0.8496277332305908,"1116":0.017179498448967934,"1117":-0.7234659790992737,"1118":-0.9994041323661804,"1119":1.4187384843826294,"1120":-0.43400585651397705,"1121":0.6088889241218567,"1122":-0.08506035059690475,"1123":-2.100543737411499,"1124":-0.27934882044792175,"1125":-0.22976844012737274,"1126":-0.1347261220216751,"1127":-0.07001616805791855,"1128":-0.9539695978164673,"1129":1.050328254699707,"1130":0.7199229598045349,"1131":0.1847676783800125,"1132":1.1658568382263184,"1133":0.9978132843971252,"1134":1.1426615715026855,"1135":0.21508793532848358,"1136":-0.286245197057724,"1137":0.3603851795196533,"1138":-0.8841415643692017,"1139":-1.184560775756836,"1140":0.3295237421989441,"1141":0.7258907556533813,"1142":-0.26412126421928406,"1143":-0.043076105415821075,"1144":0.49859732389450073,"1145":0.21556201577186584,"1146":1.2300987243652344,"1147":0.5251445770263672,"1148":1.245084285736084,"1149":1.0174477100372314,"1150":-0.7288896441459656,"1151":0.2051004022359848,"1152":-1.0647552013397217,"1153":-0.04744262248277664,"1154":-0.11320590227842331,"1155":-1.0462429523468018,"1156":1.2251169681549072,"1157":1.1295980215072632,"1158":0.5707298517227173,"1159":-0.3457168638706207,"1160":-1.0502644777297974,"1161":0.6034724712371826,"1162":0.274476557970047,"1163":0.7731484174728394,"1164":-1.028422474861145,"1165":-0.599120557308197,"1166":-0.30783671140670776,"1167":1.1137728691101074,"1168":-1.1058253049850464,"1169":-0.9608281254768372,"1170":0.6551594138145447,"1171":0.8837006688117981,"1172":-1.0278973579406738,"1173":0.9501549005508423,"1174":0.7953797578811646,"1175":0.859329342842102,"1176":-1.6211551427841187,"1177":0.6348955631256104,"1178":1.0887998342514038,"1179":1.3964662551879883,"1180":0.5091138482093811,"1181":-1.0122737884521484,"1182":0.4339736998081207,"1183":-2.2923405170440674,"1184":0.6270325183868408,"1185":2.1174488067626953,"1186":1.1696686744689941,"1187":2.1715853214263916,"1188":-1.6486971378326416,"1189":-1.1162316799163818,"1190":0.4834311604499817,"1191":0.19878897070884705,"1192":1.9631303548812866,"1193":-0.5560523271560669,"1194":-1.2020726203918457,"1195":0.9571875333786011,"1196":-0.7906812429428101,"1197":0.5781441330909729,"1198":0.31861355900764465,"1199":0.9348920583724976,"1200":-2.3427317142486572,"1201":-1.4071155786514282,"1202":1.5543533563613892,"1203":0.7580496072769165,"1204":-1.2383347749710083,"1205":2.5446956157684326,"1206":-0.8391967415809631,"1207":1.7409383058547974,"1208":2.261763334274292,"1209":1.4934296607971191,"1210":-0.6518022418022156,"1211":1.2525978088378906,"1212":0.2836647033691406,"1213":0.3819567859172821,"1214":1.7490403652191162,"1215":1.6249510049819946,"1216":0.9985640645027161,"1217":0.7566532492637634,"1218":-1.8689640760421753,"1219":0.31661257147789,"1220":-1.2062628269195557,"1221":-1.1177420616149902,"1222":-0.7402106523513794,"1223":-1.725645661354065,"1224":0.450137734413147,"1225":-1.7435404062271118,"1226":-1.4925825595855713,"1227":-1.2070351839065552,"1228":0.8258899450302124,"1229":-1.405693769454956,"1230":1.030439019203186,"1231":-1.6436724662780762,"1232":-1.3388609886169434,"1233":-3.2555508613586426,"1234":-1.063930869102478,"1235":-0.1826688051223755,"1236":2.4152064323425293,"1237":-1.713405966758728,"1238":-0.21814203262329102,"1239":-2.7759463787078857,"1240":1.4256656169891357,"1241":-1.230224609375,"1242":-1.2527484893798828,"1243":0.011925149708986282,"1244":-4.310613632202148,"1245":-2.1216495037078857,"1246":-0.34699130058288574,"1247":1.531389594078064,"1248":2.7226552963256836,"1249":0.2830866277217865,"1250":-1.086769461631775,"1251":0.13806840777397156,"1252":-1.9931113719940186,"1253":1.0326036214828491,"1254":-3.76050066947937,"1255":-0.35596033930778503,"1256":-1.1774539947509766,"1257":-1.1598713397979736,"1258":-4.410721302032471,"1259":-0.5560903549194336,"1260":2.6023612022399902,"1261":-0.6293498873710632,"1262":0.6998170614242554,"1263":-0.5117051005363464,"1264":-1.4667348861694336,"1265":0.5086576342582703,"1266":0.3982073664665222,"1267":0.08653813600540161,"1268":0.10402847081422806,"1269":0.5537955164909363,"1270":-0.4434645175933838,"1271":-0.49328064918518066,"1272":-0.48139119148254395,"1273":1.2997604608535767,"1274":-0.5656101703643799,"1275":-0.3677644729614258,"1276":-1.6675684452056885,"1277":1.0978028774261475,"1278":-0.9177605509757996,"1279":-0.5313066244125366,"1280":-0.060038402676582336,"1281":-2.5429275035858154,"1282":-0.4053553640842438,"1283":2.0324108600616455,"1284":-0.3772960305213928,"1285":-0.05524098500609398,"1286":-1.2035001516342163,"1287":2.8333351612091064,"1288":2.6258602142333984,"1289":-0.40619149804115295,"1290":-0.8217088580131531,"1291":-0.04340166598558426,"1292":-2.043930768966675,"1293":0.5877842307090759,"1294":2.2186949253082275,"1295":2.8920199871063232,"1296":-0.208402618765831,"1297":0.5968214273452759,"1298":0.15709537267684937,"1299":-1.8357245922088623,"1300":1.8986754417419434,"1301":-0.2745415270328522,"1302":-0.39339086413383484,"1303":-2.197077512741089,"1304":-0.007897891104221344,"1305":0.03478221222758293,"1306":-0.46097204089164734,"1307":0.9537655711174011,"1308":-0.5604099631309509,"1309":0.22448362410068512,"1310":0.21704663336277008,"1311":-1.0891330242156982,"1312":0.43948233127593994,"1313":-0.09233493357896805,"1314":-0.8557395339012146,"1315":-0.39928197860717773,"1316":-3.586151361465454,"1317":2.7762348651885986,"1318":1.651131272315979,"1319":1.9223649501800537,"1320":0.6842288374900818,"1321":0.6524643301963806,"1322":-1.182956576347351,"1323":0.6634767651557922,"1324":-0.7382270693778992,"1325":0.7909572720527649,"1326":-2.982330322265625,"1327":-2.840147018432617,"1328":0.6548407077789307,"1329":2.7042055130004883,"1330":-0.9148550033569336,"1331":0.6863425970077515,"1332":1.099212408065796,"1333":0.40489429235458374,"1334":2.144338369369507,"1335":-0.14906816184520721,"1336":2.0876150131225586,"1337":1.099811315536499,"1338":-2.935805320739746,"1339":0.1235603541135788,"1340":-2.444571018218994,"1341":-0.537539541721344,"1342":-0.4800359308719635,"1343":-2.4989538192749023,"1344":1.1251899003982544,"1345":2.4901814460754395,"1346":0.7615718245506287,"1347":-1.6550633907318115,"1348":-2.7994987964630127,"1349":1.3507661819458008,"1350":0.9542512893676758,"1351":-0.7670730352401733,"1352":-2.654142141342163,"1353":-0.7067171931266785,"1354":-0.45624274015426636,"1355":4.04374885559082,"1356":-2.866666316986084,"1357":-1.7536933422088623,"1358":0.5717325806617737,"1359":2.9339425563812256,"1360":-3.92486572265625,"1361":2.437594175338745,"1362":1.0857088565826416,"1363":1.313002347946167,"1364":-1.2723461389541626,"1365":-1.7878568172454834,"1366":-0.6771050691604614,"1367":-1.6969611644744873,"1368":-0.7268016934394836,"1369":-0.8023867607116699,"1370":0.02206331677734852,"1371":0.014973095618188381,"1372":-1.4752025604248047,"1373":1.3315634727478027,"1374":1.9216264486312866,"1375":-0.30479294061660767,"1376":-1.731214165687561,"1377":0.12778781354427338,"1378":-1.7094069719314575,"1379":-2.2188172340393066,"1380":-0.45111262798309326,"1381":0.5217901468276978,"1382":-1.1826269626617432,"1383":-0.3896220028400421,"1384":-0.9369733929634094,"1385":2.017209529876709,"1386":-0.5000063180923462,"1387":0.1904839724302292,"1388":0.30645015835762024,"1389":0.038514457643032074,"1390":1.334917664527893,"1391":-1.2965739965438843,"1392":-0.9536721110343933,"1393":0.20633210241794586,"1394":0.3404829800128937,"1395":2.1883950233459473,"1396":-2.683291435241699,"1397":-1.11478590965271,"1398":-2.243025541305542,"1399":0.6016047596931458,"1400":2.1199772357940674,"1401":-0.15890498459339142,"1402":-0.1725454479455948,"1403":2.023124933242798,"1404":0.8977089524269104,"1405":0.18088994920253754,"1406":-1.9219573736190796,"1407":-0.3961338996887207,"1408":-1.3373770713806152,"1409":-1.1361079216003418,"1410":-0.005994641222059727,"1411":-0.8611688613891602,"1412":-0.7236005067825317,"1413":-0.24445104598999023,"1414":-0.9556493759155273,"1415":-1.2994109392166138,"1416":-0.9809046387672424,"1417":-1.3319013118743896,"1418":0.9019052982330322,"1419":-0.2882164418697357,"1420":-0.34568411111831665,"1421":-0.4606689214706421,"1422":3.578305959701538,"1423":-0.4442327916622162,"1424":1.1341720819473267,"1425":-0.5436093211174011,"1426":-0.4603707194328308,"1427":-1.1939067840576172,"1428":-1.6143531799316406,"1429":-0.6138495802879333,"1430":-1.0711084604263306,"1431":-0.6894049644470215,"1432":-0.5122172832489014,"1433":-0.7557845115661621,"1434":0.7194986939430237,"1435":0.8099666237831116,"1436":0.9522180557250977,"1437":0.45583564043045044,"1438":-1.3748289346694946,"1439":-1.0497537851333618,"1440":-1.2981970310211182,"1441":1.2074636220932007,"1442":-0.1602284163236618,"1443":0.595552921295166,"1444":-0.5379158854484558,"1445":-0.8626061081886292,"1446":0.6466462016105652,"1447":0.5586484670639038,"1448":0.5659083724021912,"1449":-0.8025882840156555,"1450":-0.31814542412757874,"1451":0.36821603775024414,"1452":-2.604801654815674,"1453":0.8112964034080505,"1454":0.8730874061584473,"1455":-0.4707634747028351,"1456":-0.6892644762992859,"1457":-0.8260135650634766,"1458":1.489414930343628,"1459":-0.4910784363746643,"1460":-2.3712847232818604,"1461":-1.939045786857605,"1462":-0.04482641816139221,"1463":1.716483473777771,"1464":-0.27687692642211914,"1465":3.1358861923217773,"1466":-1.2507438659667969,"1467":-0.6520392298698425,"1468":-3.2262208461761475,"1469":-1.464782953262329,"1470":1.9288147687911987,"1471":1.0477921962738037,"1472":-2.3862829208374023,"1473":-2.1069231033325195,"1474":0.16092567145824432,"1475":0.1334129124879837,"1476":-1.4216049909591675,"1477":0.0003465118643362075,"1478":1.861199975013733,"1479":1.236952304840088,"1480":-0.5769366025924683,"1481":-4.125339508056641,"1482":0.18902507424354553,"1483":-0.5117290616035461,"1484":-2.2733876705169678,"1485":-0.36699149012565613,"1486":2.600942611694336,"1487":0.7639583945274353,"1488":0.9908413887023926,"1489":0.09233121573925018,"1490":-3.0822346210479736,"1491":0.7948304414749146,"1492":0.9192512035369873,"1493":-0.04227696359157562,"1494":1.7088595628738403,"1495":0.5449109077453613,"1496":-0.06279753148555756,"1497":-0.49447518587112427,"1498":-0.4849112629890442,"1499":-1.5376904010772705,"1500":-1.5898796319961548,"1501":-0.6487967371940613,"1502":2.422743558883667,"1503":1.0437214374542236,"1504":1.6857298612594604,"1505":-0.883325457572937,"1506":-1.6618624925613403,"1507":-2.4078845977783203,"1508":1.4086024761199951,"1509":-0.9463919401168823,"1510":1.6728264093399048,"1511":2.8170244693756104,"1512":-1.6129900217056274,"1513":1.0470787286758423,"1514":1.740875482559204,"1515":2.8444552421569824,"1516":0.8983530402183533,"1517":-1.238863229751587,"1518":-0.824950098991394,"1519":-2.3575737476348877,"1520":-2.633467674255371,"1521":2.1047911643981934,"1522":-2.064706802368164,"1523":0.7460963129997253,"1524":2.0744099617004395,"1525":-0.7296620607376099,"1526":3.1821887493133545,"1527":2.0151360034942627,"1528":0.7216610908508301,"1529":-2.2120754718780518,"1530":-2.3805391788482666,"1531":-1.431632161140442,"1532":2.368223190307617,"1533":1.5454188585281372,"1534":1.8833094835281372,"1535":-1.133571982383728,"1536":1.830661416053772,"1537":-3.090459108352661,"1538":2.4136710166931152,"1539":2.18696928024292,"1540":-1.7267842292785645,"1541":-2.0409085750579834,"1542":-2.0076534748077393,"1543":-2.3147542476654053,"1544":0.9308294653892517,"1545":-1.9315195083618164,"1546":1.303492784500122,"1547":-1.1248023509979248,"1548":-1.5140836238861084,"1549":-0.8722749352455139,"1550":-0.979105532169342,"1551":-3.7763655185699463,"1552":2.7759337425231934,"1553":5.00242805480957,"1554":0.5311377644538879,"1555":0.2203284204006195,"1556":-0.4747239649295807,"1557":3.1249935626983643,"1558":0.1799958199262619,"1559":-1.079867959022522,"1560":0.6529715657234192,"1561":-3.1532843112945557,"1562":-0.12970873713493347,"1563":0.9233601093292236,"1564":2.9949467182159424,"1565":-0.29804080724716187,"1566":0.3939819931983948,"1567":2.8913192749023438,"1568":-0.542249321937561,"1569":-0.5439116954803467,"1570":2.0597877502441406,"1571":-0.21597664058208466,"1572":3.9713330268859863,"1573":-3.643833875656128,"1574":0.327490895986557,"1575":-3.4867773056030273,"1576":-0.20891031622886658,"1577":0.28229856491088867,"1578":-3.0315258502960205,"1579":1.1424236297607422,"1580":3.030397891998291,"1581":0.19751358032226562,"1582":-1.320670247077942,"1583":-0.2063700258731842,"1584":1.192746639251709,"1585":0.1494063138961792,"1586":2.1450042724609375,"1587":-3.2320752143859863,"1588":-3.4477860927581787,"1589":0.49505388736724854,"1590":1.2009679079055786,"1591":-3.0102665424346924,"1592":-3.094522714614868,"1593":1.0825188159942627,"1594":3.067866563796997,"1595":-2.8760104179382324,"1596":3.540769100189209,"1597":3.3255302906036377,"1598":-0.8385957479476929,"1599":0.6693152785301208,"1600":0.6742266416549683,"1601":-0.7606005668640137,"1602":0.6249589920043945,"1603":1.4595836400985718,"1604":-0.07622426003217697,"1605":-1.2426069974899292,"1606":0.6389642953872681,"1607":-1.051068663597107,"1608":-0.018393170088529587,"1609":-0.10861650109291077,"1610":-0.9449700117111206,"1611":-0.1531972885131836,"1612":0.8384540677070618,"1613":-0.7843331098556519,"1614":0.9258175492286682,"1615":-1.1263597011566162,"1616":0.12415337562561035,"1617":0.2088191658258438,"1618":-0.09300883114337921,"1619":0.5522308349609375,"1620":-0.25534552335739136,"1621":-0.9051048755645752,"1622":-0.4505508244037628,"1623":0.9646212458610535,"1624":0.9730597734451294,"1625":-0.5461944341659546,"1626":0.335005521774292,"1627":0.28488028049468994,"1628":-0.8150416612625122,"1629":0.8593645095825195,"1630":-0.24852286279201508,"1631":0.5220445990562439,"1632":-0.9004603028297424,"1633":-0.08220040798187256,"1634":0.16204597055912018,"1635":-0.25485292077064514,"1636":1.2775787115097046,"1637":0.49406495690345764,"1638":-0.5035403370857239,"1639":-0.4420883357524872,"1640":-0.4763512909412384,"1641":0.5833446383476257,"1642":0.41693195700645447,"1643":0.4347819983959198,"1644":0.4126907289028168,"1645":-0.5509821176528931,"1646":1.9650788307189941,"1647":1.6557326316833496,"1648":4.481301784515381,"1649":-0.8056297898292542,"1650":3.7198574542999268,"1651":-0.6764376163482666,"1652":2.67856764793396,"1653":-0.8476566076278687,"1654":3.028803825378418,"1655":-0.6967605352401733,"1656":1.7718915939331055,"1657":2.7202656269073486,"1658":1.6125808954238892,"1659":0.8815544247627258,"1660":4.092550754547119,"1661":4.465683460235596,"1662":-0.14936420321464539,"1663":-4.861584186553955,"1664":1.3619630336761475,"1665":0.4997013211250305,"1666":1.0614546537399292,"1667":-0.49511921405792236,"1668":-0.7644487619400024,"1669":-1.4158846139907837,"1670":-0.1925734281539917,"1671":-3.229368209838867,"1672":0.9977515339851379,"1673":0.8750087022781372,"1674":-0.706356942653656,"1675":2.001249074935913,"1676":-1.9954410791397095,"1677":2.44987154006958,"1678":4.629148960113525,"1679":2.4211385250091553,"1680":0.7969192266464233,"1681":1.8927475214004517,"1682":0.8893271088600159,"1683":-2.4937093257904053,"1684":4.151874542236328,"1685":-3.110600709915161,"1686":-0.5246893763542175,"1687":2.2742066383361816,"1688":2.6813392639160156,"1689":-0.8424569964408875,"1690":0.8394597768783569,"1691":1.7880336046218872,"1692":-2.1257591247558594,"1693":2.49066162109375,"1694":1.7369242906570435,"1695":1.0598986148834229,"1696":0.8889674544334412,"1697":2.147449254989624,"1698":2.5761003494262695,"1699":2.699760675430298,"1700":-2.031604766845703,"1701":0.7480078935623169,"1702":-1.3895279169082642,"1703":0.0022884951904416084,"1704":-1.2619633674621582,"1705":2.4730565547943115,"1706":-1.4498276710510254,"1707":-1.0346332788467407,"1708":0.849457859992981,"1709":2.5263547897338867,"1710":2.0866599082946777,"1711":2.708653688430786,"1712":2.607105016708374,"1713":1.779375433921814,"1714":-0.8304845690727234,"1715":1.8878360986709595,"1716":-2.442039728164673,"1717":-2.5962626934051514,"1718":-1.5722359418869019,"1719":-3.441044807434082,"1720":2.121386766433716,"1721":3.1165761947631836,"1722":3.432666301727295,"1723":-1.0600303411483765,"1724":-1.7941399812698364,"1725":-2.751352310180664,"1726":1.5673245191574097,"1727":2.152449369430542,"1728":-2.749302387237549,"1729":-1.4532175064086914,"1730":-1.7884329557418823,"1731":0.8668297529220581,"1732":-1.9900559186935425,"1733":-2.4869143962860107,"1734":1.4740257263183594,"1735":1.967329502105713,"1736":-2.119637966156006,"1737":2.3143773078918457,"1738":2.260450601577759,"1739":2.0624067783355713,"1740":-0.10390973091125488,"1741":-2.4093289375305176,"1742":-1.3040395975112915,"1743":-3.318643569946289,"1744":-3.0296778678894043,"1745":-1.8820252418518066,"1746":-1.3205342292785645,"1747":2.9446301460266113,"1748":-1.8048467636108398,"1749":2.666918992996216,"1750":1.0852161645889282,"1751":-0.891215443611145,"1752":-0.9229651093482971,"1753":1.34735107421875,"1754":-1.4616153240203857,"1755":-2.820939540863037,"1756":-0.40198221802711487,"1757":3.713010311126709,"1758":-1.5532004833221436,"1759":-1.3371341228485107,"1760":-2.071967840194702,"1761":1.6360225677490234,"1762":-1.0508098602294922,"1763":1.5928512811660767,"1764":0.7017186880111694,"1765":0.3095179796218872,"1766":1.0713180303573608,"1767":-3.5903711318969727,"1768":-1.447392463684082,"1769":-0.759830117225647,"1770":2.3777244091033936,"1771":2.9692227840423584,"1772":-3.1461875438690186,"1773":-1.9211481809616089,"1774":-2.238291025161743,"1775":1.9003466367721558,"1776":2.7989373207092285,"1777":0.7170678377151489,"1778":-2.6090264320373535,"1779":0.36538031697273254,"1780":1.5960283279418945,"1781":-1.1538512706756592,"1782":-1.690442442893982,"1783":1.9630364179611206,"1784":-1.574994683265686,"1785":-3.0892417430877686,"1786":-1.5653669834136963,"1787":0.46005862951278687,"1788":-0.8113996982574463,"1789":-4.210707664489746,"1790":-1.3768949508666992,"1791":-2.8219926357269287,"1792":0.5875667929649353,"1793":-2.886667490005493,"1794":1.9935352802276611,"1795":-2.840614080429077,"1796":-0.9503779411315918,"1797":-0.8828977346420288,"1798":-0.9874163866043091,"1799":-0.15124724805355072,"1800":4.257665157318115,"1801":-3.5394461154937744,"1802":-2.3720669746398926,"1803":-4.738908290863037,"1804":0.7145202159881592,"1805":-3.525709629058838,"1806":1.4869000911712646,"1807":0.011418226175010204,"1808":-0.8649105429649353,"1809":-4.686825752258301,"1810":0.5402392148971558,"1811":4.07828426361084,"1812":5.044105052947998,"1813":-0.3517611026763916,"1814":-2.172938823699951,"1815":0.06255654990673065,"1816":-2.7761783599853516,"1817":3.965402603149414,"1818":-1.3847637176513672,"1819":-0.2928386628627777,"1820":-1.3869194984436035,"1821":-1.7998414039611816,"1822":-1.5852140188217163,"1823":1.526265263557434,"1824":4.973081111907959,"1825":-0.14004895091056824,"1826":0.3481135666370392,"1827":2.9243218898773193,"1828":-3.176919460296631,"1829":-2.666090726852417,"1830":0.054309021681547165,"1831":1.3466733694076538,"1832":-3.7282028198242188,"1833":2.852283239364624,"1834":0.014463258907198906,"1835":-2.6260361671447754,"1836":1.050877332687378,"1837":-0.0990254133939743,"1838":0.2908172607421875,"1839":-3.934690237045288,"1840":-0.07786110788583755,"1841":0.2066652923822403,"1842":1.2951364517211914,"1843":3.8029944896698,"1844":1.580945372581482,"1845":0.15272924304008484,"1846":-1.0147358179092407,"1847":-1.0483558177947998,"1848":1.5221915245056152,"1849":-1.980560064315796,"1850":0.8006681799888611,"1851":-2.695279598236084,"1852":-0.6197144985198975,"1853":-3.2475764751434326,"1854":-3.2396602630615234,"1855":2.4207711219787598,"1856":1.0757232904434204,"1857":3.6478042602539062,"1858":-0.4668077826499939,"1859":-1.258069396018982,"1860":0.663905918598175,"1861":-0.6010261178016663,"1862":-3.1736531257629395,"1863":-0.17752769589424133,"1864":-0.9280185699462891,"1865":2.4432578086853027,"1866":-1.7423080205917358,"1867":1.1544095277786255,"1868":0.029128946363925934,"1869":4.691024303436279,"1870":2.050309658050537,"1871":-0.8892083764076233,"1872":-2.4777040481567383,"1873":0.7834377288818359,"1874":3.1172430515289307,"1875":0.8084185719490051,"1876":-1.9715934991836548,"1877":4.031660079956055,"1878":-1.9046818017959595,"1879":-2.795745611190796,"1880":0.15928520262241364,"1881":0.5649152398109436,"1882":0.08959489315748215,"1883":0.0686245709657669,"1884":-0.6614450812339783,"1885":-0.9855033159255981,"1886":0.9479491114616394,"1887":-0.6747840642929077,"1888":0.6064068675041199,"1889":-1.8445054292678833,"1890":-0.3235512375831604,"1891":-0.35953667759895325,"1892":0.5084363222122192,"1893":0.5064489841461182,"1894":1.2121715545654297,"1895":-1.1901954412460327,"1896":-2.2848098278045654,"1897":-0.39512136578559875,"1898":1.4066957235336304,"1899":1.071494460105896,"1900":2.2851200103759766,"1901":-0.4726242125034332,"1902":-0.25118401646614075,"1903":-0.8346233367919922,"1904":-1.442021131515503,"1905":1.1691694259643555,"1906":1.066235899925232,"1907":-1.6849453449249268,"1908":0.18471689522266388,"1909":2.0011582374572754,"1910":0.9445820450782776,"1911":-0.5744876265525818,"1912":0.15545326471328735,"1913":-1.7838695049285889,"1914":-2.2521018981933594,"1915":-1.2498629093170166,"1916":-1.0088804960250854,"1917":1.1918619871139526,"1918":0.38037410378456116,"1919":0.8411790132522583,"1920":0.060582809150218964,"1921":-0.940956711769104,"1922":0.36017462611198425,"1923":0.21978335082530975,"1924":-1.6416285037994385,"1925":0.4884423315525055,"1926":-0.22747346758842468,"1927":-0.14459970593452454,"1928":0.14495708048343658,"1929":-1.0532071590423584,"1930":2.2477095127105713,"1931":-0.7726885080337524,"1932":-0.13481053709983826,"1933":-2.066869020462036,"1934":-0.14100022614002228,"1935":-0.4563327431678772,"1936":1.342537522315979,"1937":-0.6320330500602722,"1938":-0.1822216808795929,"1939":-0.04257297143340111,"1940":0.7497128844261169,"1941":-0.3367857038974762,"1942":1.7295113801956177,"1943":0.6850125193595886,"1944":-0.0740433856844902,"1945":-0.7361673712730408,"1946":-0.5779743194580078,"1947":-1.3256237506866455,"1948":-0.26289793848991394,"1949":0.2501453161239624,"1950":0.3846547305583954,"1951":1.0181386470794678,"1952":-0.03550875186920166,"1953":-0.012306350283324718,"1954":0.32466498017311096,"1955":-1.4125348329544067,"1956":-1.114702582359314,"1957":-1.2832367420196533,"1958":-1.162847876548767,"1959":-0.2570287585258484,"1960":0.53767329454422,"1961":-0.019369997084140778,"1962":-1.5554680824279785,"1963":1.4708101749420166,"1964":1.0346534252166748,"1965":-0.7063449621200562,"1966":0.6206700801849365,"1967":-1.580214500427246,"1968":-0.07727193087339401,"1969":-0.30151891708374023,"1970":1.455299735069275,"1971":0.6768256425857544,"1972":-0.19879308342933655,"1973":-0.18413595855236053,"1974":2.947657823562622,"1975":-0.3748910129070282,"1976":-3.230233907699585,"1977":-0.5228621363639832,"1978":-2.0415234565734863,"1979":-1.5291697978973389,"1980":-2.3317418098449707,"1981":-1.6028028726577759,"1982":1.8623499870300293,"1983":-0.9605632424354553,"1984":3.4884581565856934,"1985":1.3421858549118042,"1986":0.6173840761184692,"1987":-0.5220790505409241,"1988":0.11963145434856415,"1989":-1.1612884998321533,"1990":-2.8356285095214844,"1991":-0.3897172510623932,"1992":-0.352664589881897,"1993":-1.7419543266296387,"1994":-2.687925100326538,"1995":-2.2449021339416504,"1996":2.1173274517059326,"1997":-0.6913905143737793,"1998":1.6204118728637695,"1999":1.5309008359909058,"2000":0.1193552240729332,"2001":1.072564721107483,"2002":-2.0533082485198975,"2003":-1.942154884338379,"2004":-0.6190120577812195,"2005":0.39071953296661377,"2006":2.6414976119995117,"2007":-4.583547115325928,"2008":-1.5973756313323975,"2009":-1.4246379137039185,"2010":3.5817408561706543,"2011":3.2086970806121826,"2012":0.6192426085472107,"2013":-2.8265790939331055,"2014":1.315503478050232,"2015":2.5289900302886963,"2016":0.5719883441925049,"2017":-2.5678439140319824,"2018":2.6421773433685303,"2019":-1.5621674060821533,"2020":-1.9193137884140015,"2021":0.9217233061790466,"2022":-0.8200356364250183,"2023":-1.0192781686782837,"2024":-1.0771538019180298,"2025":-1.556694746017456,"2026":-1.5660052299499512,"2027":-1.300385594367981,"2028":-1.6150662899017334,"2029":1.2087067365646362,"2030":-1.6313878297805786,"2031":1.6463323831558228,"2032":1.0002094507217407,"2033":-0.4563009738922119,"2034":-1.0428370237350464,"2035":1.5959343910217285,"2036":-1.5126084089279175,"2037":-1.5843019485473633,"2038":-1.5913044214248657,"2039":-1.152621865272522,"2040":-1.4761277437210083,"2041":-0.4513762593269348,"2042":-0.8894070386886597,"2043":1.3093860149383545,"2044":-1.6196866035461426,"2045":0.974307656288147,"2046":1.7853083610534668,"2047":1.4489068984985352,"2048":1.0295439958572388,"2049":-1.4686884880065918,"2050":-1.2737590074539185,"2051":-1.0801047086715698,"2052":1.277246356010437,"2053":2.01639461517334,"2054":-1.0377154350280762,"2055":-1.8128148317337036,"2056":-1.606400728225708,"2057":1.6106542348861694,"2058":1.6827601194381714,"2059":1.5333338975906372,"2060":-0.9111679792404175,"2061":0.8782517313957214,"2062":0.7322622537612915,"2063":-1.2256876230239868,"2064":-1.3487796783447266,"2065":0.8960586190223694,"2066":-1.1426351070404053,"2067":-1.7130422592163086,"2068":-1.783825397491455,"2069":-1.69729745388031,"2070":1.6286898851394653,"2071":-1.9980213642120361,"2072":1.4463692903518677,"2073":1.7474285364151,"2074":1.6183940172195435,"2075":1.3327924013137817,"2076":-1.3757230043411255,"2077":1.0082058906555176,"2078":1.2764142751693726,"2079":2.447239398956299,"2080":-1.808890700340271,"2081":-1.9404408931732178,"2082":-1.0169206857681274,"2083":-1.898651361465454,"2084":1.8171026706695557,"2085":0.8320214152336121,"2086":1.4425876140594482,"2087":1.1235718727111816,"2088":1.5501497983932495,"2089":2.0923349857330322,"2090":2.1955602169036865,"2091":0.9539855718612671,"2092":1.2329174280166626,"2093":-1.239991307258606,"2094":2.1446027755737305,"2095":-0.3065195381641388,"2096":1.5322318077087402,"2097":1.5664315223693848,"2098":1.1626900434494019,"2099":2.0229439735412598,"2100":-1.1402641534805298,"2101":1.5949952602386475,"2102":1.178199052810669,"2103":1.0988836288452148,"2104":-1.5966920852661133,"2105":-1.4239561557769775,"2106":-0.8984823226928711,"2107":-1.1203081607818604,"2108":2.7762410640716553,"2109":-2.0218801498413086,"2110":-1.588929295539856,"2111":-2.0986123085021973,"2112":1.0529489517211914,"2113":-1.5949912071228027,"2114":1.4316867589950562,"2115":-0.008816397748887539,"2116":-2.3349380493164062,"2117":0.464863657951355,"2118":0.2746611535549164,"2119":-1.7607338428497314,"2120":-0.7450610399246216,"2121":-0.055183637887239456,"2122":0.4594505727291107,"2123":-0.822666585445404,"2124":0.6700013875961304,"2125":-0.1234666109085083,"2126":1.6185002326965332,"2127":0.2898501753807068,"2128":-0.9377627372741699,"2129":-0.33555498719215393,"2130":0.3345860242843628,"2131":1.0356216430664062,"2132":-0.4588772654533386,"2133":-2.521749258041382,"2134":-1.4780055284500122,"2135":-2.4662258625030518,"2136":0.15880990028381348,"2137":0.6179137825965881,"2138":0.06172054633498192,"2139":-0.1651429533958435,"2140":-0.42828047275543213,"2141":0.3598833978176117,"2142":1.1590464115142822,"2143":-1.378229022026062,"2144":-0.3169979155063629,"2145":-1.4248992204666138,"2146":-0.3269249498844147,"2147":0.773137629032135,"2148":0.899400532245636,"2149":0.6776983737945557,"2150":-0.9928418397903442,"2151":-0.07094606757164001,"2152":-0.8139408826828003,"2153":0.1173490658402443,"2154":-0.828629732131958,"2155":1.7728984355926514,"2156":-0.37067487835884094,"2157":-0.2172481268644333,"2158":-0.31613045930862427,"2159":-0.021770529448986053,"2160":0.0019069536356255412,"2161":0.8250974416732788,"2162":0.21861115097999573,"2163":-0.6377550959587097,"2164":-0.5645981431007385,"2165":1.0450383424758911,"2166":-0.5283384919166565,"2167":-0.6597219705581665,"2168":-0.5094802975654602,"2169":-0.5648592114448547,"2170":-0.11574836075305939,"2171":0.7650011777877808,"2172":-0.6048814058303833,"2173":-0.24736453592777252,"2174":-0.3198099434375763,"2175":0.15497764945030212,"2176":0.07041449844837189,"2177":0.8645680546760559,"2178":1.0025098323822021,"2179":-0.7642269730567932,"2180":0.16839885711669922,"2181":-0.4245458245277405,"2182":-1.3255062103271484,"2183":-0.546317994594574,"2184":0.2638397812843323,"2185":-0.47290554642677307,"2186":0.8094793558120728,"2187":0.6618852615356445,"2188":0.8050772547721863,"2189":0.7433112263679504,"2190":-0.4990974962711334,"2191":-0.6834355592727661,"2192":-1.2084755897521973,"2193":-0.4695201814174652,"2194":-0.7377750873565674,"2195":-0.1392539143562317,"2196":-0.05606395751237869,"2197":-0.6420178413391113,"2198":-0.18952910602092743,"2199":0.08054351806640625,"2200":0.6343724727630615,"2201":-0.6699238419532776,"2202":0.03153819963335991,"2203":0.05721127614378929,"2204":-0.9391424059867859,"2205":0.7635409832000732,"2206":0.804410457611084,"2207":-0.3444298803806305,"2208":-0.12486116588115692,"2209":0.0744505524635315,"2210":0.058428969234228134,"2211":-0.0011053620837628841,"2212":0.0326596237719059,"2213":0.030604196712374687,"2214":0.05221942067146301,"2215":0.031467292457818985,"2216":0.057848215103149414,"2217":-0.009442669339478016,"2218":0.07920365035533905,"2219":-0.004483588971197605,"2220":0.007420470472425222,"2221":-0.05106703191995621,"2222":-0.05588052421808243,"2223":-0.03851881995797157,"2224":-0.025812307372689247,"2225":0.07843475788831711,"2226":0.06259886175394058,"2227":-0.07214509695768356,"2228":-0.04686889424920082,"2229":-0.0544811487197876,"2230":-0.06744015961885452,"2231":-0.015015991404652596,"2232":-0.05397916957736015,"2233":0.053894996643066406,"2234":0.011798713356256485,"2235":-0.07597369700670242,"2236":0.06997963786125183,"2237":0.06942020356655121,"2238":-0.03513296693563461,"2239":0.01194242388010025,"2240":-0.05659855157136917,"2241":-0.0038094783667474985,"2242":-0.015234790742397308,"2243":0.037101153284311295,"2244":0.047034211456775665,"2245":-0.058103516697883606,"2246":0.07320491224527359,"2247":-0.029026569798588753,"2248":-0.005011518020182848,"2249":-0.01719074696302414,"2250":-0.03550921753048897,"2251":-0.06413865834474564,"2252":-0.07687878608703613,"2253":-0.006618608720600605,"2254":-0.04643090069293976,"2255":-0.010644689202308655}},"hiddenLayers":[{"inputMatrix":{"rows":20,"columns":47,"weights":{"0":-0.6345480680465698,"1":0.3657517433166504,"2":0.4668384790420532,"3":1.2122337818145752,"4":0.8954740762710571,"5":0.5678430795669556,"6":0.3768567740917206,"7":1.488722562789917,"8":-1.3630247116088867,"9":1.063841700553894,"10":-0.43881750106811523,"11":-0.7977025508880615,"12":1.522060751914978,"13":0.5786328315734863,"14":-0.6746689677238464,"15":0.5562947392463684,"16":0.15361104905605316,"17":0.6746617555618286,"18":0.2923794090747833,"19":0.11999417096376419,"20":1.5397170782089233,"21":0.5356967449188232,"22":-0.48898303508758545,"23":0.8280386924743652,"24":-0.38529783487319946,"25":-1.1256016492843628,"26":-0.6679882407188416,"27":-0.4365670680999756,"28":0.8458409905433655,"29":0.4532672166824341,"30":1.6247107982635498,"31":-1.5380454063415527,"32":-0.3100353479385376,"33":1.1862694025039673,"34":0.7327073216438293,"35":0.4871874451637268,"36":-0.30978652834892273,"37":-0.638847291469574,"38":-1.0644413232803345,"39":0.9796569347381592,"40":-0.49285757541656494,"41":-0.5358158349990845,"42":1.8315324783325195,"43":0.19963595271110535,"44":-0.7319915890693665,"45":0.501961350440979,"46":0.26896968483924866,"47":-0.4113774001598358,"48":-0.5526944398880005,"49":0.3154428005218506,"50":1.2039655447006226,"51":0.04002315551042557,"52":-0.002639753045514226,"53":0.39837151765823364,"54":1.7722580432891846,"55":-1.8896766901016235,"56":1.252030849456787,"57":-0.43660762906074524,"58":1.0523697137832642,"59":0.24817432463169098,"60":-0.04536253213882446,"61":-0.7913370728492737,"62":0.6824105381965637,"63":1.3274892568588257,"64":1.0472793579101562,"65":-1.2890151739120483,"66":-0.34003910422325134,"67":0.2541952431201935,"68":0.4777962565422058,"69":-0.01880047470331192,"70":1.0505924224853516,"71":-0.27202412486076355,"72":-1.483651876449585,"73":-0.8650628328323364,"74":0.4650178551673889,"75":0.041635431349277496,"76":0.012055587023496628,"77":0.40756291151046753,"78":-0.5914299488067627,"79":0.8642526865005493,"80":1.7855509519577026,"81":1.1631660461425781,"82":-0.40557631850242615,"83":-0.07397928088903427,"84":-0.08416307717561722,"85":-0.9686997532844543,"86":0.34183269739151,"87":0.26578378677368164,"88":-0.36442652344703674,"89":0.7193815112113953,"90":0.16258938610553741,"91":-0.6840766668319702,"92":0.4681509733200073,"93":0.13014668226242065,"94":0.3075580298900604,"95":-1.5286946296691895,"96":-0.20522557199001312,"97":-0.532579243183136,"98":0.2543146312236786,"99":-0.6237329840660095,"100":-0.5422064065933228,"101":-0.6560473442077637,"102":0.48214808106422424,"103":-0.3226284086704254,"104":0.9736639261245728,"105":0.6515313982963562,"106":-0.26935940980911255,"107":-1.4793510437011719,"108":0.1522923707962036,"109":-0.4349219501018524,"110":-0.34355446696281433,"111":-0.04024248942732811,"112":0.5488793253898621,"113":-1.0551104545593262,"114":0.3000335097312927,"115":-0.5191881060600281,"116":0.6673261523246765,"117":-0.400395929813385,"118":1.0990948677062988,"119":0.10323748737573624,"120":0.33859628438949585,"121":0.9980821013450623,"122":0.4647085964679718,"123":-0.5511475801467896,"124":-0.5425695776939392,"125":0.8349329829216003,"126":0.6503824591636658,"127":0.12270065397024155,"128":-0.10305018723011017,"129":-0.8277947902679443,"130":0.38737785816192627,"131":-0.19135943055152893,"132":0.7355076670646667,"133":-0.7057937979698181,"134":1.7216823101043701,"135":0.7192286849021912,"136":-0.8865100145339966,"137":-1.2941920757293701,"138":0.29162171483039856,"139":-0.7594599723815918,"140":-1.3921608924865723,"141":2.210638999938965,"142":-1.139072060585022,"143":-1.4676027297973633,"144":-0.17078877985477448,"145":-0.8574124574661255,"146":-1.7107704877853394,"147":-0.07492837309837341,"148":0.12721216678619385,"149":-0.2823781967163086,"150":-0.45273011922836304,"151":0.7461603283882141,"152":1.1545439958572388,"153":1.119531273841858,"154":-0.8346091508865356,"155":-0.04643506556749344,"156":-0.3233240246772766,"157":-1.5748382806777954,"158":-0.17469067871570587,"159":-1.4355072975158691,"160":-0.8374539613723755,"161":0.8675480484962463,"162":-1.6256153583526611,"163":0.27851542830467224,"164":-0.1264817863702774,"165":0.8083996772766113,"166":-0.04176437482237816,"167":-0.5818101167678833,"168":0.32647958397865295,"169":-0.843833327293396,"170":-0.5241937637329102,"171":0.5845273733139038,"172":-0.9288182854652405,"173":1.5482094287872314,"174":-1.3932923078536987,"175":0.044058576226234436,"176":-0.7990054488182068,"177":0.01985330320894718,"178":1.058251976966858,"179":0.10321008414030075,"180":-0.7210970520973206,"181":1.3713258504867554,"182":0.5215914845466614,"183":1.0184235572814941,"184":-1.0830178260803223,"185":-0.4009177088737488,"186":-0.8577130436897278,"187":-1.1775060892105103,"188":0.2451270967721939,"189":-0.0379549041390419,"190":-0.4635923206806183,"191":0.14916343986988068,"192":-0.6456711888313293,"193":-0.03202412649989128,"194":-1.7672260999679565,"195":-0.1375780999660492,"196":0.12571288645267487,"197":0.0013157030334696174,"198":0.5113229751586914,"199":1.656416893005371,"200":1.5003377199172974,"201":-0.1364251971244812,"202":0.7005529403686523,"203":-0.18400458991527557,"204":-0.06938162446022034,"205":-0.12473451346158981,"206":-1.305726408958435,"207":-1.2784593105316162,"208":-0.731157660484314,"209":-0.40009987354278564,"210":0.22558949887752533,"211":-0.44332757592201233,"212":0.9320833086967468,"213":0.03800879046320915,"214":-0.45074713230133057,"215":0.9475535750389099,"216":-0.48384615778923035,"217":-1.8352742195129395,"218":-0.17125853896141052,"219":0.30979225039482117,"220":1.3342204093933105,"221":0.0818525180220604,"222":0.10027904808521271,"223":-0.9520091414451599,"224":1.6727505922317505,"225":0.4147912263870239,"226":0.2240714132785797,"227":0.010428515262901783,"228":-0.16690704226493835,"229":0.5560892820358276,"230":-0.07522985339164734,"231":0.18097376823425293,"232":0.45001477003097534,"233":-0.6513890624046326,"234":-0.752500593662262,"235":-0.5924937129020691,"236":-0.6797850728034973,"237":0.09447570890188217,"238":-0.11429189890623093,"239":-1.3977394104003906,"240":-0.540677011013031,"241":0.43729618191719055,"242":0.3799516260623932,"243":-0.6556599736213684,"244":-0.6885940432548523,"245":0.8193294405937195,"246":1.7604584693908691,"247":1.4721615314483643,"248":-0.4610115885734558,"249":0.8435611724853516,"250":-0.20848695933818817,"251":0.47770437598228455,"252":-0.21835874021053314,"253":-2.4265944957733154,"254":-1.4783457517623901,"255":-0.16761526465415955,"256":1.0227000713348389,"257":1.1989402770996094,"258":-0.06868061423301697,"259":-0.14022469520568848,"260":-0.4765513837337494,"261":0.28669729828834534,"262":0.5402196049690247,"263":-1.3772989511489868,"264":0.2391134649515152,"265":0.42077261209487915,"266":0.5438022613525391,"267":1.1165791749954224,"268":0.5772720575332642,"269":0.49707067012786865,"270":-0.2356843799352646,"271":0.463752418756485,"272":0.02517099864780903,"273":0.12975788116455078,"274":-0.48970872163772583,"275":0.0807838886976242,"276":-0.8900349736213684,"277":-0.2961926758289337,"278":-0.2927300035953522,"279":0.5224654674530029,"280":0.11366279423236847,"281":-0.1296883374452591,"282":0.435336172580719,"283":0.8127177357673645,"284":-0.38408344984054565,"285":1.4645189046859741,"286":0.37240564823150635,"287":0.2605668008327484,"288":-0.6938338875770569,"289":0.7415655255317688,"290":-0.6118374466896057,"291":1.2103829383850098,"292":-0.11676251143217087,"293":-0.20441924035549164,"294":1.1012908220291138,"295":0.16013041138648987,"296":-2.303194046020508,"297":1.4556055068969727,"298":-0.4548530876636505,"299":1.690231442451477,"300":-0.5158690810203552,"301":-0.16522528231143951,"302":-0.0744996890425682,"303":-0.6337634921073914,"304":-0.009367917664349079,"305":1.9312456846237183,"306":0.0653233453631401,"307":-1.0301692485809326,"308":-2.3504679203033447,"309":0.22988775372505188,"310":0.21769776940345764,"311":-0.4891090393066406,"312":0.7838775515556335,"313":-1.809794545173645,"314":0.5225977897644043,"315":-0.5180590152740479,"316":1.0901050567626953,"317":0.29475152492523193,"318":0.34232720732688904,"319":0.20896844565868378,"320":-1.3588008880615234,"321":0.2059207707643509,"322":-0.28294622898101807,"323":0.7566739916801453,"324":1.8300468921661377,"325":0.7077086567878723,"326":-0.11869151145219803,"327":-0.02503400482237339,"328":-0.3173358738422394,"329":-0.08970831334590912,"330":1.0971180200576782,"331":-0.11270330101251602,"332":0.41595613956451416,"333":1.3082435131072998,"334":0.3900899887084961,"335":0.0440327525138855,"336":-0.29590505361557007,"337":0.9883823990821838,"338":0.6764057874679565,"339":-1.2543319463729858,"340":-2.3741447925567627,"341":-3.4318649768829346,"342":1.4052400588989258,"343":-0.3766574561595917,"344":0.6784580945968628,"345":0.5612651109695435,"346":0.7239124178886414,"347":1.07420015335083,"348":1.1606990098953247,"349":-0.9962809681892395,"350":0.16284571588039398,"351":-0.9200676083564758,"352":0.36282509565353394,"353":-0.43582215905189514,"354":-0.019885016605257988,"355":-0.5789065957069397,"356":-0.502787172794342,"357":1.4789750576019287,"358":0.24049973487854004,"359":-0.3862467110157013,"360":-0.35863131284713745,"361":-0.8298692107200623,"362":0.3322528302669525,"363":0.1897679567337036,"364":1.2834337949752808,"365":-0.09071659296751022,"366":-0.7716065645217896,"367":-0.6016643643379211,"368":0.17396751046180725,"369":-1.5745525360107422,"370":-0.7511863708496094,"371":-0.197515070438385,"372":1.071218490600586,"373":-0.08323130756616592,"374":-0.1046886146068573,"375":1.6564786434173584,"376":1.3239071369171143,"377":-1.3344054222106934,"378":-0.8907577395439148,"379":-0.052471823990345,"380":0.07747864723205566,"381":-0.39705273509025574,"382":-0.32021450996398926,"383":0.09048979729413986,"384":0.06924740970134735,"385":-0.13569886982440948,"386":1.6873376369476318,"387":1.5421839952468872,"388":-0.07340967655181885,"389":-1.556233286857605,"390":0.17380288243293762,"391":-0.1500365436077118,"392":-1.0336247682571411,"393":0.059247441589832306,"394":0.2998608648777008,"395":-0.4726707935333252,"396":-0.32449984550476074,"397":-0.9312668442726135,"398":1.390320897102356,"399":-0.15325941145420074,"400":0.8576304912567139,"401":-0.15868617594242096,"402":-0.06864527612924576,"403":0.8763853907585144,"404":-0.022249089553952217,"405":-0.7138385772705078,"406":-0.10256285220384598,"407":0.26212069392204285,"408":1.5482722520828247,"409":-0.9177286624908447,"410":-0.025189029052853584,"411":-0.5435535907745361,"412":0.019751258194446564,"413":0.7636707425117493,"414":0.03959115594625473,"415":-0.9878506660461426,"416":1.5879731178283691,"417":0.7805262207984924,"418":-0.16113008558750153,"419":-1.4759043455123901,"420":0.17121386528015137,"421":-1.2645479440689087,"422":-0.9269647598266602,"423":-0.4515979290008545,"424":0.420405775308609,"425":-0.06361489742994308,"426":0.9309773445129395,"427":0.9406052827835083,"428":0.8676668405532837,"429":0.22817833721637726,"430":1.5568675994873047,"431":-1.5249710083007812,"432":1.2117435932159424,"433":-0.4954448640346527,"434":-0.15677639842033386,"435":0.701919436454773,"436":0.47230687737464905,"437":-0.5562830567359924,"438":0.04733361303806305,"439":0.7110182642936707,"440":-0.13468317687511444,"441":-0.3218742311000824,"442":0.26236698031425476,"443":1.1803537607192993,"444":0.45717382431030273,"445":0.2177828997373581,"446":0.2711145877838135,"447":-0.007151358295232058,"448":-0.6219273209571838,"449":-0.5586606860160828,"450":-0.38027334213256836,"451":1.1798949241638184,"452":0.25129464268684387,"453":0.28482967615127563,"454":-0.2662979066371918,"455":-0.29232528805732727,"456":0.9489215016365051,"457":0.2663774788379669,"458":-0.2973327934741974,"459":-0.14020861685276031,"460":0.4822487235069275,"461":-1.0876147747039795,"462":1.1236711740493774,"463":-0.8987151384353638,"464":-1.0252442359924316,"465":0.8746337890625,"466":0.5960701704025269,"467":-0.7231425046920776,"468":0.10629896819591522,"469":0.14096032083034515,"470":-0.35166606307029724,"471":-0.8596606850624084,"472":0.28488782048225403,"473":0.013770864345133305,"474":0.12939366698265076,"475":0.7092811465263367,"476":-1.4651981592178345,"477":-0.23024296760559082,"478":-0.3099988102912903,"479":-0.002324984408915043,"480":-0.003453898476436734,"481":0.987128734588623,"482":-0.9368908405303955,"483":-1.6082909107208252,"484":-0.22060362994670868,"485":-0.3476257622241974,"486":0.917900025844574,"487":-1.059704065322876,"488":0.11207859218120575,"489":-0.04986174777150154,"490":-1.1612181663513184,"491":-0.14137837290763855,"492":0.6334548592567444,"493":-0.3720722198486328,"494":1.3968995809555054,"495":-0.04138992354273796,"496":0.3597107231616974,"497":1.5152888298034668,"498":-0.35073184967041016,"499":-1.745474934577942,"500":-2.3887383937835693,"501":1.0824412107467651,"502":0.2607133388519287,"503":0.48140549659729004,"504":-0.49493980407714844,"505":-1.0355644226074219,"506":0.4295991063117981,"507":-0.20932072401046753,"508":0.12564265727996826,"509":0.1459483653306961,"510":0.9074400663375854,"511":0.10132491588592529,"512":-0.5815361738204956,"513":0.2767166793346405,"514":1.4950562715530396,"515":-1.3709527254104614,"516":-0.6302788853645325,"517":-0.48104938864707947,"518":0.7774176001548767,"519":-0.47790950536727905,"520":-1.489097237586975,"521":-0.08408854156732559,"522":-0.3432827591896057,"523":-0.41164761781692505,"524":-1.250223994255066,"525":2.204594612121582,"526":-1.4359347820281982,"527":0.4477187395095825,"528":-0.7799974679946899,"529":-0.5854566693305969,"530":-0.13147325813770294,"531":0.08360467851161957,"532":-1.2923929691314697,"533":-1.0691771507263184,"534":0.13718150556087494,"535":0.013682671822607517,"536":0.1626928597688675,"537":-0.75521320104599,"538":-0.2969588339328766,"539":0.11828312277793884,"540":-0.28694021701812744,"541":-0.29820626974105835,"542":0.46627557277679443,"543":0.004334151279181242,"544":-1.0361486673355103,"545":-0.39942458271980286,"546":0.5864267349243164,"547":0.2537824511528015,"548":1.6703965663909912,"549":-0.2374805212020874,"550":-1.4833515882492065,"551":-0.4063143730163574,"552":1.0651782751083374,"553":0.24130235612392426,"554":0.17870214581489563,"555":0.7266796231269836,"556":-0.7143386006355286,"557":-0.6846590042114258,"558":0.36221274733543396,"559":-0.6572229862213135,"560":-0.3540121912956238,"561":0.6516576409339905,"562":0.3053593635559082,"563":-0.6172049641609192,"564":-0.8733412623405457,"565":0.43298256397247314,"566":0.6927583813667297,"567":1.141657829284668,"568":0.7636293768882751,"569":1.474783182144165,"570":0.3668311536312103,"571":1.7258689403533936,"572":-1.7255465984344482,"573":0.9958341121673584,"574":-0.6984469890594482,"575":0.026101017370820045,"576":0.8684184551239014,"577":0.5346624255180359,"578":-0.3158155083656311,"579":0.2875056862831116,"580":1.1732513904571533,"581":0.2215881645679474,"582":0.40088680386543274,"583":0.7672584056854248,"584":0.8776650428771973,"585":1.004009485244751,"586":-0.19232001900672913,"587":0.41002658009529114,"588":-0.2320520132780075,"589":-0.8353788256645203,"590":-0.29233232140541077,"591":-0.20498184859752655,"592":0.7756639719009399,"593":0.07713579386472702,"594":0.48841893672943115,"595":-0.5350102782249451,"596":-0.4398661255836487,"597":0.713046133518219,"598":0.5621820688247681,"599":0.37948840856552124,"600":-0.49922433495521545,"601":-0.1646432876586914,"602":-0.6336507201194763,"603":1.6231375932693481,"604":-0.785336971282959,"605":-0.6438521146774292,"606":1.0539389848709106,"607":0.9749685525894165,"608":-1.260538935661316,"609":0.5651055574417114,"610":0.5100223422050476,"611":1.1157913208007812,"612":-0.24719201028347015,"613":-0.38851186633110046,"614":0.8360471129417419,"615":-0.09873692691326141,"616":-0.06078999117016792,"617":-0.9932665824890137,"618":0.5859386324882507,"619":-0.7875443696975708,"620":0.8258392214775085,"621":0.778386652469635,"622":1.064009666442871,"623":0.32572558522224426,"624":-0.15711523592472076,"625":-0.7680627703666687,"626":1.1936490535736084,"627":-0.44710785150527954,"628":0.4044543504714966,"629":-0.6440381407737732,"630":-0.3244223892688751,"631":-0.8991908431053162,"632":-0.740229070186615,"633":0.8004810810089111,"634":0.729985773563385,"635":1.1862308979034424,"636":-0.6823334097862244,"637":-0.6469866633415222,"638":0.4427419602870941,"639":-0.28756481409072876,"640":-0.9121847152709961,"641":-0.4092288613319397,"642":-0.6226991415023804,"643":0.6675256490707397,"644":-0.6852185130119324,"645":0.3151186406612396,"646":-0.2060319036245346,"647":0.5300019979476929,"648":0.29374146461486816,"649":-0.7547200918197632,"650":-0.3627872169017792,"651":0.6607402563095093,"652":1.1199429035186768,"653":0.49622413516044617,"654":-0.6356174945831299,"655":0.3476336896419525,"656":-0.5759747624397278,"657":-0.24720552563667297,"658":0.11076848208904266,"659":-0.1268726885318756,"660":0.11224272102117538,"661":1.2713429927825928,"662":0.3311918079853058,"663":0.46121394634246826,"664":-0.09055345505475998,"665":1.3001582622528076,"666":-1.4214704036712646,"667":1.0873836278915405,"668":0.3995099365711212,"669":1.2787195444107056,"670":0.40623387694358826,"671":-0.35127002000808716,"672":-0.8174938559532166,"673":1.3592036962509155,"674":1.137474536895752,"675":0.8889719843864441,"676":-1.8353919982910156,"677":0.19456860423088074,"678":-0.08713942766189575,"679":0.010569293983280659,"680":0.9546550512313843,"681":1.3558454513549805,"682":0.11054070293903351,"683":-1.3474459648132324,"684":-0.8538545370101929,"685":0.33413684368133545,"686":0.09912163764238358,"687":-0.026196662336587906,"688":0.5923178791999817,"689":-0.5938146710395813,"690":0.6470968723297119,"691":0.7975051403045654,"692":1.3900948762893677,"693":0.17107662558555603,"694":0.6799206137657166,"695":-0.12773726880550385,"696":-0.8950991630554199,"697":0.15109902620315552,"698":0.1681322157382965,"699":0.11543190479278564,"700":0.6791666746139526,"701":-0.06684596091508865,"702":-0.030982084572315216,"703":-0.1759643852710724,"704":-0.3063613474369049,"705":-0.8490841388702393,"706":-0.3799286186695099,"707":0.6209551692008972,"708":0.8166226148605347,"709":0.44940873980522156,"710":0.14047090709209442,"711":0.22955703735351562,"712":1.8551782369613647,"713":-1.9442368745803833,"714":0.36309775710105896,"715":-0.7490407824516296,"716":0.700347363948822,"717":0.931896984577179,"718":0.11788430064916611,"719":-0.5275114178657532,"720":-0.24622642993927002,"721":1.057788372039795,"722":0.7172495126724243,"723":-0.8497655391693115,"724":-0.3840073049068451,"725":1.4096877574920654,"726":0.7140320539474487,"727":-0.43608278036117554,"728":0.43407270312309265,"729":-0.19464579224586487,"730":-1.276851773262024,"731":-0.7885607481002808,"732":0.7113248705863953,"733":1.3253909349441528,"734":-0.04754738137125969,"735":0.22407394647598267,"736":-0.1696314960718155,"737":0.40361201763153076,"738":1.5158442258834839,"739":0.9052788615226746,"740":-0.5905036926269531,"741":-0.5358515381813049,"742":-0.8370445966720581,"743":-0.4814131557941437,"744":1.2465358972549438,"745":-0.05583605542778969,"746":-1.1582093238830566,"747":0.6450105905532837,"748":0.4717741906642914,"749":-1.6755741834640503,"750":0.008964388631284237,"751":0.6482642292976379,"752":-0.06425351649522781,"753":-0.4428037703037262,"754":-0.17768846452236176,"755":1.1978057622909546,"756":0.9220858216285706,"757":0.7224539518356323,"758":-0.48159247636795044,"759":0.5729140639305115,"760":-0.7592264413833618,"761":1.248594045639038,"762":-0.22369737923145294,"763":0.5272205471992493,"764":0.9091031551361084,"765":-0.9455883502960205,"766":-0.5229557752609253,"767":1.0833698511123657,"768":0.972473680973053,"769":0.809123158454895,"770":-1.653014063835144,"771":0.07100499421358109,"772":0.4644600450992584,"773":-0.15994882583618164,"774":0.39917585253715515,"775":1.1627302169799805,"776":0.7895607948303223,"777":-0.9578092098236084,"778":-0.7194979786872864,"779":0.514233410358429,"780":0.4463997185230255,"781":-0.5308257937431335,"782":0.396565318107605,"783":-0.5099920034408569,"784":0.1067696362733841,"785":1.6914432048797607,"786":1.1983389854431152,"787":0.32063233852386475,"788":0.5413930416107178,"789":-0.2828105390071869,"790":-1.026850938796997,"791":0.48058390617370605,"792":-0.3668555021286011,"793":-0.2158026546239853,"794":-0.34137076139450073,"795":0.7408900856971741,"796":0.20488612353801727,"797":-0.9248476624488831,"798":0.03223012387752533,"799":0.2186407446861267,"800":-0.22980420291423798,"801":-0.3449386954307556,"802":-0.7762836217880249,"803":-0.8088595271110535,"804":-0.8260986804962158,"805":-0.42673543095588684,"806":-1.6172850131988525,"807":1.4272658824920654,"808":-0.7900122404098511,"809":1.4133344888687134,"810":-0.29517102241516113,"811":-1.076491117477417,"812":-0.372113972902298,"813":0.6311736702919006,"814":0.2096167355775833,"815":-1.2820326089859009,"816":-0.47020599246025085,"817":0.35510197281837463,"818":0.1867721527814865,"819":-1.4306482076644897,"820":-0.44501057267189026,"821":0.7912905216217041,"822":-0.9800379276275635,"823":-0.019427450373768806,"824":1.2163946628570557,"825":1.261954665184021,"826":-0.025514014065265656,"827":-1.0610967874526978,"828":-0.04838578402996063,"829":-0.3082554042339325,"830":0.4820984899997711,"831":0.21537265181541443,"832":-0.920569658279419,"833":-0.660993218421936,"834":-0.365614652633667,"835":0.6587163209915161,"836":0.36838746070861816,"837":0.7374672293663025,"838":-1.817589282989502,"839":0.17475666105747223,"840":0.7918403148651123,"841":-1.5433437824249268,"842":-0.8456599116325378,"843":1.2534130811691284,"844":-0.7148419618606567,"845":-0.540950357913971,"846":0.6057689189910889,"847":-0.8043661117553711,"848":-0.2986997365951538,"849":-1.0951645374298096,"850":-0.826180636882782,"851":-1.1849027872085571,"852":0.2732751667499542,"853":-0.711341142654419,"854":0.8532933592796326,"855":-0.9611430168151855,"856":1.1346029043197632,"857":0.47767433524131775,"858":-0.6693520545959473,"859":-0.5277742147445679,"860":0.6445397138595581,"861":-0.39222797751426697,"862":-0.8528827428817749,"863":0.15094737708568573,"864":0.21779640018939972,"865":-0.022032668814063072,"866":-0.7951774597167969,"867":-0.33826640248298645,"868":0.7618141770362854,"869":-0.34311947226524353,"870":-0.02622881345450878,"871":0.39318519830703735,"872":0.5656845569610596,"873":-0.16284909844398499,"874":-0.4733695089817047,"875":0.17378811538219452,"876":-0.15498162806034088,"877":0.34247609972953796,"878":0.4604489505290985,"879":-1.0775890350341797,"880":-0.048289667814970016,"881":0.2663000822067261,"882":-0.3675316870212555,"883":-0.25618788599967957,"884":0.7464077472686768,"885":-1.790013313293457,"886":1.1570205688476562,"887":0.6947680711746216,"888":-0.8639171719551086,"889":-1.2672547101974487,"890":1.0447897911071777,"891":-0.6281036734580994,"892":-0.08137916028499603,"893":0.6910520195960999,"894":-0.2789105772972107,"895":-0.7261567711830139,"896":1.0654548406600952,"897":-0.11462175846099854,"898":0.014203404076397419,"899":-0.8694753050804138,"900":0.42646118998527527,"901":-0.47096386551856995,"902":1.238672137260437,"903":0.32053062319755554,"904":1.0647687911987305,"905":-0.12055162340402603,"906":-0.24757084250450134,"907":-1.3331509828567505,"908":1.137596607208252,"909":0.22972191870212555,"910":0.8452848196029663,"911":-0.9452083706855774,"912":-0.19860166311264038,"913":-1.0768340826034546,"914":-0.7335494756698608,"915":0.46757134795188904,"916":0.9961771368980408,"917":0.963408887386322,"918":-0.7200961112976074,"919":-1.1144212484359741,"920":0.4814932942390442,"921":-0.34646153450012207,"922":-1.0871655941009521,"923":-0.3809020221233368,"924":-0.8679330945014954,"925":0.7704166173934937,"926":-0.25115203857421875,"927":0.6802970767021179,"928":-0.17143115401268005,"929":0.4991947114467621,"930":0.5559485554695129,"931":-1.0353350639343262,"932":-0.30553990602493286,"933":0.1529243141412735,"934":0.6922497153282166,"935":0.47330954670906067,"936":-0.06027941033244133,"937":0.6151449680328369,"938":-0.7662570476531982,"939":-0.2842632234096527}},"inputHidden":{"rows":20,"columns":20,"weights":{"0":-0.3695092499256134,"1":-0.28877314925193787,"2":0.25695908069610596,"3":-0.2860267460346222,"4":-0.4309922456741333,"5":0.9125450849533081,"6":-0.021762341260910034,"7":-0.23886670172214508,"8":0.017168821766972542,"9":-0.04394638538360596,"10":0.8383485078811646,"11":0.19006915390491486,"12":0.8424979448318481,"13":0.035781390964984894,"14":0.22169344127178192,"15":0.5335062742233276,"16":-0.5636149644851685,"17":0.2437780350446701,"18":0.4376409649848938,"19":-0.17778365314006805,"20":0.4459817707538605,"21":-0.579820990562439,"22":-0.3594937026500702,"23":-0.55135178565979,"24":-0.026195136830210686,"25":0.5383620262145996,"26":0.057525016367435455,"27":0.47515594959259033,"28":0.23773208260536194,"29":-0.042718466371297836,"30":-0.6273645162582397,"31":-0.29736605286598206,"32":0.37990736961364746,"33":0.2074960619211197,"34":0.013066403567790985,"35":-0.5505656599998474,"36":0.6211950778961182,"37":-1.0135128498077393,"38":-0.36731287837028503,"39":1.1325743198394775,"40":1.0180811882019043,"41":0.21782349050045013,"42":0.2566910684108734,"43":-0.7167149782180786,"44":0.0870874896645546,"45":0.3255822956562042,"46":-0.09920540452003479,"47":-0.07392910122871399,"48":0.28529250621795654,"49":-0.10946682840585709,"50":-0.4429589509963989,"51":-0.03346196934580803,"52":0.6433665156364441,"53":-0.04094748571515083,"54":0.2500571310520172,"55":-0.7957914471626282,"56":-0.25612345337867737,"57":-0.05182979628443718,"58":0.24182100594043732,"59":-0.4303094744682312,"60":-0.6179333329200745,"61":-0.0067604719661176205,"62":-0.5330505967140198,"63":0.5051453113555908,"64":-0.7344491481781006,"65":1.3551032543182373,"66":-1.4456429481506348,"67":0.5977609753608704,"68":0.9502208232879639,"69":-0.3550751507282257,"70":-0.3477226495742798,"71":-0.38622018694877625,"72":-0.3681867718696594,"73":2.2614989280700684,"74":-0.9430682063102722,"75":0.31107139587402344,"76":-0.5731927752494812,"77":-0.7386053800582886,"78":-0.4505314826965332,"79":0.7837814092636108,"80":0.25194528698921204,"81":0.7089686393737793,"82":0.378656804561615,"83":0.042173806577920914,"84":0.47082024812698364,"85":-0.5652834177017212,"86":0.7490981817245483,"87":0.054289963096380234,"88":1.228785753250122,"89":0.10159144550561905,"90":-0.8235509991645813,"91":0.1547086089849472,"92":1.2534033060073853,"93":-0.2951142191886902,"94":-0.325065016746521,"95":-0.6156578063964844,"96":0.211688831448555,"97":-0.15817807614803314,"98":-0.492391973733902,"99":-0.8457395434379578,"100":0.8188891410827637,"101":0.7624936699867249,"102":-1.044662594795227,"103":0.9148472547531128,"104":0.30388909578323364,"105":-0.4417344033718109,"106":0.8570625185966492,"107":2.3591535091400146,"108":1.470009207725525,"109":0.29667505621910095,"110":-0.46361514925956726,"111":-0.08520590513944626,"112":1.3681343793869019,"113":0.09364130347967148,"114":-0.8963032960891724,"115":-1.5400068759918213,"116":-0.6619426012039185,"117":-1.827764630317688,"118":-2.0445713996887207,"119":0.36701902747154236,"120":0.6870943903923035,"121":-0.2224922478199005,"122":-0.937167227268219,"123":0.30158478021621704,"124":-0.7720656991004944,"125":0.5340011119842529,"126":0.7753881812095642,"127":-0.024887748062610626,"128":-0.1754017323255539,"129":0.09786947071552277,"130":-0.1385391801595688,"131":-0.21992889046669006,"132":-0.34347736835479736,"133":2.057842254638672,"134":-0.17328302562236786,"135":-0.2619975507259369,"136":0.7463552951812744,"137":-0.2921799123287201,"138":-0.3149671256542206,"139":0.16847971081733704,"140":-0.4667838513851166,"141":0.3439086675643921,"142":-0.15030090510845184,"143":-0.10010186582803726,"144":0.21263161301612854,"145":0.532395601272583,"146":-1.24150812625885,"147":-0.41713255643844604,"148":-0.009762486442923546,"149":-0.31515827775001526,"150":1.1533167362213135,"151":0.09547780454158783,"152":-0.8088880181312561,"153":-0.2680894136428833,"154":-0.7792649269104004,"155":0.9605488777160645,"156":-1.076621651649475,"157":0.8660509586334229,"158":0.6087159514427185,"159":0.5896722674369812,"160":0.07477067410945892,"161":0.22908371686935425,"162":0.5333513617515564,"163":-0.3248119354248047,"164":-0.03788182511925697,"165":-0.01583201251924038,"166":0.5912668704986572,"167":0.11568686366081238,"168":0.764064610004425,"169":-0.3908466398715973,"170":0.019061964005231857,"171":-0.6259063482284546,"172":-0.08239974826574326,"173":-0.3802117705345154,"174":-0.7955813407897949,"175":-0.5473997592926025,"176":1.0060211420059204,"177":-0.4246238172054291,"178":-0.279042512178421,"179":-0.7429631948471069,"180":0.5613131523132324,"181":2.4524025917053223,"182":1.5059747695922852,"183":-1.4845484495162964,"184":0.45523709058761597,"185":-0.4996415078639984,"186":1.5521154403686523,"187":-0.02081112377345562,"188":0.8202294111251831,"189":0.8532935976982117,"190":-1.4006468057632446,"191":0.06818389147520065,"192":0.7026267647743225,"193":-0.20894601941108704,"194":1.3941185474395752,"195":0.19816525280475616,"196":-0.9622841477394104,"197":-0.295827716588974,"198":-0.19587349891662598,"199":-1.2530757188796997,"200":-0.996150553226471,"201":0.288310706615448,"202":1.221407175064087,"203":0.30764302611351013,"204":0.3472065031528473,"205":-0.19005213677883148,"206":-0.4932359755039215,"207":-0.23859688639640808,"208":0.6575319766998291,"209":-0.8924880027770996,"210":0.025795936584472656,"211":0.9255363941192627,"212":-1.3753702640533447,"213":-0.6298838257789612,"214":-0.05924108996987343,"215":0.43352076411247253,"216":-0.5760590434074402,"217":0.9549768567085266,"218":0.6979191303253174,"219":-0.13284988701343536,"220":-0.17084035277366638,"221":-0.3291832208633423,"222":0.5149620771408081,"223":0.09716424345970154,"224":-0.3879835605621338,"225":0.22567397356033325,"226":0.48674482107162476,"227":-1.120717167854309,"228":0.3598227798938751,"229":-0.16087302565574646,"230":-0.04244602471590042,"231":0.515481173992157,"232":-0.28293782472610474,"233":-0.22365212440490723,"234":-0.05406578257679939,"235":0.21492572128772736,"236":-0.19724443554878235,"237":0.5182039141654968,"238":0.28847625851631165,"239":0.3686370849609375,"240":0.3123539686203003,"241":0.18400628864765167,"242":0.3101174831390381,"243":-0.16503030061721802,"244":-0.23029369115829468,"245":0.20420782268047333,"246":-0.229009211063385,"247":-0.061892490833997726,"248":-0.24758903682231903,"249":0.23743374645709991,"250":1.3359085321426392,"251":0.2426779419183731,"252":1.000925064086914,"253":-0.580618143081665,"254":0.5054315328598022,"255":0.3946073055267334,"256":-0.20562781393527985,"257":0.11205705255270004,"258":0.06925920397043228,"259":0.21258363127708435,"260":0.03949514403939247,"261":2.44746470451355,"262":0.4202626645565033,"263":-0.6095510125160217,"264":0.9818302989006042,"265":-0.6973217129707336,"266":0.9198532700538635,"267":1.6537442207336426,"268":1.3537834882736206,"269":-1.197261095046997,"270":-1.2567929029464722,"271":-1.62296724319458,"272":0.04033530130982399,"273":-0.46241822838783264,"274":-2.33192777633667,"275":1.5907975435256958,"276":-0.6232033371925354,"277":-0.6014769077301025,"278":-1.1558510065078735,"279":-0.7349404096603394,"280":0.5206387042999268,"281":-0.580805778503418,"282":0.06152709946036339,"283":-0.3220900893211365,"284":-0.17748600244522095,"285":-0.08306148648262024,"286":0.9417135119438171,"287":1.4456924200057983,"288":-0.5013313889503479,"289":-0.726858377456665,"290":-0.5352782011032104,"291":-1.117422103881836,"292":0.14490678906440735,"293":-0.3751026690006256,"294":0.15807507932186127,"295":0.04230011999607086,"296":0.5172567963600159,"297":-2.284696340560913,"298":-1.2874715328216553,"299":0.6859847903251648,"300":0.4327450692653656,"301":1.0009011030197144,"302":-0.9766871929168701,"303":-0.7626504898071289,"304":-0.19293208420276642,"305":0.5289367437362671,"306":-0.014801347628235817,"307":-0.09064242988824844,"308":-1.1687082052230835,"309":0.019977733492851257,"310":-0.25000956654548645,"311":-0.38546624779701233,"312":0.13522566854953766,"313":0.3510522246360779,"314":1.2391674518585205,"315":0.5052335262298584,"316":0.3602323830127716,"317":-0.08233372867107391,"318":-0.04530549421906471,"319":0.9855445623397827,"320":0.16263793408870697,"321":-0.21075434982776642,"322":0.6291441917419434,"323":-0.4430721700191498,"324":-0.3515779674053192,"325":0.4347760081291199,"326":0.5044987797737122,"327":-1.7662523984909058,"328":-0.6572977900505066,"329":0.2912445366382599,"330":1.4790027141571045,"331":0.6599258780479431,"332":-0.3744818866252899,"333":0.18895673751831055,"334":0.23125679790973663,"335":0.18252822756767273,"336":-0.3744750916957855,"337":1.2870593070983887,"338":0.9079747796058655,"339":0.4488721787929535,"340":-0.6451921463012695,"341":-0.15991990268230438,"342":0.10476899147033691,"343":0.7783964276313782,"344":0.10223853588104248,"345":-0.6671932935714722,"346":-0.20792865753173828,"347":-0.08161544799804688,"348":-0.07442418485879898,"349":-0.6897146701812744,"350":-0.2608155310153961,"351":0.6990026235580444,"352":-0.4993427097797394,"353":-0.42860811948776245,"354":-0.3894924819469452,"355":0.7833288908004761,"356":-0.8221405148506165,"357":0.5524135231971741,"358":0.21253737807273865,"359":1.262925148010254,"360":2.2406766414642334,"361":-0.36288097500801086,"362":1.2092602252960205,"363":1.8740260601043701,"364":1.6351882219314575,"365":0.21159707009792328,"366":1.538260817527771,"367":-0.444818377494812,"368":2.435041666030884,"369":-0.32713189721107483,"370":0.673017144203186,"371":0.7416329979896545,"372":1.1628879308700562,"373":0.7488798499107361,"374":-0.17357231676578522,"375":-1.3478082418441772,"376":-1.6672922372817993,"377":0.6329513192176819,"378":0.5874534249305725,"379":-2.541637659072876,"380":0.4489990770816803,"381":0.6737484335899353,"382":-0.3016476035118103,"383":0.10614252090454102,"384":0.47906172275543213,"385":-0.2783687114715576,"386":0.3955519497394562,"387":0.5861532092094421,"388":0.9125203490257263,"389":-0.06321023404598236,"390":-0.10840162634849548,"391":0.2263532280921936,"392":0.01536988653242588,"393":0.4293012022972107,"394":-0.6039408445358276,"395":-0.5624014139175415,"396":0.5002763867378235,"397":-0.38527604937553406,"398":-0.12095046043395996,"399":-0.29996418952941895}},"inputBias":{"rows":20,"columns":1,"weights":{"0":-0.43864408135414124,"1":-0.40264686942100525,"2":-0.42598795890808105,"3":-0.13004015386104584,"4":0.15570220351219177,"5":0.2109217494726181,"6":-0.29323020577430725,"7":0.321878582239151,"8":-0.5528604388237,"9":-0.371288925409317,"10":-1.9148693084716797,"11":0.4947569668292999,"12":-0.38868334889411926,"13":-0.3656724691390991,"14":-0.3462030291557312,"15":-0.08821091800928116,"16":-0.7636921405792236,"17":0.4974571168422699,"18":0.17464680969715118,"19":-0.5393527150154114}},"forgetMatrix":{"rows":20,"columns":47,"weights":{"0":-0.4039981961250305,"1":0.1503685861825943,"2":0.5921468138694763,"3":-0.15399976074695587,"4":0.20379950106143951,"5":0.4071788489818573,"6":0.5338819026947021,"7":-0.35715413093566895,"8":-0.1628495156764984,"9":0.2639922797679901,"10":-0.13744565844535828,"11":-0.3315410017967224,"12":-0.7414225935935974,"13":0.23658689856529236,"14":0.6362720131874084,"15":-0.4829949736595154,"16":0.7898846864700317,"17":-0.8184300065040588,"18":-0.15483228862285614,"19":0.7743359804153442,"20":0.20856063067913055,"21":0.6095504760742188,"22":-0.3200429677963257,"23":-0.6702348589897156,"24":-0.3065151274204254,"25":0.7690207362174988,"26":1.0732899904251099,"27":-0.5201454758644104,"28":0.20542457699775696,"29":0.3220503032207489,"30":-0.34732678532600403,"31":0.7791150212287903,"32":-0.37414059042930603,"33":0.6414029002189636,"34":-0.7880241274833679,"35":0.11894284933805466,"36":-0.2813801169395447,"37":0.08405645936727524,"38":0.2626745104789734,"39":0.4984615743160248,"40":-0.2411157488822937,"41":-0.41776734590530396,"42":-0.24821287393569946,"43":0.18942299485206604,"44":-0.37422704696655273,"45":0.21239271759986877,"46":0.5009564757347107,"47":-0.2633354961872101,"48":-0.07368429005146027,"49":-0.017959997057914734,"50":0.32305023074150085,"51":-0.8109082579612732,"52":-0.5831655859947205,"53":-0.29023557901382446,"54":-0.13418662548065186,"55":0.10308198630809784,"56":0.3388853967189789,"57":-0.21565596759319305,"58":-0.45660239458084106,"59":-0.23383115231990814,"60":-0.17055989801883698,"61":-0.007441718131303787,"62":0.220957949757576,"63":0.6231564879417419,"64":-1.0717345476150513,"65":-0.2555411159992218,"66":-0.9636802077293396,"67":-0.7550716996192932,"68":0.0282952468842268,"69":0.7703099846839905,"70":-0.537874162197113,"71":-0.1964428871870041,"72":0.22456911206245422,"73":0.7274377942085266,"74":0.05642227455973625,"75":-0.4739656150341034,"76":-0.08476018160581589,"77":-0.9591413736343384,"78":0.08269351720809937,"79":0.07062383741140366,"80":0.6499241590499878,"81":0.136209636926651,"82":-1.2074693441390991,"83":-0.03591611236333847,"84":0.13325348496437073,"85":0.7461073994636536,"86":-0.33258864283561707,"87":-0.3535740077495575,"88":0.08066172897815704,"89":-0.9209021925926208,"90":-0.12045812606811523,"91":0.45510146021842957,"92":0.09018611907958984,"93":-0.766647458076477,"94":0.2356787621974945,"95":0.5343911051750183,"96":0.33372825384140015,"97":0.9787163138389587,"98":0.9216278195381165,"99":0.1184343546628952,"100":0.3326876759529114,"101":0.5048863291740417,"102":-0.9755468368530273,"103":1.2430739402770996,"104":-1.3352187871932983,"105":-1.093904972076416,"106":-0.12585587799549103,"107":0.6446398496627808,"108":-0.6653912663459778,"109":0.7665418982505798,"110":0.9746983647346497,"111":0.09612127393484116,"112":0.40145155787467957,"113":0.9837157130241394,"114":0.34520500898361206,"115":-0.5611587762832642,"116":-0.4033930003643036,"117":0.2775159180164337,"118":-0.3312202990055084,"119":-0.20419473946094513,"120":0.06526385247707367,"121":-0.2673643231391907,"122":0.34141308069229126,"123":-0.38561582565307617,"124":0.4398822486400604,"125":-0.759411096572876,"126":-1.0399020910263062,"127":1.3980084657669067,"128":0.750479519367218,"129":0.5932760238647461,"130":-0.8268207311630249,"131":0.6244600415229797,"132":-0.2061929851770401,"133":1.0283684730529785,"134":-0.5618668794631958,"135":-0.10078950226306915,"136":0.6387119293212891,"137":0.9303398728370667,"138":-0.8100897669792175,"139":-0.00986427254974842,"140":0.6024960279464722,"141":-0.9212458729743958,"142":0.08748368918895721,"143":0.8353468775749207,"144":0.43692269921302795,"145":1.0952738523483276,"146":1.252602458000183,"147":0.17555880546569824,"148":0.8942022919654846,"149":-1.0532925128936768,"150":1.568697214126587,"151":-0.2612616717815399,"152":0.4880639314651489,"153":0.5423461198806763,"154":-0.2357870638370514,"155":-0.6072394251823425,"156":0.3596488833427429,"157":1.5489858388900757,"158":0.8847564458847046,"159":-0.6001852750778198,"160":-0.5790637135505676,"161":0.3798847794532776,"162":1.021030068397522,"163":-0.16120664775371552,"164":0.8121716380119324,"165":0.06921561807394028,"166":-1.7642172574996948,"167":-0.5598620772361755,"168":-0.3065040707588196,"169":0.3328308165073395,"170":0.4164416491985321,"171":-0.09364958852529526,"172":0.39984893798828125,"173":-0.13833636045455933,"174":1.0021090507507324,"175":1.1881113052368164,"176":0.7630580067634583,"177":-0.3488212823867798,"178":-1.0536333322525024,"179":-1.013684868812561,"180":0.7543426752090454,"181":-0.8345268964767456,"182":-0.730584979057312,"183":0.7251024842262268,"184":0.06355089694261551,"185":-0.1281500905752182,"186":0.3912560045719147,"187":-0.025252945721149445,"188":0.6797162890434265,"189":-0.6912245154380798,